4.8803e-02, -2.3638e-02, -2.4444e-02, 2.6226e-02, 4.8151e-02, 1.1690e-02, 2.0221e-02, -1.2157e-03, -4.1498e-02, 1.5233e-02
-2.8345e-02, -2.0176e-02, -7.8082e-02, -2.9883e-02, 5.5703e-02, -5.0069e-03, -2.6948e-02, 5.0041e-02, -4.4313e-02, -5.0225e-02
-4.5684e-02, 1.3951e-02, -3.7867e-03, -8.1920e-02, -3.1061e-02, 2.3943e-02, 1.0363e-02, -1.2595e-02, 5.1628e-02, -5.1594e-02
-3.4220e-02, 4.5175e-02, -3.5164e-02, 3.4370e-02, 3.6241e-02, -5.9872e-02, 2.8935e-02, 6.5971e-02, -8.3434e-02, 6.1247e-02
4.6985e-02, 3.4209e-02, 5.8297e-02, 3.1437e-02, -4.5562e-02, -3.8969e-02, 6.6118e-02, 8.6231e-02, 6.1561e-02, 1.8063e-02
6.0539e-02, 5.7080e-03, -8.0907e-02, 3.5445e-02, -2.7013e-02, 1.2572e-02, -6.2978e-02, 5.9566e-02, 3.9453e-02, 2.1495e-02
-1.3109e-02, 1.1910e-02, -2.0073e-03, -2.1862e-02, -8.2536e-02, 7.8899e-02, 3.1703e-02, 2.7803e-03, -8.6357e-03, 6.8376e-02
-7.1854e-02, 7.5713e-02, 2.9186e-02, 5.8755e-02, -5.4409e-04, 2.5765e-02, 1.2984e-02, 6.5058e-02, -6.1995e-02, 3.2586e-02
-5.3900e-02, -2.8980e-02, 5.2332e-02, 1.3186e-02, -8.0397e-02, -5.4675e-02, 3.1383e-02, 3.0728e-02, -5.8701e-02, 8.3325e-02
6.1066e-02, 7.4655e-03, -5.5112e-02, -2.8929e-02, 1.9354e-02, -4.1954e-02, -1.4819e-02, -4.4107e-02, 1.8926e-02, 2.3174e-02
5.7100e-02, 8.3245e-02, 2.1182e-02, 3.9024e-02, -7.0000e-02, -3.7731e-02, 2.3957e-03, 1.7307e-02, -1.2088e-02, 1.9613e-02
8.6746e-02, 2.9157e-02, -6.4569e-03, 7.3017e-03, 6.8209e-02, -3.9603e-02, -5.9877e-02, 6.7677e-02, 4.4980e-03, 6.4982e-02
-7.5155e-02, -1.0318e-01, -2.8476e-01, -2.2633e-01, -2.7710e-01, -2.0191e-01, 3.9038e-01, -5.5472e-02, -1.3473e-01, -2.0284e-01
-1.4768e-01, -1.0102e-01, -1.7960e-01, -3.5084e-01, -3.5034e-01, -2.0442e-01, 2.9382e-01, -6.8826e-02, -2.3631e-01, -2.8943e-01
-6.3748e-02, 1.1517e-02, 2.8079e-01, -1.5451e-01, -1.3098e-01, 2.4965e-02, -3.4526e-01, -6.3818e-03, 4.2122e-02, -2.1326e-02
-8.5497e-03, 6.6199e-02, 1.7238e-01, -7.0799e-02, -8.6559e-03, 8.1599e-02, -1.5752e-01, -2.2426e-02, -6.6261e-02, 7.9403e-02
7.4629e-02, 3.9381e-02, -5.1211e-02, 7.1553e-02, 7.9002e-02, 5.5029e-02, -6.4709e-02, 1.5777e-04, -6.7524e-02, 5.2674e-02
-2.9869e-02, -4.4005e-02, 5.1136e-02, -8.1396e-02, -1.7550e-02, -7.1603e-02, -2.6417e-03, 8.5674e-02, 3.2566e-02, 3.3686e-02
-2.6148e-02, -5.1272e-02, -4.3118e-02, -8.5995e-02, -1.8658e-03, 8.4207e-02, 5.8859e-02, 1.3483e-02, -3.3305e-02, 4.6400e-02
2.3062e-02, 3.2133e-02, 7.2345e-02, 1.9733e-02, -5.4861e-02, 3.7333e-02, 8.5692e-02, 6.7370e-02, 7.8395e-02, -1.1183e-02
-2.6617e-02, -4.8354e-02, -5.3949e-02, -3.8813e-02, 4.4690e-02, 7.6074e-02, 1.4159e-02, 3.2015e-02, -1.1843e-03, -4.1736e-03
3.0441e-02, 8.0378e-02, 7.7088e-02, 1.0586e-02, -9.4763e-04, 2.0848e-02, -4.3044e-02, -8.4613e-02, 3.1871e-02, 1.4603e-02
-3.1384e-02, -3.7030e-02, -5.5014e-03, -1.4425e-02, -5.8461e-02, -8.5759e-02, -8.5050e-03, 3.5037e-02, -5.7446e-02, -1.5840e-03
4.2420e-03, 8.6497e-02, -3.6354e-02, 9.2759e-03, 3.1470e-03, -8.0637e-02, 9.5510e-03, -1.6618e-02, -5.3162e-02, -1.4081e-02
3.7142e-02, -1.1144e-02, 1.0130e-02, -3.6842e-02, 2.5251e-02, -5.6960e-02, 8.4595e-02, 8.3329e-02, -1.8386e-02, -8.1575e-02
-8.4758e-02, -3.7170e-02, -6.9935e-02, -4.6955e-02, -5.0111e-03, -1.3087e-02, -4.5459e-02, 3.2445e-02, 7.2121e-03, 7.3287e-02
-2.2285e-02, 8.3134e-02, -5.0780e-02, 4.3914e-03, 7.4036e-02, 8.3166e-02, -4.3336e-02, -6.6885e-02, -4.6788e-02, -4.9205e-02
-9.0089e-03, -5.0902e-02, -5.5558e-02, 2.4879e-02, 3.6200e-02, 2.9696e-02, 6.4032e-02, 3.0724e-02, 5.0614e-02, 5.4849e-03
5.8399e-02, 3.3263e-02, -3.8472e-02, 7.0488e-02, -5.1993e-02, 3.7656e-02, 5.5037e-03, -1.6586e-02, -5.3735e-02, -4.3291e-02
-1.4770e-02, -6.4689e-02, -8.1766e-02, 2.8182e-02, 3.5057e-02, 4.9782e-02, -1.8767e-03, 3.0722e-02, 8.5403e-02, -4.9879e-02
-3.3310e-02, 5.4833e-02, -1.9729e-02, -1.5569e-02, 3.3222e-02, 9.0946e-04, -5.4949e-02, 1.4667e-02, 3.4721e-02, -8.4555e-02
-5.2440e-02, 4.7745e-02, 7.8029e-04, -6.5143e-02, -3.4474e-02, 7.9845e-02, -6.0996e-02, 3.3133e-02, -5.7032e-02, -5.4323e-02
7.4666e-04, 4.6230e-02, -9.2739e-02, 5.6723e-03, -4.9233e-02, 3.6798e-02, 2.2888e-01, 4.5957e-02, -6.3231e-02, -9.6555e-02
2.8118e-02, -4.6387e-02, -2.1035e-01, -4.7957e-02, -2.9033e-01, 3.1258e-02, 4.1255e-01, 3.4995e-02, 4.3520e-02, -4.7666e-02
-4.4496e-02, -3.7275e-02, -5.4007e-01, -4.0579e-02, -5.3774e-01, -1.5758e-02, 5.0952e-01, -2.2116e-01, -1.0687e-01, -1.4857e-01
-8.6174e-02, -1.9047e-01, -3.7679e-01, -1.5186e-01, -5.9011e-01, -4.9876e-02, 5.9214e-01, -3.4335e-01, -1.4736e-01, -2.1111e-01
-2.2907e-01, -4.0682e-01, 1.9283e-02, -2.9745e-01, -4.9901e-01, -2.8560e-01, 4.0767e-01, -3.3458e-01, -3.2516e-01, -3.1617e-01
-3.2982e-01, -3.0989e-01, -1.2335e-01, -4.5555e-01, -6.6565e-01, -1.3693e-01, 5.8354e-01, -5.1971e-01, -4.7449e-01, -4.3566e-01
-4.4387e-01, -4.2773e-01, -3.7105e-01, -4.8280e-01, -5.9199e-01, -2.5924e-01, 5.5423e-01, -5.2016e-01, -5.7365e-01, -5.2129e-01
2.2874e-01, -4.6584e-01, -4.3890e-01, -5.0006e-01, -7.4986e-01, -4.8385e-01, 2.7082e-01, -4.1937e-01, -6.9988e-01, -5.0951e-01
3.8258e-01, -4.3305e-01, -4.0662e-01, -5.0950e-01, -7.2149e-01, -5.9036e-01, 2.6819e-01, -3.3269e-01, -5.4937e-01, -3.6167e-01
2.9363e-01, -5.5276e-01, -8.8940e-01, -7.8901e-01, -1.0716e+00, -7.4516e-01, 6.7969e-01, -4.1205e-01, -6.0093e-01, -5.1079e-01
-8.1561e-01, 4.6849e-01, 1.0397e-01, -5.0472e-01, -5.4329e-01, -9.3154e-01, 4.3034e-01, -4.7252e-01, -5.6916e-01, -6.0326e-01
2.8295e-01, 3.8410e-01, 2.6070e-01, -6.0048e-01, -6.2651e-01, -7.3720e-01, 1.5564e-01, -4.4175e-01, -9.4555e-01, -4.7667e-01
3.2094e-01, -6.4807e-01, 6.3907e-01, -9.6013e-01, -7.4766e-01, -7.4671e-01, -9.7735e-03, -4.6007e-01, -9.7408e-01, -3.0477e-01
2.7399e-01, -6.2664e-01, -3.9330e-02, -6.4074e-01, -6.2352e-01, -9.1113e-01, 4.3214e-01, -2.9856e-01, -7.8712e-01, -3.5165e-01
-4.2882e-01, -2.8876e-01, -6.3273e-01, -3.3424e-01, -8.5157e-01, -7.5457e-01, 1.0768e+00, -4.3721e-02, -6.3750e-01, -2.5779e-01
-4.3556e-01, -1.7778e-01, -5.2352e-01, -5.6374e-01, -3.4228e-01, -6.9828e-01, 4.3400e-01, -2.2887e-01, -6.4291e-01, -3.2840e-01
-4.3462e-01, -1.2855e-01, -5.7129e-01, -6.2740e-01, -4.3240e-01, -8.5419e-01, 5.0679e-01, -2.3433e-01, -7.5372e-01, -4.4466e-01
-3.0586e-01, -8.1815e-02, -5.0046e-01, -3.7922e-01, -3.7191e-01, -6.4370e-01, 3.5113e-01, -3.6975e-02, -2.8589e-01, -2.6975e-01
-4.2115e-02, -1.6655e-02, -5.4255e-01, -1.4952e-01, -3.9540e-01, -1.6543e-01, 4.0279e-01, -2.3576e-01, -2.6391e-01, -3.7209e-01
2.1754e-02, 1.7587e-02, -3.1115e-01, -7.1964e-02, -2.6134e-01, -3.2047e-02, 3.9285e-01, -2.0868e-01, -2.3516e-01, -3.8621e-01
8.4306e-02, 7.7935e-02, -3.9829e-02, 6.9412e-03, -6.5351e-02, -3.2655e-02, -7.6609e-02, -7.3923e-02, -6.6131e-02, 5.0482e-02
8.8220e-03, 3.8399e-02, 8.0497e-02, 5.3936e-02, -5.7752e-02, -3.3876e-02, -3.8735e-02, -8.5889e-02, -7.5313e-02, 3.4736e-02
8.2147e-02, -6.1772e-02, -1.1571e-02, -3.1769e-02, 3.4227e-02, 3.1363e-02, -7.3763e-02, -3.0064e-02, -1.2863e-02, -2.7149e-02
8.6010e-02, -4.7965e-02, -8.4353e-02, -1.1937e-02, -1.5992e-02, 2.8613e-02, 4.5884e-02, 3.0574e-02, 1.7803e-02, -1.8744e-02
-7.0019e-02, -1.7550e-02, -6.3624e-02, -7.0017e-02, -4.2034e-02, -5.8370e-02, 6.2689e-02, -7.4416e-02, -3.9846e-02, -7.1526e-02
-4.0991e-02, -2.9294e-02, -3.2992e-02, -7.4299e-02, 7.7667e-02, 2.8702e-02, -3.5190e-02, 2.1537e-02, -6.1923e-02, 7.8714e-02
-2.8658e-02, 3.0161e-02, -3.3029e-02, -8.6819e-02, -1.3424e-01, -1.1132e-01, 2.2933e-01, -6.8304e-02, -4.3460e-03, -5.4410e-03
3.6385e-01, 8.2172e-02, -8.6732e-02, -2.1632e-02, -3.8189e-01, -4.9371e-02, -2.2212e-01, -3.8170e-01, -1.3130e-01, -3.9499e-01
2.3666e-01, -5.0555e-02, -3.4325e-01, -1.2846e-01, -5.4980e-01, -2.2488e-01, 4.2073e-01, -3.0433e-01, -2.8572e-01, -3.9689e-01
-1.1521e-01, -3.9112e-03, 4.7344e-02, -3.5065e-01, -4.2948e-01, -1.6253e-01, 5.1254e-01, 4.8631e-02, -1.2876e-01, -1.3077e-01
-4.2486e-01, -2.3769e-01, 1.2275e-01, -4.0351e-01, -5.6229e-01, -1.4363e-01, 7.0516e-01, -3.2132e-01, -2.2453e-01, -1.7575e-01
-7.8910e-02, -5.3607e-01, -2.3270e-01, -5.7531e-01, -6.8764e-01, -3.7995e-01, 7.1442e-01, -4.6640e-01, -7.9102e-01, -3.7672e-01
-5.0745e-01, -3.9625e-01, 2.4828e-01, -6.8158e-01, -9.2140e-01, -6.5394e-01, 7.8153e-01, -6.6416e-01, -9.9941e-01, -5.9604e-01
-6.9565e-01, -4.1199e-01, 2.3980e-01, -1.1219e+00, -1.1618e+00, -7.0215e-01, 3.5757e-01, -9.1736e-01, -9.2461e-01, -8.0857e-01
-1.7004e+00, -7.1273e-01, 2.0686e-02, -7.5947e-02, -8.9355e-01, -3.9802e-01, 7.5223e-01, -8.6019e-01, -1.5414e+00, -9.4029e-01
-3.9111e-01, -6.5873e-01, 1.7120e-01, 7.9413e-02, -1.9361e+00, -4.7156e-01, 6.4089e-01, -7.8170e-01, -1.2850e+00, -9.0258e-01
-3.2354e-01, -1.3148e-01, 2.5743e-01, 1.6813e-01, -9.1808e-01, -7.9391e-01, 3.8453e-01, -6.0962e-01, -1.8966e+00, -8.2909e-01
-6.8216e-01, 4.5303e-01, 3.0232e-03, -6.3657e-02, -6.2569e-01, -1.2065e+00, 2.4211e-01, -7.2818e-01, -2.3823e+00, -1.2045e+00
-1.0252e+00, 2.3307e-01, 4.5384e-02, -6.9876e-02, -4.4101e-01, -1.2693e+00, 5.5927e-01, -5.2595e-01, -2.2088e+00, -1.6580e+00
-1.1853e+00, 5.0119e-01, 3.5076e-02, -2.5299e-01, -6.6552e-01, -4.4317e-01, 2.1141e-01, -5.4637e-01, -2.5885e+00, -1.8700e+00
-4.7071e-01, 5.4001e-01, 2.3027e-01, -2.4637e-01, -8.6111e-01, -3.5970e-02, 1.0669e-01, -9.2951e-01, -2.4492e+00, -9.0160e-01
-1.5870e+00, -8.3736e-04, -1.4639e-01, -1.7604e-01, -5.7665e-01, 2.2169e-01, 3.7216e-01, -7.6256e-01, -4.6352e-01, -1.3742e+00
-1.2358e+00, 1.9040e-02, -2.2845e-01, -2.9008e-01, -1.4632e+00, 1.4482e-01, 4.0319e-01, -7.2731e-01, 2.6687e-02, -1.5444e+00
-6.1858e-01, 1.5331e-01, -3.1977e-01, -4.6765e-01, -1.2294e+00, 2.2834e-02, 4.5494e-01, -6.7677e-01, -1.2660e+00, -1.3825e+00
-1.0578e+00, -7.9884e-02, -1.9386e-01, -4.6666e-01, -7.1577e-01, -3.2667e-01, 3.7201e-01, -3.5263e-01, -1.8426e+00, -1.0511e+00
-1.1745e+00, -7.6265e-01, -8.2655e-02, -7.7930e-01, -4.0410e-01, -2.8911e-01, 4.7631e-01, -3.3978e-01, -1.2530e+00, -7.0674e-01
-7.9087e-01, -4.6011e-01, -5.9179e-01, -6.9634e-01, -3.3644e-01, -3.0141e-01, 5.7794e-01, -3.9365e-01, -6.4570e-01, -4.0361e-01
-6.3621e-01, -5.7503e-01, 9.0518e-02, -5.7727e-01, -5.7238e-01, -2.9051e-02, 4.3205e-01, -1.9576e-01, -7.8027e-01, -2.8158e-01
-5.3752e-01, -3.7442e-01, 3.7990e-01, -2.9389e-01, -7.2122e-01, -6.1225e-01, 2.0617e-02, -1.6121e-01, -6.1919e-01, -1.4870e-01
1.6633e-04, -2.6248e-01, 3.1899e-01, 2.9562e-02, -4.0473e-01, -3.4707e-01, -3.1853e-01, 8.0625e-02, -4.3002e-01, -7.6766e-02
-1.3823e-02, 4.5645e-02, 7.7971e-02, -5.3506e-02, 6.7141e-02, -3.4505e-02, 3.0835e-02, -9.5965e-03, -5.4475e-02, 4.9820e-02
1.7740e-02, 4.1848e-02, 3.9888e-02, 1.0394e-02, 5.7656e-02, 1.0071e-02, -7.7329e-02, 3.0944e-02, -6.4951e-02, -5.4604e-02
7.7847e-02, 7.8713e-02, -1.0848e-02, -6.3434e-02, 3.1225e-02, -2.8668e-02, 4.9884e-02, 1.4560e-02, -6.4859e-02, -8.5168e-02
-5.4168e-02, 8.5764e-02, -4.1100e-02, 8.6569e-03, -8.6144e-02, -3.1875e-02, 1.8463e-03, -6.1619e-02, 2.4471e-02, 1.2306e-02
-6.3141e-02, -6.6130e-02, 1.6371e-01, -2.6621e-01, -1.9099e-01, -6.5176e-02, 3.3167e-01, -4.8506e-02, -1.2030e-01, -7.3865e-03
3.4638e-01, 3.4085e-02, -3.4127e-01, -6.7640e-02, -4.3286e-01, -2.8125e-01, 3.8906e-01, -3.2363e-01, -3.2113e-01, -3.8796e-01
1.1691e-01, -1.8615e-01, -2.8008e-01, -3.5344e-01, -4.8285e-01, -5.4968e-01, 3.8615e-01, -3.5190e-01, -4.7331e-01, -4.3722e-01
-3.8704e-01, -4.7187e-01, -1.0578e-01, 5.0100e-01, -5.0529e-01, -4.2712e-01, 8.1295e-02, -3.5475e-01, -7.1441e-01, -2.4194e-01
-4.6561e-01, -6.8231e-01, -7.5633e-03, 2.6167e-01, -5.5972e-01, -5.0189e-01, 5.8377e-01, -6.9730e-01, -9.5924e-01, -5.0425e-01
-5.4647e-01, -8.6649e-01, 3.0353e-01, 1.9454e-01, -3.1156e-01, -7.3755e-01, 4.7558e-01, -9.4856e-01, -8.8697e-01, -6.8815e-01
-2.8288e-02, -6.9805e-01, 1.8871e-01, 2.3159e-01, -6.4470e-01, -2.4435e-01, 1.9247e-01, -7.5793e-01, -3.4704e-01, -8.7028e-01
-1.6789e-01, -6.8227e-01, 5.4430e-01, -2.0745e-03, -1.0193e+00, -1.2834e-01, 3.0359e-01, -1.0475e+00, -9.2755e-02, -9.2295e-01
-8.1408e-02, -8.1292e-01, 4.9137e-01, 1.6801e-01, -9.2072e-01, -2.2729e-01, 3.9871e-01, -8.6849e-01, -9.2357e-02, -1.8683e+00
-6.1573e-02, -6.7008e-01, 4.6911e-01, 2.4821e-01, -1.0232e+00, -3.9499e-01, 3.0482e-01, -8.5487e-01, -1.6267e-01, -1.6966e+00
-1.6425e-01, -1.3435e-01, 3.7108e-01, 3.5473e-01, -1.0092e+00, -1.6347e-01, 1.4796e-01, -8.8399e-01, -3.2405e-01, -2.1897e+00
4.1858e-02, -9.8455e-03, 4.6702e-01, 1.8535e-01, -1.4858e+00, -8.0592e-02, 2.3867e-01, -9.5594e-01, -3.5105e-01, -2.0144e+00
-8.8832e-02, -2.2300e-01, 2.6551e-01, 3.4944e-01, -8.8681e-01, -2.6507e-02, 2.8558e-01, -1.0535e+00, -3.4151e-01, -2.4480e+00
-5.3172e-02, -1.2388e-01, 4.9772e-02, 1.5810e-01, -6.1288e-01, 3.9117e-02, 1.1467e-01, -1.1328e+00, -1.1404e-01, -2.7834e+00
-4.9934e-02, -9.9152e-02, 1.7527e-01, 1.7769e-01, -5.2024e-01, -3.7992e-02, 1.4456e-02, -9.3071e-01, -2.6221e-01, -2.3590e+00
-2.4308e-02, -2.1090e-01, 3.7345e-02, 2.0349e-01, -3.8776e-01, -5.9711e-02, -1.4901e-02, -1.2574e+00, -7.8792e-02, -1.3636e+00
-3.9138e-01, -3.9510e-01, -1.9288e-01, 2.3991e-01, -4.2295e-01, 1.1954e-01, 2.0032e-01, -7.2231e-01, 7.7400e-03, -2.0208e-01
-4.1125e-01, -5.8124e-02, -2.8022e-01, 1.0769e-01, -1.3353e-01, 2.6756e-01, 3.4431e-01, -9.4236e-01, -3.1814e-01, -8.4032e-01
-2.9979e-01, -3.1089e-01, -3.0646e-01, 2.7727e-01, -2.4637e-02, 1.7908e-01, 1.4998e-01, -5.1805e-01, -1.7925e-01, -1.0309e+00
-8.2260e-01, -6.1348e-01, -8.1635e-02, -2.6509e-01, 3.4217e-01, 2.2672e-01, 1.0629e-01, -5.7614e-01, 2.6485e-01, -9.8398e-01
-6.6132e-01, -6.7252e-01, -3.7511e-01, -7.8315e-01, 4.2413e-01, 2.1792e-01, 3.9129e-01, -5.9406e-01, 1.6109e-01, -1.2268e+00
-2.7028e-01, -6.1691e-01, -9.1828e-01, -7.4511e-01, -3.4031e-02, 1.1759e-01, 2.8797e-01, -3.6901e-01, 2.5693e-01, -6.1456e-01
-1.5220e-01, -7.4929e-01, 3.9184e-02, -4.9958e-01, -5.7013e-01, 3.3110e-01, 1.5905e-01, -3.1579e-01, -6.0810e-01, -2.8968e-01
9.5225e-02, -3.5975e-01, 3.8165e-01, -3.6912e-01, -5.5653e-01, 3.2895e-01, -3.2090e-01, -3.3041e-02, -7.8474e-01, -1.6027e-01
-4.0335e-01, -3.0087e-01, -2.8409e-01, 7.7912e-03, -4.0179e-01, 3.3088e-01, 1.2239e-01, 6.2862e-02, -3.0036e-01, -5.7120e-02
1.1568e-02, -3.1959e-02, 4.7830e-02, 1.5005e-02, -3.8424e-03, 3.4332e-02, 4.3078e-02, 2.9516e-02, 3.7913e-02, -7.9039e-02
-2.9594e-02, -7.9742e-02, -7.9718e-02, 3.0816e-02, 2.7203e-02, -1.9200e-02, -4.2885e-02, 1.4086e-02, 7.7388e-02, -2.5228e-02
4.5529e-02, 2.6365e-02, -2.0449e-01, 2.6206e-01, 3.4819e-02, -1.9725e-01, 6.5429e-02, -8.9981e-02, -2.6199e-02, 5.0072e-02
-2.7438e-01, -1.2625e-01, -3.6774e-01, 3.1032e-01, -1.0837e-01, -4.0898e-01, -3.3928e-01, 2.0368e-02, 2.5924e-01, -9.9478e-02
2.9117e-01, -3.7257e-01, -5.1234e-01, 5.2471e-01, -4.7282e-01, -5.5243e-01, -1.5565e-01, -3.0829e-02, -5.1686e-01, -2.8755e-01
-4.5780e-01, -2.0492e-01, -2.4617e-01, 4.3870e-01, 8.3751e-02, -6.2565e-01, 4.0554e-01, -5.7795e-01, -8.1679e-01, -6.2530e-01
-4.9479e-01, 7.3909e-02, 8.2212e-02, 6.4162e-01, 1.2408e-01, -5.7953e-01, 1.8402e-01, -5.5478e-01, -8.4595e-01, -4.5744e-01
-2.6182e-01, -6.5881e-01, 3.2608e-01, 2.8058e-01, -3.5201e-01, -2.4059e-01, 2.4895e-01, -7.6622e-01, -3.7271e-01, -1.0749e+00
2.1091e-03, -4.7284e-01, 8.5190e-02, 2.3943e-01, -9.9257e-02, -5.4952e-02, -5.7662e-02, -1.1601e+00, -2.5821e-01, -1.1760e+00
-9.5652e-02, 2.1868e-01, 1.5170e-01, 3.7597e-01, -4.4067e-01, -4.4540e-01, 2.3144e-03, -1.1928e+00, -6.8270e-02, -1.4149e+00
7.4023e-02, 3.1841e-02, 2.5419e-01, 2.2998e-01, -3.3336e-01, -3.6343e-01, -7.8785e-02, -8.7008e-01, 1.4982e-02, -1.7004e+00
-6.8558e-03, -3.2268e-02, 1.7247e-01, 2.8221e-01, -5.8691e-01, -1.0210e-01, 1.8645e-02, -1.1593e+00, 2.6261e-02, -6.2755e-01
2.1283e-01, -3.6829e-01, 1.7659e-01, 2.5243e-01, -4.3191e-01, 4.1221e-02, -2.1772e-01, -5.6482e-01, 4.8543e-02, -3.3384e-01
-7.8620e-02, -1.5676e-01, 1.3732e-01, 3.4948e-01, -3.1114e-01, -4.9956e-02, -2.6322e-01, -4.4395e-01, 2.3084e-01, -3.0835e-01
1.3675e-02, 1.1243e-01, 5.6467e-03, 3.1160e-01, -1.1918e-01, -1.9416e-01, -1.5964e-01, -4.7152e-01, 7.1462e-02, -3.8962e-01
-1.3476e-01, -9.3175e-02, 3.0423e-01, 1.5402e-01, -3.4941e-01, -1.0786e-01, -1.2985e-01, -5.1973e-01, 2.1919e-01, -4.7572e-01
3.4642e-02, 1.0741e-02, 1.2675e-01, 9.5819e-02, -4.4058e-01, 1.5008e-01, -1.9718e-01, -7.3890e-01, 1.7640e-01, -5.5830e-01
-1.0642e-01, -4.4312e-02, 7.4220e-02, 2.3203e-01, -1.9172e-01, 6.6921e-02, 7.8358e-02, -1.1243e+00, 1.5059e-01, -7.2225e-01
1.6544e-01, -4.7921e-02, 8.7847e-02, 6.1287e-02, -4.4597e-02, 3.6849e-03, -7.8697e-02, -2.0320e+00, 1.3183e-01, -6.5115e-01
-2.5357e-02, -1.9436e-01, -1.0064e-01, 1.7891e-01, -1.5294e-01, 2.4742e-01, -5.9522e-02, -1.8645e+00, 9.8800e-02, -4.6979e-01
-1.1230e-01, 4.3243e-02, -1.7275e-01, 4.7278e-02, 1.5698e-01, 8.9243e-02, 1.0676e-01, -2.3127e+00, 6.4168e-02, -6.9353e-01
-2.3391e-01, 1.2798e-01, -9.4234e-02, -8.5798e-02, 3.4616e-01, -1.8834e-01, 1.9077e-01, -1.3613e+00, 9.6206e-02, -3.4449e-01
-2.3514e-01, -1.0030e-01, -2.8880e-01, -2.5948e-01, 3.3969e-01, 7.3925e-02, 6.2906e-02, -1.2888e-01, 1.4323e-01, -2.2068e+00
-1.2657e-01, -1.3979e-01, -5.8354e-01, -3.2402e-01, 6.8007e-01, 5.8979e-02, 3.4903e-01, -4.2171e-01, -7.9678e-02, -1.5405e+00
-2.2634e-01, -2.8302e-01, -7.6398e-01, -1.1530e+00, 4.2419e-01, 2.3475e-01, 3.0372e-01, -8.6166e-01, -1.1768e-01, -1.8023e+00
-3.0820e-01, -7.4371e-01, -7.1229e-01, -1.4087e+00, 1.9995e-01, 5.2514e-01, -2.2156e-01, -5.9653e-01, 3.4548e-01, -1.0112e+00
-1.9222e-01, -8.0900e-01, 1.1169e-01, -1.1707e+00, 6.2071e-02, 5.1962e-01, -2.4303e-01, -3.9188e-01, 3.3790e-01, -7.4493e-01
-4.5874e-01, -6.5886e-01, -3.7075e-01, -3.3832e-01, -3.3846e-01, 3.0642e-01, -1.8224e-01, -3.4721e-01, 3.1169e-01, -4.7681e-01
-2.7224e-01, -3.8623e-01, -4.0384e-01, -1.4555e-01, -2.7111e-01, -4.6457e-01, 3.4808e-01, -1.8532e-01, -3.1242e-02, -1.8528e-01
-6.6995e-02, 1.2537e-02, -3.6357e-02, 4.3244e-02, 1.5547e-02, -6.7835e-02, 5.8220e-02, 8.3991e-02, 1.3533e-02, -3.5367e-02
3.4998e-02, 7.0090e-02, -8.3253e-02, -3.0239e-02, -1.6573e-02, -5.8839e-02, -4.8799e-02, -7.6000e-02, -5.9878e-02, -8.3477e-02
-3.7946e-01, 3.3863e-01, -4.1317e-01, 4.2253e-01, -4.8103e-01, -5.1964e-01, 4.0275e-01, -2.1902e-01, -5.3599e-01, -1.5990e-01
2.6436e-01, 1.3313e-01, -3.1362e-01, 4.9163e-01, 9.4243e-02, -6.8626e-01, -3.9933e-01, -6.5280e-01, -6.7819e-01, -3.6290e-01
-5.7887e-01, 3.5475e-01, 1.8794e-01, 5.2150e-01, 2.2064e-02, -7.1828e-01, 6.8449e-02, -3.0665e-01, -9.1612e-01, -5.3722e-01
-5.4251e-01, 4.2192e-01, -2.3200e-01, 4.6649e-01, 8.7023e-03, -4.5340e-01, -2.7255e-01, 8.2633e-02, -5.3823e-01, -1.3101e+00
3.2647e-02, 3.1372e-01, -6.5048e-03, 3.5425e-01, -9.1789e-02, -4.1783e-01, -8.9237e-02, 4.8824e-02, -1.5537e-01, -1.6932e+00
-9.9616e-02, 7.9002e-03, 1.1720e-01, 3.3454e-01, -1.2705e-01, -2.0716e-01, -9.0737e-02, 2.9022e-01, -1.5353e-01, -6.3467e-01
2.8185e-02, -3.5407e-01, 1.0669e-01, 8.4463e-02, -6.2591e-02, -6.1526e-02, 3.5259e-02, 6.0441e-02, -4.5765e-03, -4.1034e-01
-9.2819e-02, -3.0615e-01, 1.2395e-01, 1.0235e-01, 1.0955e-03, 3.4875e-02, -7.1432e-02, 1.7199e-02, 5.9737e-02, -2.2940e-01
6.8085e-02, -2.6830e-01, 8.4349e-02, 1.2185e-01, -6.9193e-02, 1.4203e-02, -1.0458e-02, -1.1437e-01, -2.1958e-01, -1.6895e-01
1.0432e-01, -4.1975e-01, 2.3150e-01, 1.5339e-01, -5.8762e-02, -3.3366e-02, -4.7035e-01, -1.3822e-01, 1.0663e-01, 2.0274e-01
-4.7891e-02, -2.9115e-01, 1.4984e-01, 5.3672e-02, -1.2424e-01, -3.8229e-02, -2.0530e-01, -3.5377e-01, 1.6203e-01, 3.2266e-02
1.3167e-01, 1.1627e-03, 1.2159e-01, 9.6308e-02, -2.7985e-01, -5.1160e-02, -2.4274e-01, -3.4262e-01, 2.2685e-01, 1.0883e-01
1.9485e-01, -2.4349e-02, 6.3196e-02, 2.1486e-02, -5.6973e-02, -1.4471e-01, -1.5881e-01, -2.8174e-01, 1.3618e-01, -1.2029e-01
1.1925e-01, 5.3270e-02, 1.4889e-01, 8.2440e-02, -1.1359e-02, -8.6854e-02, -1.0195e-01, -2.7105e-01, 1.1051e-01, -1.7335e-01
5.1216e-02, -2.2037e-01, 1.9338e-01, 2.6980e-01, 5.6532e-02, 3.5070e-02, -1.7328e-01, -3.1987e-01, 1.2312e-01, -3.0596e-01
1.5553e-01, -2.1435e-01, 2.2082e-01, -5.9195e-02, 6.4142e-03, 1.5148e-01, 3.8520e-02, -5.1621e-01, 2.2197e-01, -3.8238e-01
1.6171e-01, -1.5346e-01, 1.3100e-02, 4.2481e-02, 1.5774e-01, 2.3137e-01, 5.1775e-02, -4.7004e-01, -9.5844e-03, -3.2661e-01
9.7528e-02, -1.7328e-01, 3.2839e-02, 1.3503e-01, 7.2961e-02, -5.5327e-02, 1.1281e-01, -8.7532e-01, 6.4197e-02, -2.3314e-01
-3.7114e-02, -4.7856e-02, -1.3334e-02, -1.0202e-02, 6.1200e-02, 1.0571e-01, 1.7458e-01, -1.1129e+00, 9.4315e-02, -2.6326e-01
-1.0308e-01, 1.3053e-01, 1.0737e-02, -1.3048e-01, -3.0773e-02, 5.0350e-02, 2.2223e-01, -7.5263e-01, -4.6063e-02, -3.0489e-01
-2.1381e-02, 1.1931e-01, 3.2299e-02, -2.2303e-01, 1.1795e-01, 1.1468e-01, 7.5177e-02, -5.4570e-01, -1.2305e-01, -6.9242e-01
-2.1994e-01, 1.3811e-01, -2.2835e-01, -4.9857e-01, 5.1371e-01, 2.3476e-01, 2.9624e-01, -1.9550e+00, -3.8583e-01, -2.0601e+00
-4.6692e-01, -8.1947e-02, -6.2820e-01, -4.0984e-01, 1.6762e-01, 3.8269e-01, 2.4042e-01, -1.7783e+00, -7.5454e-02, -2.7130e+00
-7.1975e-01, -9.6573e-01, -1.9652e-01, -1.6428e+00, -2.2972e-01, 4.4727e-01, 4.6328e-02, -1.1486e+00, 2.7380e-01, -1.3332e+00
-8.3068e-01, -5.2855e-01, -4.7782e-01, -8.3322e-01, -4.4804e-01, 2.7393e-01, 3.2384e-01, -5.2087e-01, 1.6764e-02, -9.2611e-01
-4.2621e-01, -3.5941e-01, -3.9966e-01, -2.3066e-01, -4.5131e-01, 3.0391e-03, 3.0753e-01, -1.2102e-01, -3.3707e-01, -4.1263e-02
4.0871e-02, -3.0373e-02, 7.6951e-02, -2.3519e-02, 2.7108e-03, -6.1381e-02, 1.0245e-02, 2.2961e-02, 5.0248e-02, 4.4436e-02
-4.4505e-02, -3.2654e-02, -2.6231e-01, 3.3506e-01, -6.0056e-02, -2.5308e-01, -2.9581e-02, -1.5137e-01, -1.9650e-01, -3.4651e-01
-4.7908e-01, -5.1833e-01, -1.5036e-01, -6.3866e-02, -6.7458e-01, 2.0167e-01, -1.7006e-01, 3.9419e-01, -6.8516e-01, -4.7434e-01
-8.6071e-01, -4.1673e-01, -2.4957e-01, 6.5344e-01, -3.2350e-01, -9.1130e-01, -7.6589e-01, 5.0339e-01, -1.1063e+00, -6.0258e-01
-6.9830e-01, 2.1266e-01, 2.7679e-01, 1.7940e-01, 2.0466e-01, -2.2446e-01, -6.5476e-02, -2.7645e-01, -4.5371e-01, -7.9255e-01
-3.1321e-02, -1.2808e-01, 1.0546e-01, 8.5038e-02, 2.9640e-01, -7.0804e-02, -1.9323e-01, 2.4725e-01, -1.9592e-01, -1.1776e+00
1.5172e-01, -8.9657e-02, 5.1255e-02, 3.0815e-01, -6.3650e-02, -1.6941e-01, -2.6966e-01, 2.8855e-01, -1.7777e-01, -4.0031e-01
5.1011e-02, -4.0656e-01, 1.5192e-01, 1.1302e-01, -1.3423e-02, 2.7837e-02, -9.8377e-02, 2.0176e-01, -1.8936e-01, -2.9572e-01
-3.5905e-03, -3.7043e-01, -2.0700e-02, 5.4539e-02, 3.0444e-02, 3.7567e-03, -3.4821e-02, 1.9385e-01, -2.3812e-02, -2.0391e-01
-3.3956e-01, -2.9639e-01, 7.7349e-02, 2.8767e-01, -8.1775e-02, -1.7641e-02, -1.1459e-02, 9.0072e-02, -8.3928e-02, 5.6804e-02
1.1976e-02, -2.3739e-01, 1.2931e-01, 1.8928e-01, -1.2376e-01, -4.9697e-02, -1.8400e-01, 1.7818e-01, -1.0888e-01, -4.4901e-02
3.4602e-02, -2.6061e-01, 2.4381e-02, 1.5218e-01, -3.7883e-01, 3.8241e-03, -1.6831e-01, 2.5011e-01, -9.6571e-04, 1.0277e-01
-3.9557e-02, -2.2762e-01, -3.9296e-02, 5.7027e-02, -2.7290e-01, 7.6548e-02, -1.3387e-01, 2.6281e-01, 1.4722e-01, 1.3772e-01
1.4663e-01, -2.6157e-01, -3.3412e-02, 2.3256e-01, -5.0592e-01, -5.4491e-02, -2.5879e-01, -5.3948e-02, 5.6310e-02, 2.6635e-01
7.2393e-02, -2.5181e-01, 5.0556e-02, 9.4195e-02, -3.5600e-01, 1.1884e-01, -1.3844e-01, -3.6887e-02, 5.3455e-02, 3.1812e-01
-4.1071e-03, -3.4124e-01, 1.5305e-01, 1.1602e-01, -4.1448e-01, -8.3989e-02, -6.7903e-02, -1.2398e-01, 2.1098e-01, 2.4281e-01
2.1985e-01, -2.8694e-01, 1.3810e-01, 1.5762e-01, -3.8573e-01, -1.4431e-02, -2.4215e-01, 1.6731e-02, 4.7192e-02, 3.1903e-01
1.4162e-01, -3.4361e-01, -1.0561e-01, 4.3487e-02, -3.9158e-01, 2.5585e-02, -2.6218e-01, 3.5609e-02, 1.8376e-01, 3.2147e-01
1.8993e-01, -1.8115e-01, 2.7010e-02, 1.1417e-01, -3.9018e-01, 1.0347e-01, -1.9795e-01, -1.7653e-02, -6.6800e-02, 2.1566e-01
1.2878e-01, -1.7400e-01, -1.2905e-01, -1.2850e-01, -1.9305e-01, 1.9016e-01, -1.9252e-01, -3.5689e-02, 1.2987e-01, 6.8224e-02
4.0156e-02, 5.4396e-02, -1.3626e-01, 6.3221e-02, -2.2061e-01, 1.9732e-01, -1.0239e-01, -2.3987e-01, 8.7876e-02, -9.1721e-04
1.6820e-01, -3.3292e-02, -1.5690e-02, -8.0624e-02, -2.4273e-01, 1.0962e-02, -2.7295e-02, -1.6454e-02, 5.0403e-02, -3.6511e-02
3.1312e-01, -4.7919e-03, -2.2151e-01, -1.2748e-01, 6.4102e-03, 8.0470e-02, -3.2260e-02, 3.6817e-02, -5.9047e-02, -2.5339e-01
-4.1545e-02, -5.1632e-02, -5.8303e-01, -2.8722e-01, 4.0830e-01, 2.2447e-01, 6.7215e-02, -5.4324e-01, 1.0251e-01, -6.1477e-01
-7.5156e-01, -1.3865e-01, -6.4682e-01, -3.1911e-01, -9.0050e-02, 7.1298e-01, 1.4815e-01, -7.6750e-01, -8.9881e-02, -6.7546e-01
-1.4992e+00, -1.4738e+00, -3.5877e-01, -1.9308e+00, -2.5594e-01, 3.0162e-01, 2.3069e-03, -1.1566e+00, 4.6139e-01, -3.4104e-01
-8.3098e-01, -5.9599e-01, -9.0383e-01, -1.0292e+00, 3.5583e-04, 2.9620e-01, -5.5351e-02, -9.8646e-01, -1.1199e-01, -9.6540e-01
-4.6574e-01, -3.7931e-01, -6.1329e-01, -2.6110e-01, -7.6647e-01, 3.4082e-01, 1.9756e-01, -4.8558e-01, -1.4928e-01, -5.6554e-01
-5.8664e-02, 7.1142e-02, -1.3030e-02, -5.5322e-02, -7.9863e-02, -4.9394e-02, 4.8791e-02, 4.7344e-02, 5.9173e-02, -3.1827e-02
-5.5088e-01, -3.4444e-01, -5.4764e-01, 5.7156e-01, -4.5786e-01, -5.5580e-01, -2.7572e-01, -6.9243e-02, -7.3209e-01, -5.5052e-01
-4.8149e-01, -3.8184e-01, 2.2946e-01, -3.5660e-01, -5.7152e-01, -6.2297e-02, -4.1881e-01, 3.6439e-01, -1.0009e+00, -8.0286e-01
-3.3384e-01, -5.6288e-01, 2.0225e-02, 1.6659e-01, -3.5073e-02, -1.1027e+00, -6.9473e-01, 5.1486e-01, -2.2812e-01, -7.7453e-01
-8.2713e-01, 2.2182e-01, 2.6352e-01, 2.5581e-01, 7.0759e-02, -6.9322e-01, 1.6889e-01, -7.4572e-03, 9.0775e-02, -9.6883e-01
1.2454e-01, -3.5433e-01, 1.5664e-01, 3.2336e-01, 3.2016e-01, -4.3854e-01, -4.2934e-02, 1.7930e-02, -8.7823e-02, -6.5099e-01
2.1272e-01, -5.4160e-01, 1.5848e-01, 1.6238e-01, 1.0987e-01, -7.9753e-02, -2.3819e-01, 2.8069e-01, -1.7012e-01, -2.4158e-01
-8.4249e-02, -2.7687e-01, 6.6118e-02, 8.7272e-02, 1.2475e-02, -3.0659e-02, -1.9278e-02, 2.3805e-01, -7.0236e-03, -2.6969e-01
-1.7952e-01, -4.9736e-01, 8.4325e-02, 8.0259e-02, -3.0346e-02, 1.1469e-01, -1.0731e-01, 7.7784e-02, 4.9447e-02, 2.9330e-02
3.0426e-02, -3.4642e-01, 2.9159e-04, 2.9608e-02, 1.4021e-02, 1.0190e-01, -1.7946e-01, 2.6980e-01, 7.2958e-02, -5.6151e-02
-2.6620e-02, -2.1146e-01, -4.0495e-02, 2.0045e-02, -2.8494e-01, 1.5217e-01, -2.7865e-01, 2.3110e-01, 5.1416e-02, -3.4524e-02
5.0716e-02, -2.1879e-01, 5.3787e-02, 3.2628e-03, -1.4334e-01, 1.5696e-01, -1.2523e-01, 2.8071e-01, -1.0697e-01, 8.4672e-02
-5.9376e-02, -8.6227e-02, -5.0438e-02, 3.9587e-02, -4.3165e-01, 4.6111e-02, -1.7288e-01, 1.4764e-01, -1.5842e-01, 1.5840e-01
7.5830e-02, -2.2858e-01, 1.4131e-01, 7.4308e-02, -3.0982e-01, -4.2150e-02, -1.6982e-01, 5.2341e-02, -4.2978e-02, 3.1353e-01
1.0570e-01, -1.1771e-01, 2.9756e-02, 2.4097e-01, -4.8567e-01, 9.0157e-02, -1.6466e-01, -3.2589e-03, -1.0794e-01, 4.8771e-01
8.8606e-02, -2.8442e-01, -1.2560e-02, 1.3597e-01, -3.7498e-01, -1.2346e-01, -7.6100e-02, -2.3968e-02, 1.4181e-01, 4.5768e-01
8.1837e-02, -2.8326e-01, -1.1952e-01, -1.4311e-02, -4.9592e-01, 1.3116e-02, -2.9286e-01, 1.1610e-01, 3.5855e-02, 3.3483e-01
2.3982e-01, -2.6528e-01, -1.7914e-01, 6.6613e-02, -1.6481e-01, 6.2805e-02, -2.7993e-01, 2.8470e-01, -1.4701e-01, 2.3389e-01
2.0388e-01, -6.7924e-02, -1.9758e-02, -3.5429e-02, -1.9137e-01, -1.9295e-03, -3.0847e-01, 3.1577e-01, 1.4342e-01, 8.7647e-02
2.2038e-01, -3.6452e-02, -1.0132e-01, 8.7684e-02, -1.0051e-01, 3.6776e-03, -4.0542e-01, 4.6323e-02, 3.5913e-02, 1.4301e-01
-9.5960e-03, 1.2418e-01, -1.9657e-01, -6.0697e-02, -1.0065e-01, 1.5001e-01, -2.4669e-01, 2.2009e-01, -3.9251e-02, 5.8492e-02
1.3029e-02, -1.8673e-02, 5.2838e-04, -1.9293e-01, -1.1935e-02, 2.0171e-01, -6.8102e-02, 1.4507e-01, 1.6932e-01, -3.9805e-02
1.0038e-01, 1.3334e-02, 1.8213e-01, -1.3857e-01, -1.6447e-02, 1.6815e-01, -2.5423e-01, 1.8635e-02, 5.4396e-02, -2.4463e-01
2.0397e-01, -3.0151e-01, -5.7086e-01, -2.8120e-01, 2.3747e-01, 2.2720e-01, -2.5202e-01, -5.6528e-02, 1.7572e-01, -2.8427e-01
-2.0038e-01, -7.5527e-01, -7.6907e-01, -8.0820e-01, 4.1828e-02, 6.8241e-01, 6.6225e-02, -3.2730e-01, 1.1687e-01, -6.2050e-01
-8.6257e-01, -1.3756e+00, -2.7491e-01, -2.2390e+00, -7.2517e-02, 7.6625e-01, -1.4231e-01, -6.0871e-01, 2.1195e-02, -6.3263e-01
-9.3572e-01, -7.0830e-01, -8.6387e-01, -1.0490e+00, 7.2125e-02, 3.3203e-02, -1.8192e-03, -1.8123e+00, 2.1259e-01, -1.2628e+00
-5.7089e-01, -4.4878e-01, -6.2349e-01, -4.3262e-01, -8.8561e-01, 2.8166e-01, 8.2991e-02, -6.2181e-01, -1.2443e-01, -7.3720e-01
2.0609e-02, 7.8864e-02, -2.8573e-02, -2.5103e-01, -3.6311e-02, 3.0734e-02, -8.6690e-02, 2.1697e-01, -1.9383e-02, 3.2524e-02
-3.4255e-01, -3.3205e-01, -5.6773e-01, -3.1177e-01, -4.9541e-01, -5.3827e-01, -4.0723e-02, 5.8689e-01, -5.7829e-01, -5.1038e-01
-1.0449e-01, -4.1951e-01, 1.7065e-01, -1.3120e-01, 7.8041e-02, -5.8951e-01, -3.7114e-01, 2.2276e-01, -9.4996e-01, -9.5568e-01
-7.1973e-01, -4.5867e-01, -1.0966e-01, 2.2645e-01, -4.8152e-02, -1.1748e+00, -8.8115e-01, 5.2247e-01, 1.7401e-01, -7.7352e-01
-7.5070e-01, -3.0748e-03, 2.2906e-01, 3.0923e-01, -2.5761e-02, -9.7133e-01, 1.7926e-01, 1.1687e-01, -4.1924e-02, -5.5529e-01
-1.1284e-01, -4.5673e-01, 1.1479e-01, 1.3405e-01, 1.9047e-01, -2.6855e-01, -1.1861e-01, 9.3749e-02, 2.9964e-02, -2.1249e-01
2.3197e-02, -4.7043e-01, -4.0204e-03, 6.5305e-02, 4.2137e-02, -2.3934e-01, -3.4031e-01, 3.0730e-01, 1.1531e-01, -1.6932e-01
-2.2446e-01, -2.7431e-01, -4.2846e-02, 4.8545e-02, 4.3799e-02, -1.7379e-01, -2.2253e-01, 4.6720e-01, 1.6073e-01, -3.0428e-01
-9.7638e-02, -4.3049e-01, -4.6568e-02, -7.3360e-02, -1.5744e-01, 1.1477e-01, -2.3218e-01, 2.4588e-01, 9.2338e-02, 3.3474e-02
1.5822e-02, -4.7435e-01, 2.1438e-02, -2.0447e-02, 1.8481e-02, 9.2745e-02, -9.1943e-02, 2.4892e-01, 6.0551e-02, -8.3729e-02
3.3970e-02, -2.8263e-01, 2.0870e-01, 2.2522e-02, -1.3322e-01, 3.0267e-04, -1.3005e-01, 7.6592e-02, 9.2246e-02, -6.7732e-02
-4.4963e-02, -1.3518e-01, 8.8054e-02, 5.7806e-02, -1.0987e-01, 6.2570e-02, -1.9356e-01, 2.2358e-01, 9.5219e-03, -5.4097e-02
1.7142e-01, 3.4331e-02, -3.7767e-02, 2.2847e-02, -3.4908e-01, -4.4969e-02, -1.6461e-01, 2.7893e-01, 9.6632e-02, -1.5069e-01
1.1597e-01, -9.5410e-02, -2.7256e-02, 2.4722e-02, -1.4699e-01, -4.8435e-02, -1.3435e-01, 1.3877e-01, 1.7302e-01, 9.4958e-02
2.5089e-01, 8.6461e-02, 6.7810e-02, 6.2795e-02, -4.1358e-01, -1.0713e-01, -3.2834e-01, 1.8687e-01, -1.8467e-01, 2.9460e-01
1.7101e-01, -2.8815e-02, 1.0451e-01, 2.0813e-01, -3.1038e-01, -2.5444e-01, -3.7705e-01, 2.5753e-01, -7.1449e-02, 1.9518e-01
3.6824e-01, -1.4148e-01, 3.9177e-03, 1.2517e-01, -4.2791e-01, -1.0149e-01, -3.3124e-01, 2.6090e-01, 1.7085e-01, 1.6947e-01
2.4398e-01, -8.3575e-03, -1.1469e-01, 3.3142e-02, -2.7381e-01, -4.8741e-02, -2.6343e-01, 1.7295e-01, -3.0258e-02, -1.4405e-02
1.6741e-01, -1.3542e-01, -1.7755e-01, 1.7751e-01, -7.3840e-02, 3.1560e-02, -5.9958e-01, 2.5255e-01, 7.7883e-03, 7.5827e-02
6.9033e-02, -1.4662e-01, 1.3339e-01, 9.0253e-02, -1.0881e-01, 6.5175e-02, -5.2187e-01, 7.8268e-02, 6.3066e-02, -1.3641e-01
1.1361e-01, -2.2329e-01, 4.9262e-02, 5.1110e-02, -9.2695e-02, 2.0906e-01, -2.8060e-01, 1.5637e-01, 6.3366e-02, -5.8940e-02
6.7773e-02, -2.1151e-01, -7.6090e-02, -7.9007e-03, -9.3545e-02, 1.3666e-01, -1.6856e-01, -1.3568e-01, 1.2090e-01, 4.7070e-02
1.3275e-01, -2.9533e-01, 1.7193e-02, 1.4688e-01, -9.7130e-02, 1.8129e-01, -3.3395e-01, -9.8165e-02, 1.2608e-01, -1.6842e-01
2.3210e-01, -6.0707e-01, 1.8780e-02, -5.1883e-01, -3.8547e-02, 4.9827e-01, -5.9903e-01, -7.3876e-02, 1.0715e-01, -3.3781e-01
9.8008e-02, -1.1743e+00, -9.7361e-01, -1.4495e+00, -7.2180e-02, 8.2737e-01, -7.7196e-01, -3.6458e-01, 3.6821e-01, -5.1424e-01
-1.7806e+00, -1.2315e+00, -1.3342e+00, -2.0715e+00, 9.9034e-02, 7.8944e-01, -8.8637e-01, -8.6894e-01, 9.6083e-02, -4.0858e-01
-1.2431e+00, -6.7194e-01, -9.3697e-01, -9.5911e-01, -9.7432e-02, 2.6395e-01, -4.7805e-01, -1.0638e+00, 3.2335e-01, -1.3336e+00
-7.4043e-01, -3.4640e-01, -4.4239e-01, -2.8801e-01, -3.9271e-01, -1.3380e-02, -4.0691e-01, -4.9392e-01, 6.1728e-01, -6.1377e-01
5.5603e-02, 5.1642e-02, 1.0130e-02, -4.1283e-02, 4.2668e-02, -3.1646e-02, -7.0448e-02, 3.0849e-03, 1.8025e-02, -9.1323e-02
-3.1180e-01, -3.0555e-01, -5.6474e-01, -3.1574e-01, -3.8186e-01, -4.3358e-01, -3.2806e-01, 5.3196e-01, -5.1864e-01, -4.6573e-01
1.8096e-01, -3.9947e-01, -1.6626e-01, 2.0456e-01, 1.2491e-01, -6.0519e-01, -4.0139e-01, 2.1104e-01, -6.2829e-01, -9.7828e-01
-5.0138e-01, -4.9579e-01, -2.0072e-01, 2.5477e-01, -4.7527e-01, -1.0803e+00, -9.0797e-01, 5.6554e-01, 8.8035e-03, -2.6576e-01
-3.0998e-01, -1.0682e-01, 2.8416e-01, 5.3654e-01, -3.6222e-01, -8.0495e-01, 1.8753e-01, 1.7854e-01, -6.7395e-02, -3.4869e-01
-2.4200e-01, -4.6416e-01, 3.8634e-01, 7.9016e-02, -1.1990e-01, -3.2682e-01, -3.0445e-01, 2.2222e-01, 6.6210e-02, -4.7290e-02
-9.9585e-02, -4.3687e-01, -6.9253e-02, 3.2562e-02, -1.7368e-01, -8.6132e-02, -2.0207e-01, 3.1906e-01, 1.1373e-01, 1.0426e-01
-8.3841e-02, -1.7814e-01, -1.5353e-01, 1.3037e-01, -5.7472e-02, -8.1101e-02, -1.8707e-01, 8.0388e-02, 7.0110e-02, 1.6227e-02
-1.5391e-01, -1.5259e-01, -1.4012e-01, 5.5277e-02, -1.3028e-01, 1.1009e-01, -1.7934e-01, 5.9279e-02, 1.4032e-01, -3.6972e-02
-7.1952e-02, -2.7168e-01, 1.0280e-01, 5.8586e-02, 8.1442e-03, -2.0397e-02, -1.3362e-01, 4.3125e-02, 1.6442e-01, -5.3437e-03
1.7403e-02, -2.2316e-01, 1.2555e-01, -1.3562e-01, -2.1143e-01, 1.2359e-01, -2.2921e-01, 2.7740e-03, 4.7246e-02, 2.0613e-02
-6.9277e-02, -1.3472e-01, 2.4209e-02, -2.5493e-01, -4.4696e-02, 2.9565e-01, -1.9214e-01, 1.5130e-02, 1.4264e-01, 3.9082e-02
1.2964e-02, -5.3844e-02, 4.9978e-02, -1.7996e-01, -1.1587e-01, 2.2945e-01, -1.6529e-01, 2.7736e-01, 2.0826e-02, 5.9236e-02
2.1007e-01, 1.4214e-01, -1.3596e-02, -2.6458e-02, -1.2825e-01, -2.7244e-03, -2.2638e-01, 1.0838e-01, 6.3028e-03, 4.3641e-02
7.4505e-02, 2.2039e-01, 1.0868e-01, 1.8701e-01, -5.5760e-01, -2.6870e-01, -1.4897e-01, 3.5157e-01, -2.0323e-01, 8.4081e-02
-5.9037e-03, 4.2042e-01, 1.6681e-01, 2.8716e-01, -3.6735e-01, -3.4086e-01, -4.1727e-01, 2.2168e-01, -4.0893e-01, 2.3830e-01
1.8477e-01, 2.2790e-01, 7.3621e-02, 1.5249e-01, -6.4040e-02, -3.8720e-01, -4.6764e-01, 3.6697e-01, -2.0712e-01, -1.4033e-01
2.2858e-01, 7.2357e-02, 5.8263e-02, 2.1452e-01, -7.0027e-02, -2.4973e-01, -6.3767e-01, 2.7623e-01, 2.5439e-02, -6.6151e-02
2.9798e-01, -3.9452e-02, 1.1138e-02, 4.9844e-02, -3.4064e-02, -1.7130e-01, -6.0705e-01, 2.6188e-01, -1.6449e-02, 5.8769e-02
3.5183e-01, -2.7523e-01, 1.9448e-03, 2.2351e-01, -1.2814e-01, -1.2400e-01, -4.3113e-01, 1.8580e-01, 1.1095e-01, -6.4190e-02
1.4567e-01, -4.2803e-01, -9.4648e-02, 2.4222e-01, -6.2911e-02, -2.4586e-02, -1.9169e-01, 5.9416e-02, 1.0442e-01, -4.8609e-02
7.4746e-03, -2.4194e-01, -1.4424e-01, 2.0216e-01, 4.4026e-02, 2.3855e-01, -1.7162e-01, 7.1693e-02, 9.8482e-02, -2.2432e-01
-1.1705e-01, -4.2767e-01, -1.5030e-01, 2.5529e-01, -1.5240e-01, 2.3249e-01, -3.1228e-01, -2.0747e-02, 8.6258e-02, -1.9777e-01
2.0229e-01, -8.6779e-01, -3.3357e-02, -9.1916e-02, -2.0319e-01, 3.9745e-01, -3.2039e-01, -8.9791e-02, 2.2879e-01, -3.9516e-01
1.9013e-01, -1.0738e+00, -1.2870e+00, -2.3095e+00, -4.2842e-01, 9.8135e-01, -4.8956e-01, -2.2652e-01, 5.7643e-02, -3.9698e-01
-1.5939e+00, -1.3248e+00, -1.1469e+00, -1.7042e+00, -4.8511e-01, 1.0291e+00, -1.2644e+00, -5.8055e-01, 2.9552e-01, -6.7787e-01
-1.1954e+00, -6.3202e-01, -1.5284e-01, -9.9171e-01, -4.2262e-01, 5.2476e-01, -1.0288e+00, 5.0441e-02, 3.2166e-01, -1.1664e+00
-6.6364e-01, -4.1982e-01, -6.4796e-01, -4.4323e-01, -5.0498e-01, 3.5456e-01, -8.0443e-01, 3.3886e-01, -3.6674e-01, -7.3512e-01
-6.4988e-02, 7.8325e-02, -4.4431e-02, -6.0079e-02, 6.4337e-02, -3.2278e-02, 1.3374e-02, 3.8003e-02, 2.7466e-02, -7.0182e-02
-3.5484e-01, 5.0231e-02, -3.3632e-01, -3.4032e-01, -2.9665e-01, -3.8929e-01, -1.6498e-01, 6.1819e-01, -5.9235e-01, -4.3361e-01
3.2230e-01, -3.7243e-01, -4.4515e-02, 1.2172e-03, -2.6190e-01, -7.0657e-01, -3.0480e-01, 4.1495e-01, -1.0599e+00, -9.7341e-01
7.1980e-02, -4.7597e-01, -2.5498e-02, 6.0687e-01, -5.6220e-01, -9.2416e-01, -7.5763e-01, 4.5397e-01, -2.3697e-01, -3.3305e-01
-6.3803e-02, -2.2132e-01, -8.1056e-02, 1.0849e-01, -2.1612e-01, -1.8178e-01, -9.0494e-02, 1.3155e-01, 1.8076e-01, -2.4629e-01
5.1197e-02, -6.9258e-01, 3.0215e-01, -9.4537e-02, -3.3566e-01, -7.7881e-02, -2.1099e-01, 2.4204e-01, 2.2387e-02, -8.2745e-03
-2.0212e-01, -7.4799e-01, 1.1239e-01, 4.6316e-02, -1.8366e-01, -1.3723e-01, -1.9487e-01, 1.0599e-01, 1.4137e-01, 2.3261e-01
-3.8886e-02, -3.3261e-01, -2.2987e-02, -9.3540e-02, -1.0213e-01, 1.5380e-01, -1.0633e-01, -8.8163e-03, 1.3773e-01, 5.9914e-02
-7.6348e-02, -1.7923e-01, 6.5441e-02, -2.0804e-01, 3.4687e-02, 2.7741e-01, -6.7068e-02, -7.8109e-02, 1.3907e-01, 1.3097e-01
-6.3374e-02, -2.2304e-01, -8.8121e-02, -4.7703e-01, -1.8305e-03, 2.4788e-01, -1.0653e-01, 4.3179e-02, 2.0345e-01, 9.7161e-02
-9.9114e-02, 2.1645e-02, -1.5900e-01, -5.6379e-01, 2.8347e-02, 2.0724e-01, -1.7530e-02, 5.0688e-03, 2.0811e-01, 1.0577e-01
1.0642e-01, -6.4656e-02, -2.0183e-01, -4.4055e-01, 7.8122e-02, 2.8236e-01, -1.9596e-01, 1.5338e-02, 1.5406e-01, 2.4015e-01
4.8590e-02, -7.9111e-02, -2.1352e-01, -4.5230e-01, 1.4220e-01, 2.7539e-01, -3.0989e-01, -1.0886e-01, 1.7804e-01, 1.0041e-01
7.9813e-02, 2.7627e-01, -2.9295e-01, 8.5196e-03, -3.5370e-01, 2.5763e-01, -1.6525e-01, 3.3002e-01, 1.7306e-02, -1.7249e-01
-2.7304e-02, 5.9020e-01, -6.2187e-02, 1.5499e-01, -7.5424e-01, 3.9038e-02, -2.8773e-01, 3.0679e-01, -7.7352e-02, -3.7075e-02
-1.9253e-01, 6.2776e-01, -1.8223e-01, 1.5814e-01, -2.2599e-01, -1.8550e-01, -4.8312e-01, 4.1681e-01, -3.4484e-01, -6.7503e-02
2.0975e-02, 2.7874e-01, 6.1805e-03, 1.6682e-01, -1.2876e-01, -3.3824e-01, -4.9009e-01, 4.6275e-01, -2.9178e-01, -7.2215e-02
2.3375e-01, -1.3511e-02, 1.4124e-01, 1.6995e-01, 2.5045e-02, -3.9396e-01, -4.0734e-01, 3.4639e-01, -1.2972e-01, -1.5372e-02
2.7106e-01, -2.0116e-01, -6.6441e-02, 1.8374e-01, 1.1036e-02, -2.2982e-01, -4.8205e-01, 3.2303e-01, 2.9545e-02, 1.7377e-02
5.6290e-02, -1.5048e-01, -8.3116e-02, 8.4287e-02, 6.7295e-02, -2.8624e-01, -3.7966e-01, 2.1880e-01, 2.2092e-01, 4.5842e-02
-1.2714e-02, -4.1663e-01, -2.5346e-02, 1.7575e-01, -5.8917e-02, -2.5128e-01, -2.5541e-01, 3.1862e-01, 8.5312e-02, 5.4227e-02
1.0384e-01, -1.2592e-01, -9.6691e-02, -6.4879e-02, -5.8395e-02, -8.5854e-02, -3.2418e-01, 3.0487e-01, 7.1480e-02, 1.9887e-02
1.3666e-01, -4.3354e-01, -1.7729e-01, 3.0877e-01, -1.4818e-01, -4.5951e-02, -4.6559e-01, 1.1272e-01, 1.4024e-01, -1.1677e-01
2.3637e-01, -7.6515e-01, -2.6592e-01, 1.0558e-02, -5.2667e-01, 4.9200e-01, -2.5372e-01, -1.7831e-01, 7.2387e-02, -2.9403e-01
6.5340e-02, -1.6365e+00, -8.0735e-01, -1.8013e+00, -5.6071e-01, 1.3223e+00, -2.1914e-01, -6.8266e-01, -2.5419e-01, -4.9198e-01
-1.1591e+00, -4.0019e-01, -3.5793e-01, -1.5599e+00, -5.9409e-01, 1.5230e+00, -1.0303e+00, -3.2511e-01, -5.2137e-01, -3.8251e-01
-8.9838e-01, -2.9612e-01, -7.6444e-04, -1.0606e+00, -9.3260e-01, 1.0912e+00, -1.1351e+00, 3.1316e-02, -3.4220e-02, -1.4461e+00
-3.0109e-01, 3.2452e-01, -6.0671e-01, -3.3522e-01, -5.6362e-01, 2.4415e-01, -4.5243e-01, 2.9580e-01, -4.4897e-02, -6.1073e-01
-1.1302e-03, -1.8238e-02, -1.1620e-01, -3.5675e-01, -4.3484e-02, -9.2832e-02, -5.7743e-02, 4.3139e-01, -1.5689e-01, -3.6138e-01
-2.5116e-01, 3.6894e-01, -4.6649e-01, -2.3774e-01, -3.2752e-01, -5.3938e-01, 5.6805e-02, 4.7214e-01, -4.0693e-01, -6.3700e-01
-5.1493e-01, 2.5075e-01, -5.6345e-01, 6.8081e-02, -4.3987e-01, -1.0105e+00, -3.9958e-01, 4.8476e-01, -9.5316e-01, -5.4964e-01
-3.3430e-03, -4.1504e-01, -8.8893e-01, 6.6384e-01, -1.5311e-01, -7.5742e-01, -6.0689e-01, 4.2582e-01, -2.0446e-01, -2.8720e-01
-3.2449e-01, -1.9230e-01, -2.0430e-01, 1.2454e-01, -3.3751e-01, -2.7380e-02, -2.8263e-02, 4.1070e-01, 2.0740e-01, -1.1750e-01
-3.5121e-01, -5.1223e-01, 6.3630e-02, -1.5415e-01, -1.3897e-01, -7.6993e-02, -1.6609e-02, 1.2245e-01, 1.5286e-01, 1.6321e-01
5.8319e-02, -6.8569e-01, -5.6369e-02, -2.0313e-01, 5.5506e-02, 1.1465e-01, -1.2150e-01, 1.1737e-01, 1.0274e-01, 2.1954e-01
-6.0419e-03, -3.2862e-01, -3.8986e-01, -4.7885e-01, -1.6821e-02, -6.9401e-03, 1.0363e-01, 8.9822e-02, 2.6581e-01, 1.4930e-01
7.0510e-02, -2.8040e-01, -4.6358e-01, -5.3439e-01, 1.8241e-01, 2.0651e-01, -3.4469e-02, -6.2044e-02, 2.8104e-01, 2.3251e-01
-1.9967e-01, -3.2913e-01, -5.1032e-01, -4.0636e-01, 3.3139e-01, 9.1037e-02, 6.9038e-02, 1.2178e-01, 3.4211e-01, 1.5000e-01
-1.0228e-01, -1.9780e-01, -6.2131e-01, -3.2889e-01, 2.9889e-01, 6.9416e-02, -8.8420e-02, 1.9261e-01, 2.2689e-01, 2.6178e-01
-1.1187e-01, -1.7489e-01, -5.5118e-01, -3.2425e-01, 2.1793e-01, 1.7750e-01, -6.6905e-02, 7.4330e-02, 1.1617e-01, 2.1798e-01
-1.4100e-01, -5.5093e-02, -6.3008e-01, -1.1547e-01, 3.7461e-01, 1.4328e-01, -2.7376e-03, -1.2066e-01, 1.4795e-01, -2.4538e-02
-1.3310e-01, 2.8338e-01, -7.8937e-01, 3.6085e-02, -4.9524e-01, 3.8004e-01, 7.4352e-02, 2.9745e-02, 3.5870e-01, -2.3919e-02
-4.0794e-01, 6.0461e-01, -5.8574e-01, 1.7056e-01, -8.2805e-01, 1.2690e-02, -2.3315e-01, 2.8425e-01, 3.5494e-01, 4.6973e-03
-6.3179e-01, 6.5049e-01, -4.3772e-01, 1.0185e-01, 1.3979e-01, -1.7804e-01, -5.9062e-01, 4.3305e-01, -7.1899e-02, 1.5131e-01
-4.4903e-01, 2.2362e-01, -1.6981e-01, -1.0494e-01, 2.4850e-01, -1.9399e-01, -3.2421e-01, 3.9324e-01, -2.0192e-01, 1.5787e-01
-1.5063e-01, -1.0376e-01, -1.9392e-01, 1.8943e-01, 1.4206e-01, -2.5799e-01, -3.6078e-01, 3.6045e-01, -2.2060e-01, 2.5860e-01
-1.2947e-01, -7.0620e-02, -1.3459e-01, 8.2161e-02, -2.5018e-02, -2.9312e-01, -2.7366e-01, 3.6683e-01, -9.7778e-02, 1.7554e-01
-5.3127e-02, -8.9437e-02, 7.9247e-03, 3.2556e-02, -3.8042e-03, -4.3588e-01, -2.1767e-01, 1.7876e-01, -6.4932e-02, 1.8424e-01
1.4860e-01, -3.8093e-02, -1.2856e-01, 1.7586e-01, -1.9575e-01, -6.4340e-01, -2.0456e-01, 1.2193e-01, 3.1378e-02, 3.4491e-01
3.8300e-01, -2.1196e-02, -2.4562e-02, -1.5597e-01, -1.1123e-01, -5.2711e-01, 6.1429e-02, 1.4346e-01, -3.1905e-03, 2.3504e-01
2.3535e-01, -3.7409e-01, -1.0488e-01, 6.6722e-02, -1.8436e-01, -7.1457e-01, -5.8679e-02, 2.4282e-01, 2.4110e-01, 7.3576e-02
9.2368e-02, -2.5441e-01, -2.3538e-01, -1.0314e-01, -4.5723e-01, -5.6642e-02, 1.9981e-01, -9.4941e-02, 3.6532e-01, -6.7852e-02
2.1862e-01, -1.2111e+00, -3.1613e-01, -1.4122e+00, -8.3025e-01, 5.9565e-01, -5.5890e-02, -1.0050e+00, 2.4465e-01, -4.7850e-01
-6.6637e-01, -1.7728e-01, 3.4313e-01, -1.4348e+00, -6.7626e-01, 1.3116e+00, -7.8184e-01, -1.1488e+00, -1.3037e-01, -5.6673e-01
-1.0342e+00, -6.9546e-02, -3.9611e-02, -7.5201e-01, -6.7767e-01, 9.4363e-01, -1.1266e+00, -7.1063e-01, 5.5860e-01, -7.5619e-01
-4.0248e-01, 3.5421e-01, -3.2514e-01, -3.4274e-01, -3.6497e-01, 9.0297e-02, -7.9693e-02, -3.3758e-01, 1.1510e-01, -4.4942e-01
-5.7098e-02, 2.3408e-02, -7.1554e-03, -3.0117e-01, -9.2176e-03, -1.1359e-01, -6.4388e-02, 4.8828e-01, -2.0641e-01, -3.6326e-01
1.8892e-01, -2.6344e-01, -4.7102e-01, -4.0765e-01, -3.1438e-01, -5.0558e-01, -2.6293e-01, 6.7938e-01, -4.8752e-01, -8.7624e-01
-6.0237e-01, -4.0123e-01, -6.6545e-01, -6.0053e-01, -3.3596e-01, -8.7490e-01, -5.7842e-01, 6.7030e-01, -6.7941e-01, -5.8985e-01
-4.3253e-02, -4.4063e-02, -4.9069e-01, -1.0715e-01, -2.8871e-01, -2.2145e-01, -5.6772e-01, 4.9259e-01, 1.2185e-01, -1.5482e-01
-2.7180e-01, 1.8770e-01, -5.2712e-01, -1.7605e-01, -4.2720e-01, 6.8157e-02, -8.3897e-02, 3.5248e-01, 1.1566e-01, 2.9391e-01
-8.7396e-02, -3.7866e-01, -3.0881e-01, -2.3409e-01, -2.0420e-01, -1.8974e-02, 2.0270e-02, 1.2332e-01, 2.7162e-01, 2.8028e-01
9.3594e-02, 1.7214e-01, -7.7131e-01, -4.6769e-01, 1.5697e-01, 2.2005e-01, 9.7153e-02, -5.0100e-02, 2.0693e-02, 2.3803e-01
-4.0327e-02, 1.6036e-01, -9.6897e-01, -4.5751e-01, 1.8625e-01, 7.7170e-02, 2.1899e-01, 2.0974e-01, 1.8309e-01, 2.2483e-01
5.0622e-02, -1.5164e-01, -6.0710e-01, -4.6328e-01, 3.3264e-01, 3.3757e-04, 1.6518e-01, 3.1089e-01, -3.0223e-02, 2.1225e-01
-5.5876e-02, -7.7581e-02, -6.6516e-01, -1.2110e-01, 2.9297e-01, -4.9915e-02, 2.0830e-01, 5.0107e-02, 4.3815e-02, 2.3675e-01
-4.8279e-02, -2.2816e-01, -6.4330e-01, -6.1020e-02, 3.4894e-01, 1.7631e-01, 5.7814e-02, -8.5764e-02, -1.5338e-01, 2.4121e-01
-6.0835e-02, -3.8613e-01, -5.0482e-01, -1.0741e-01, 4.5928e-01, 1.5061e-01, 1.4891e-01, -8.8243e-02, -1.2211e-01, 6.9447e-02
-6.4281e-02, -1.1977e-01, -5.4605e-01, 4.3406e-03, 5.4486e-01, 1.8665e-01, 1.4622e-01, -5.7980e-01, 8.7882e-02, -2.5802e-01
-9.3109e-02, 2.9625e-01, -5.8474e-01, 1.4422e-01, -9.9318e-02, 2.6861e-01, -1.7398e-02, -6.9225e-01, 2.6705e-01, -6.1651e-02
-6.7747e-01, 7.3189e-01, -5.1838e-01, 2.2032e-01, -4.0258e-01, -7.2083e-02, -3.3422e-01, -1.7977e-01, 1.4330e-01, 1.5415e-01
-8.5892e-01, 4.6279e-01, -5.1848e-01, 5.7494e-02, 1.0343e-01, -1.9495e-01, -3.5871e-01, 1.9191e-01, 3.0687e-02, 2.1516e-01
-5.6348e-01, 8.0046e-02, -3.5516e-01, 6.2545e-03, 3.3896e-01, -3.4763e-01, -8.4298e-02, 3.7258e-01, -1.9577e-02, 2.8721e-01
-5.7208e-02, -7.3014e-02, -1.9961e-01, 5.2311e-02, 6.0354e-02, -4.1525e-01, -1.4099e-01, 3.5536e-01, -2.0962e-02, 3.5575e-01
-3.2513e-02, -1.9719e-02, -1.9836e-01, 8.9171e-02, -1.3805e-02, -2.5210e-01, -1.8531e-01, 3.0280e-01, -3.9253e-02, 2.6852e-01
-4.6848e-02, -2.3837e-01, 1.2917e-01, -5.1017e-03, 8.0901e-02, -2.7033e-01, -4.2479e-01, 8.3679e-04, 1.6670e-01, 2.4158e-01
1.0831e-01, -2.4493e-01, -6.0261e-02, -1.2498e-01, 3.1547e-02, -3.0634e-01, -1.3084e-01, 6.9069e-02, 1.8503e-01, 3.2594e-01
1.0875e-01, -1.1620e-01, 1.6357e-02, -5.4872e-01, 1.3765e-01, -7.4191e-01, 8.8215e-02, 9.2458e-03, 1.5260e-01, 3.6487e-01
2.1979e-01, -8.6237e-02, -2.1692e-01, -5.5673e-01, -2.1859e-03, -1.0653e+00, 2.3917e-01, 1.6739e-01, 2.8196e-01, 2.8205e-01
2.5826e-01, 1.6532e-02, -4.1299e-01, -6.3194e-01, -4.7033e-01, -1.3304e+00, 7.0387e-01, -4.0967e-01, 6.1943e-01, 4.5870e-01
5.7282e-01, -1.2653e+00, 4.9016e-02, -1.5404e+00, -3.3722e-02, -1.3645e+00, 2.5267e-01, -6.0287e-01, 7.0525e-01, -5.6764e-01
6.0271e-03, -6.4148e-02, 7.1582e-01, 1.2365e-01, -3.2779e-01, 4.5182e-02, -4.4771e-01, -2.2982e-01, 1.2208e-01, -1.7696e+00
-5.9937e-01, -2.9503e-01, 4.5988e-01, -4.9381e-01, -2.4569e-01, 4.1465e-01, -8.7174e-01, -1.3816e-01, 1.4628e-01, -7.9362e-01
-2.3122e-01, 3.7834e-01, 2.5480e-01, -3.4866e-01, -3.4432e-01, -4.3251e-01, -1.2281e-01, -1.5980e-01, -3.1991e-01, -4.6107e-01
-2.7087e-02, 2.4933e-01, -1.0427e-01, -2.9245e-01, 6.2766e-03, 9.7557e-03, -1.0688e-01, -8.8121e-02, -1.5159e-01, -2.7383e-01
3.1359e-01, -2.2670e-01, -3.7129e-01, -3.9249e-01, -2.9274e-01, -4.1143e-01, -2.6050e-01, 5.3669e-01, -4.4502e-01, -5.1813e-01
1.9726e-01, -4.4095e-01, -6.3629e-01, -7.3145e-01, -3.1594e-01, -8.2480e-01, -5.9819e-01, 5.4914e-01, -6.9094e-01, -5.9201e-01
-5.2246e-02, 3.2114e-01, -2.1934e-01, -2.1380e-01, -2.8313e-01, -2.3474e-02, -5.9514e-01, 2.8910e-01, -2.5462e-02, -4.4102e-02
-9.9134e-02, 2.3431e-01, -9.3858e-01, -4.5261e-01, -1.2457e-01, 2.5180e-02, -4.4298e-02, 2.5995e-01, -2.5257e-01, 5.4329e-01
-4.9332e-02, -1.8125e-01, -8.8605e-01, -2.2940e-01, 1.4020e-01, 1.4124e-01, 1.4239e-01, 8.4736e-02, 7.0800e-02, 2.9248e-01
3.1288e-01, 1.2190e-01, -1.0600e+00, -2.5104e-01, 3.0341e-01, 2.1462e-02, 4.7536e-01, 6.4596e-02, -3.8762e-02, 1.0885e-01
2.2823e-01, -4.1264e-02, -7.2426e-01, -3.8084e-01, 3.5031e-01, -2.7763e-02, 4.8621e-02, 1.5911e-03, -5.1511e-02, 2.0483e-01
1.2056e-01, 1.3446e-01, -4.3747e-01, -1.4526e-01, 3.0236e-01, 9.7546e-02, -1.5342e-02, -9.1372e-02, -5.2789e-02, 2.2567e-01
8.7163e-02, -1.3892e-01, -3.0035e-01, -5.0581e-02, 3.4231e-01, 2.2252e-02, 1.2396e-01, -2.3778e-01, -4.7554e-03, 4.8441e-02
1.0296e-01, -7.6368e-01, -1.8313e-01, -2.0773e-01, 4.0902e-01, 1.1767e-01, 1.4005e-01, -1.2049e-01, -2.4966e-01, 6.6197e-02
-3.9958e-02, -5.7699e-01, -1.4383e-01, -1.9946e-01, 5.6522e-01, 2.2031e-01, 2.2621e-03, -3.9328e-01, -3.2722e-03, -5.7297e-02
3.4869e-02, -1.2774e-01, -1.0322e-01, -7.7850e-02, 3.9645e-01, 3.4731e-01, 2.0928e-01, -1.0248e+00, 1.7647e-01, -2.4941e-01
-4.0051e-01, 2.3801e-01, -1.7694e-02, 1.7425e-01, -2.8635e-01, 1.8736e-01, -2.9528e-02, -1.0495e+00, 2.7005e-01, 4.5517e-02
-7.9539e-01, 5.3205e-01, -1.1025e-01, 1.2660e-01, -1.3819e-01, -6.0911e-02, -2.5612e-01, -1.8501e-01, 2.9325e-03, 2.0053e-01
-9.0002e-01, 3.4423e-01, -2.8848e-01, -3.9760e-02, 2.4471e-01, -3.4581e-01, -3.4846e-02, 4.8844e-02, 2.2781e-01, 2.1254e-01
-4.8425e-01, 8.1286e-02, -3.0077e-01, -5.1924e-03, 2.6988e-01, -3.9156e-01, -1.8487e-02, 1.7660e-01, 6.4402e-02, 3.4324e-01
-1.6802e-01, 2.7766e-01, -1.8394e-01, -1.2060e-03, 2.3792e-01, -3.2067e-01, -1.2395e-01, 4.7635e-02, -1.5434e-01, 3.7538e-01
-6.4982e-02, -2.1450e-01, -1.6126e-01, 1.6836e-01, 2.3439e-01, -1.9640e-01, -1.9958e-01, 8.6921e-02, -3.4498e-02, 2.9905e-01
-1.7455e-01, -3.9672e-01, -1.3711e-01, -1.2717e-01, 1.5890e-01, -1.0547e-01, -9.5558e-02, -1.1050e-01, 1.0631e-01, 3.8293e-01
-2.4986e-01, -2.5193e-01, -1.2381e-01, -3.9298e-01, 2.7981e-01, -1.4826e-01, -1.3032e-01, 5.8845e-02, 8.9623e-02, 1.8996e-01
-4.4840e-02, -1.8974e-01, -1.9106e-01, -5.0876e-01, 2.4395e-01, -2.9341e-01, 1.4822e-01, 2.4114e-02, -1.9347e-01, 2.6366e-01
1.7729e-01, -5.0614e-01, -2.6038e-01, -7.1591e-01, 1.3993e-01, -3.8511e-01, 3.2800e-01, -9.1745e-02, 1.5433e-01, 5.5358e-02
3.0098e-01, -7.4952e-01, -8.8647e-02, -4.5343e-01, -1.6262e-01, -7.9270e-01, 6.8187e-01, -3.6859e-01, 1.6109e-01, -1.5850e-01
4.2661e-01, -1.3173e+00, 4.5782e-01, -1.7068e-01, -4.8022e-01, -1.3098e+00, 3.6260e-01, 1.3087e-01, 1.6869e-01, -9.3816e-01
1.5526e-01, -2.4785e-01, 7.8980e-01, -9.6387e-01, -1.4654e-01, -3.5990e-01, -4.6093e-01, 2.2658e-01, 1.6256e-02, -1.0581e+00
-5.3829e-01, -3.5355e-01, 8.0734e-01, -6.1073e-01, -8.5400e-02, 2.7888e-01, -8.2048e-01, 1.5745e-02, -2.3395e-01, -4.9814e-01
-3.7893e-01, -8.4813e-02, 3.8976e-01, 1.2458e-02, -4.0271e-01, -4.3350e-01, -2.5089e-01, -8.5657e-02, -2.2215e-01, -3.3971e-01
-3.0046e-01, -2.5873e-02, -1.7564e-01, -3.0672e-01, -2.2259e-01, 3.3222e-01, -2.5793e-01, -3.7634e-01, -2.7208e-01, -3.0411e-01
-3.3750e-01, -2.3594e-01, -4.8760e-01, 1.9016e-01, -2.4668e-01, -4.9723e-01, -1.6103e-01, 2.7270e-01, -3.9914e-01, -3.8069e-01
-3.6472e-01, 3.6320e-01, -3.9999e-01, -7.4477e-02, -4.6485e-01, -6.1826e-01, -1.6254e-01, 7.0180e-01, -6.8069e-01, -7.3852e-01
-4.1536e-01, 4.1877e-01, -3.8618e-01, 2.6754e-01, -5.4573e-02, -1.6671e-01, -7.8909e-01, 2.0272e-01, -4.0346e-01, 8.7079e-02
-1.3731e-01, 4.1197e-01, -5.3042e-01, -5.8171e-02, 3.9531e-01, 1.5082e-02, -8.2472e-01, 1.5411e-01, -8.0031e-01, 2.7432e-01
1.6565e-01, -6.4918e-02, -8.6013e-01, -4.0754e-01, 3.9739e-01, -1.1651e-01, 2.2475e-01, 1.1803e-01, -1.7350e-01, 4.2581e-02
1.6091e-01, -4.1563e-01, -2.5697e-01, -4.2487e-01, 1.6966e-01, -1.0626e-01, 2.4676e-01, -1.5108e-02, -3.0417e-01, 1.1394e-01
4.0028e-01, -4.9931e-01, -2.7263e-02, -4.3370e-01, 2.4163e-01, -7.2581e-02, 4.6386e-02, -1.4260e-01, -4.1828e-01, 1.0310e-01
1.1359e-01, 1.6150e-01, -1.8391e-01, -2.7920e-01, 2.7455e-01, -6.7942e-02, 9.1051e-03, -1.3201e-01, -3.3503e-01, 2.7108e-02
1.6391e-01, -2.3882e-01, -1.2193e-01, -1.1192e-01, 2.3990e-01, 1.5090e-01, 1.4114e-01, -1.3894e-01, -2.7182e-01, -4.7350e-02
2.1443e-02, -6.4824e-01, -9.6443e-02, -2.1788e-01, 1.8692e-01, 2.1520e-01, 2.1380e-01, -1.3710e-01, -9.9404e-02, -1.3468e-02
1.2975e-01, -5.7493e-01, -7.9985e-02, -1.6783e-01, 3.9024e-01, -4.6539e-03, 2.6015e-01, -4.7378e-01, 1.7443e-01, -1.5885e-01
3.0297e-02, -1.0425e-01, -4.9738e-02, 5.7523e-02, 2.1119e-01, 1.2307e-01, 1.8849e-01, -1.0687e+00, 2.3367e-01, -1.2815e-01
-1.6647e-01, 2.8932e-01, 1.5049e-01, 9.8811e-02, -1.7489e-01, 4.5537e-02, -9.0188e-02, -6.1468e-01, 3.4777e-01, -1.6261e-02
-8.5099e-01, 5.5315e-01, 8.0590e-02, 8.2394e-02, -3.1237e-02, -9.5610e-02, -1.2423e-01, -1.1197e-01, 1.1580e-01, -6.2205e-03
-8.0923e-01, 4.3314e-01, -1.8925e-01, 3.7765e-02, 1.9078e-01, -2.9670e-01, 2.5828e-02, -1.5674e-01, 1.9981e-01, 2.6741e-01
-7.4087e-01, 1.5093e-01, -1.0418e-01, 1.5436e-02, 3.0177e-01, -2.4514e-01, 3.8343e-02, 9.1192e-02, -3.9154e-03, 2.9263e-01
-1.7330e-01, -6.7584e-02, -9.3159e-02, -5.5653e-02, 5.1867e-01, -2.6077e-01, -2.9081e-01, 8.6326e-02, 3.9251e-03, 2.5459e-01
-5.5947e-02, -5.8587e-01, -1.0173e-01, -1.5855e-02, 2.2789e-01, -1.7016e-01, -1.5938e-01, 3.9996e-01, -7.9922e-02, 1.8778e-01
-2.1300e-01, -5.4614e-01, -5.0935e-02, -1.5878e-01, 3.4677e-01, -2.3242e-01, -2.0404e-02, 4.1977e-01, -8.2356e-02, 4.5622e-02
7.8216e-03, -2.8709e-01, -8.6455e-02, -2.2020e-01, 1.4755e-01, -6.8504e-02, 4.8479e-03, 2.7515e-01, -2.3540e-01, 1.5416e-01
3.3096e-02, -3.5739e-01, -2.2668e-01, -4.8627e-02, 1.4467e-01, -2.0812e-01, 1.3218e-01, 1.2328e-01, -1.8761e-01, 1.2608e-01
6.2421e-03, -1.2465e-01, -1.3521e-01, -4.4464e-01, 7.0535e-02, 5.1163e-02, 1.3232e-01, 3.0786e-01, -3.6253e-01, -6.2999e-03
3.0684e-01, -1.4235e-01, -1.3190e-01, -2.0686e-01, -2.0848e-01, -2.1943e-01, 3.5384e-01, 2.8563e-01, -3.8880e-01, -5.0527e-01
3.3611e-01, 9.7745e-03, 2.2341e-01, 6.3903e-03, -3.9909e-01, -2.0083e-01, 3.0441e-01, -1.0821e-01, -3.6164e-01, -1.2650e+00
3.3542e-02, -5.3283e-02, 5.4285e-01, -9.3145e-01, -1.6219e-01, -5.7757e-01, -1.5419e-02, -5.3500e-01, 1.8481e-01, -9.1416e-01
-9.2159e-01, 2.0781e-01, 8.0170e-01, -8.3977e-01, -6.7767e-01, -7.3872e-01, -5.9723e-01, -5.7947e-01, -6.5438e-01, -3.8129e-01
-1.0299e-01, -1.4010e-01, 3.1456e-01, -7.7942e-02, -3.6569e-01, -1.2466e-01, -3.4160e-01, -4.3636e-03, -2.7491e-01, -1.6737e-01
-2.2987e-01, 3.0665e-02, -1.7224e-01, -3.8623e-01, -4.0005e-01, 3.6865e-01, -3.6891e-01, 1.0966e-01, -3.8770e-01, -3.9241e-01
-1.2549e-02, -2.7091e-02, -3.8951e-01, 2.9564e-01, 2.1102e-01, -3.0986e-01, -8.7154e-02, -7.7479e-02, -3.0119e-01, -6.5831e-02
-7.7350e-01, 3.2783e-01, -1.6158e-01, 3.9710e-01, 4.7858e-01, -7.7655e-01, -4.6878e-01, 4.9851e-01, -5.8562e-01, -9.7906e-01
-4.9402e-01, 3.8696e-01, -4.1010e-02, 3.3368e-02, 1.5570e-01, -1.7493e-01, -8.3746e-01, 1.7799e-01, -9.2582e-01, 4.5753e-02
1.1646e-01, 2.0389e-01, 8.5395e-02, -6.1394e-03, 1.8888e-01, -1.1714e-01, -8.8661e-01, -6.5573e-03, -8.2432e-01, 1.8201e-01
3.6061e-01, -7.9897e-01, 2.0401e-01, -2.0926e-01, 1.3829e-01, -1.9765e-01, -1.0997e-01, -2.2133e-01, -4.5571e-01, 4.4730e-02
-7.2390e-02, -9.5355e-01, 1.9317e-01, -2.1507e-01, 6.5773e-02, -7.5927e-02, 9.9013e-02, -3.3831e-02, -3.9299e-01, -6.4068e-02
4.0663e-01, -1.5238e-01, -3.4597e-02, -2.0722e-01, 3.3618e-01, -2.6108e-01, 2.0062e-01, -1.7748e-01, -2.3755e-01, 1.1587e-02
2.0212e-01, 1.3741e-01, -8.0190e-02, -4.1796e-01, 2.0249e-01, -5.2386e-02, 1.2289e-01, -2.6932e-01, -1.8450e-01, 6.2051e-02
1.7364e-01, -2.7006e-01, -2.8055e-02, -2.4331e-01, 2.7154e-01, 1.1362e-01, 1.7342e-01, -2.9442e-01, -1.3741e-01, -9.6185e-02
2.4843e-01, -3.8874e-01, 2.5588e-02, -2.8135e-01, 2.3483e-01, 4.2494e-02, 1.5162e-01, -2.5187e-01, -1.5820e-01, -5.0244e-02
-1.5095e-02, -1.7045e-01, -1.6385e-02, 1.6933e-02, 2.5121e-01, 6.5764e-02, 3.5224e-01, -5.8866e-01, -7.3739e-03, 7.4773e-02
-1.9761e-02, 8.7561e-02, -4.1615e-02, 6.5196e-03, 1.0171e-01, 1.5999e-01, 1.0650e-01, -5.9828e-01, 1.7281e-01, -9.5380e-02
-5.3904e-01, 4.1370e-01, 1.3538e-01, 9.0568e-02, -2.5793e-01, -1.2493e-01, 2.2015e-02, -3.8485e-01, 2.8933e-01, -1.6737e-01
-1.0802e+00, 6.0200e-01, 5.2948e-02, 8.7362e-02, -1.9625e-03, -2.7708e-01, 1.5743e-01, -3.1844e-01, 2.5494e-01, -2.3411e-01
-6.3499e-01, 1.7282e-01, -4.0344e-02, 8.9236e-02, 2.5890e-01, -2.6773e-01, 5.2667e-02, -1.0639e-01, 6.0652e-02, 5.0277e-02
-5.3795e-01, 1.7885e-01, -2.8173e-02, -1.4396e-01, 4.6360e-01, -2.5674e-01, -3.0418e-02, -7.1376e-02, -4.5549e-02, 3.4401e-01
-3.5973e-01, -4.2506e-01, -1.5077e-01, -8.1588e-02, 2.7621e-01, -2.3993e-01, -8.8608e-02, 4.4010e-01, -1.2833e-01, 1.8980e-01
1.3327e-02, -5.5752e-01, -9.1878e-02, -1.1569e-01, 9.3679e-02, -9.0756e-04, -1.1994e-01, 3.8570e-01, -1.0557e-01, 4.5522e-02
-2.8695e-02, -8.1719e-01, -2.4598e-02, 9.6623e-02, 1.2951e-01, -1.3697e-01, -1.4300e-01, 3.0036e-01, -1.5951e-01, 3.7256e-02
1.8632e-01, -6.3969e-01, -2.6531e-01, 1.5741e-01, -7.3010e-02, -1.5296e-01, 5.7243e-02, 2.9016e-01, -4.0528e-01, 1.9273e-02
7.5675e-02, -4.6509e-01, -1.2398e-01, 1.3255e-01, -4.7092e-02, -7.1748e-02, 2.4931e-02, 3.2938e-01, -3.1600e-01, -7.6444e-02
1.4479e-01, -5.7163e-01, -1.7001e-01, 1.1186e-01, 1.4201e-01, -2.0051e-01, 5.6932e-02, 3.3644e-01, -3.4290e-01, -1.1852e-01
2.9645e-01, -8.0195e-01, -1.9177e-01, 1.4060e-01, -8.1975e-02, 1.9022e-01, 4.0031e-05, 2.4449e-02, -2.9024e-01, -5.0214e-01
2.4453e-01, -5.1008e-01, 4.7167e-01, 3.5370e-01, -8.2731e-01, 1.6272e-01, 1.0833e-02, -3.0297e-01, -3.9552e-01, -1.2308e+00
-1.0512e-01, -4.1491e-01, 6.7988e-01, -1.6322e+00, -4.9352e-01, -4.9906e-01, 2.4860e-01, -8.5519e-01, 4.7673e-02, -9.5020e-01
-9.2680e-01, -1.6459e-01, 6.9592e-01, 2.4257e-01, 9.9447e-04, -9.8127e-01, -7.4793e-01, -5.9283e-01, -9.1913e-01, -2.7815e-01
-3.7532e-01, -3.7114e-01, 3.8604e-01, -4.8144e-01, -2.8897e-01, -3.1938e-01, -5.3624e-01, -3.9172e-01, -3.0578e-01, -3.3278e-01
-8.3824e-02, -3.7079e-05, -6.7564e-02, -1.2739e-01, -1.8096e-01, -2.7900e-01, 4.7428e-02, 2.6472e-01, -2.3060e-01, -2.9467e-01
-1.3031e-01, 4.0535e-01, -4.4700e-01, 3.6300e-01, -1.5210e-01, -3.8612e-01, 1.8946e-02, -3.9945e-01, -4.2685e-01, -2.7756e-01
-5.0348e-01, 3.1317e-01, 6.3652e-02, 3.0187e-01, -2.2008e-01, -6.2092e-01, -4.7432e-01, -5.2798e-02, -6.1019e-01, -7.0817e-01
-3.6564e-01, -4.0578e-01, 2.8690e-01, 2.7177e-01, -4.1277e-01, -3.3635e-02, -7.5432e-01, -1.4164e-01, -1.7955e+00, 2.9882e-02
4.0152e-02, -1.2583e-01, 3.8973e-01, 3.0096e-01, -4.8435e-01, -6.2975e-02, -4.3125e-01, 1.6055e-01, -7.0827e-01, -1.5780e-03
2.8138e-01, -2.5590e-01, 3.1241e-01, 3.0031e-02, -2.4527e-01, -6.1687e-02, -1.7212e-02, -1.2494e-01, -5.0196e-01, -6.2267e-02
8.6400e-02, -5.5897e-01, 1.9261e-01, -1.5424e-01, 9.7770e-02, -2.6078e-01, 9.4631e-02, -7.2087e-03, -4.3513e-02, -1.1146e-01
2.1688e-01, -3.4118e-01, -1.8160e-02, -3.1176e-01, 2.7451e-01, -4.9546e-01, 1.6203e-01, 9.1480e-02, -1.0274e-01, -1.1120e-01
2.8990e-01, -1.3695e-01, -1.8171e-01, -3.6262e-01, 3.6008e-01, -3.5731e-01, 2.2369e-01, -7.6438e-02, -2.9517e-02, 3.7477e-02
2.8825e-01, -1.6819e-02, 1.2706e-01, -1.8864e-01, 2.7908e-01, -2.8022e-01, 2.9824e-01, -1.8761e-01, 5.5287e-02, -1.4543e-01
2.4437e-01, -2.2554e-01, 1.2939e-01, -2.0396e-01, -4.9456e-02, -1.9337e-01, 4.1212e-01, -3.7336e-01, -1.2744e-02, 1.1768e-01
1.1969e-01, -1.2415e-01, 1.6407e-01, -1.1746e-01, -2.3912e-02, -1.3813e-01, 5.2837e-01, -7.7912e-01, 3.8146e-02, 6.0865e-02
-1.4747e-01, -1.3982e-01, 2.5088e-01, 3.6331e-02, 4.3855e-02, -6.4064e-02, 4.6170e-02, -2.5669e-01, 2.9175e-01, -1.3092e-01
-8.3012e-01, 2.9862e-01, 2.8521e-01, 1.5662e-01, -2.7272e-02, -1.4911e-01, -6.1953e-02, -2.5137e-01, 1.0526e-01, -2.1149e-01
-7.5668e-01, 5.9553e-01, 1.1309e-01, -9.7635e-02, 1.9819e-01, -3.0994e-01, 8.1057e-02, -2.2893e-01, 1.2937e-01, -1.5393e-01
-4.1376e-01, -7.0251e-03, -6.1539e-02, -1.3466e-01, 4.8735e-01, -1.8822e-01, -1.5607e-03, 9.0106e-02, 1.4013e-02, -3.4756e-02
-3.2605e-01, -2.0824e-01, 6.3534e-02, -2.6059e-01, 3.3557e-01, -3.0468e-01, -1.0216e-01, 4.9775e-02, 1.7922e-02, 1.8503e-01
-6.3617e-02, -7.1340e-01, 7.2422e-02, -6.1521e-02, 2.6146e-01, -1.4966e-01, -2.2000e-01, 1.7491e-01, -1.2292e-01, 1.0151e-01
7.6786e-03, -7.5550e-01, 8.4970e-02, 1.7878e-01, 5.4759e-02, -8.9732e-02, 9.8631e-02, 1.9142e-01, -2.2501e-01, 5.9828e-02
8.2413e-02, -6.1669e-01, -2.0207e-02, 1.9227e-01, 1.1308e-01, 7.4080e-02, 1.6241e-01, 2.4350e-01, -4.0039e-01, -2.1139e-01
1.4730e-01, -5.2479e-01, -4.0133e-02, 1.2176e-01, 1.5177e-01, 7.6255e-02, -9.5693e-02, 2.1877e-01, -2.9661e-01, -1.9820e-01
9.8590e-02, -2.4488e-01, 2.6473e-01, 2.8501e-02, -1.3939e-02, 1.2365e-03, -1.9426e-02, 1.7196e-01, -4.8047e-01, -2.1227e-01
2.6232e-02, -2.9389e-01, 1.5017e-01, 2.2493e-01, -7.7372e-02, 1.6829e-02, -6.6536e-02, -6.6081e-02, -4.1914e-01, -5.3540e-02
1.6697e-01, -3.7909e-01, 2.1086e-01, 3.3864e-01, -1.2540e-01, 1.6497e-01, -2.8870e-02, -2.5957e-01, -8.6070e-02, -4.2747e-01
7.4583e-02, 9.8286e-02, 3.9644e-01, 6.3705e-01, -5.0723e-01, 2.4435e-01, -7.7215e-02, -3.6681e-01, -2.2205e-01, -1.0686e+00
-4.7628e-01, -3.5724e-01, 9.1944e-01, -8.9059e-01, -5.5637e-01, -4.5689e-01, 1.9798e-01, -1.0609e+00, -3.4641e-01, -1.1638e+00
-6.6751e-01, -1.6063e-01, 8.8652e-01, -7.5511e-01, -4.2373e-01, -9.9929e-01, -9.7943e-01, -7.6118e-01, -1.2945e+00, -6.1728e-01
3.6241e-01, -4.4664e-01, 5.4531e-01, -4.4870e-01, -3.1823e-01, -4.0370e-01, -5.0515e-01, -2.9705e-01, -4.3480e-01, -5.3530e-01
1.6430e-02, 4.0356e-02, 6.1268e-02, -3.3648e-02, 2.0076e-02, -5.5325e-02, 1.3407e-02, -6.6223e-02, 7.9575e-02, -7.7416e-02
-3.0552e-01, 3.7775e-01, -5.2232e-01, 5.2911e-01, -7.2225e-02, -4.0159e-01, -1.7900e-01, -2.3913e-01, -5.0562e-01, -4.1801e-01
-4.9047e-01, 2.9592e-01, 3.2430e-01, -6.1745e-03, -3.0644e-01, -7.5969e-01, -4.8836e-01, 1.4513e-01, -6.0156e-01, -6.4246e-01
-1.1111e-01, -8.5793e-01, 3.4021e-01, 5.5945e-01, -6.2332e-01, 1.2142e-01, -5.6047e-01, -6.5682e-01, -1.4292e+00, -1.5442e-01
-4.8258e-02, -8.9392e-01, 2.9212e-01, 3.8426e-01, -4.7649e-01, 1.0156e-01, -7.7389e-01, 3.5721e-02, -3.6776e-01, -5.1000e-01
2.5756e-01, -5.3541e-01, 2.3936e-01, 7.1429e-02, -3.1710e-01, 2.0114e-01, -4.4000e-02, -1.3532e-01, -3.6326e-01, -1.5965e-01
1.1169e-01, -6.1973e-01, 3.3709e-01, -7.5905e-03, -1.8709e-01, 2.4556e-01, -9.9632e-02, -2.5513e-01, -9.7992e-02, -2.0811e-01
5.8763e-02, -3.4955e-01, 6.2348e-02, -8.6348e-02, 8.3128e-02, -2.4018e-01, 1.8773e-01, -2.1462e-01, 3.2266e-02, 2.6594e-02
9.8317e-02, -3.6241e-02, 2.7186e-02, -1.9213e-01, 1.7823e-01, -4.1604e-01, 2.4324e-01, -2.3587e-01, 1.6433e-01, 2.9677e-03
2.9401e-01, -2.1883e-01, 1.4871e-01, -5.0634e-01, -1.6758e-03, -2.9863e-01, 3.3026e-01, -1.6520e-01, 2.1472e-01, -3.1343e-02
3.5845e-01, -4.9618e-02, 2.4192e-01, -6.4341e-01, -9.5515e-02, -3.8376e-01, 4.0016e-01, -5.5142e-01, 1.3518e-01, 7.6055e-02
7.4197e-02, -2.2256e-01, 2.3995e-01, -3.8913e-01, -7.4555e-04, -3.2283e-01, 5.3927e-01, -2.5027e-01, 2.4020e-01, 8.8258e-03
-1.8527e-01, -9.2340e-02, 3.5666e-01, -3.3446e-01, 6.9572e-02, -5.1258e-01, 1.4640e-01, -5.7873e-02, 2.7810e-01, 1.4481e-02
-7.5593e-01, 2.7966e-01, 2.2773e-01, -1.6578e-01, 1.4918e-01, -5.1974e-01, 7.3777e-02, 1.6547e-02, 1.7833e-01, -1.2730e-01
-6.2365e-01, 4.4837e-01, 3.7231e-02, -3.0208e-01, 4.1362e-01, -2.9634e-01, 4.9107e-02, 4.1634e-02, -5.0760e-02, -6.0024e-03
-3.6784e-01, -6.0511e-02, 6.6974e-02, -2.7642e-01, 3.7241e-01, -6.4820e-02, -1.7103e-01, 9.9840e-02, -1.0312e-01, 2.4981e-01
-1.6533e-01, -5.4747e-01, 6.4811e-04, -4.8445e-02, 2.9776e-01, -6.0666e-02, -9.2465e-02, 3.6700e-02, -1.8102e-02, 3.8488e-02
1.4309e-01, -7.2842e-01, 1.8427e-02, 1.0675e-01, 1.3211e-01, 4.6895e-02, -1.5342e-02, 5.4386e-02, -1.5957e-01, 3.2753e-02
1.5574e-02, -5.0705e-01, 2.3919e-02, 4.9979e-02, 1.5237e-01, 1.5755e-01, 4.5172e-02, 2.4585e-02, -3.0360e-01, -3.1761e-02
-6.3436e-03, -1.9711e-01, -1.8077e-02, 2.3302e-01, -6.8681e-02, 1.4935e-02, 1.5828e-01, -4.0923e-02, -1.2011e-01, -2.0001e-01
1.5391e-01, -2.4755e-01, 5.3409e-03, 3.3311e-03, -4.6708e-03, 1.1758e-01, -2.4168e-02, -8.6098e-03, -1.4618e-01, -1.0304e-01
-5.0787e-02, -8.6978e-02, 6.0208e-02, 9.0271e-02, 5.8681e-02, 4.2956e-02, 4.1087e-02, -1.4765e-01, -1.9770e-01, -2.6424e-01
1.8847e-01, -6.2759e-02, 8.0946e-02, 2.2473e-01, -2.7882e-01, -7.3674e-02, 5.4709e-02, 3.2548e-02, -3.5561e-02, -3.3561e-01
9.1074e-03, -1.7478e-01, 7.4413e-02, 2.2004e-01, -2.1300e-01, 8.2839e-02, 5.4855e-03, -4.9417e-02, 3.8227e-03, -5.5799e-01
-5.4127e-02, 1.6056e-01, 3.2258e-01, -2.7956e-01, -5.7928e-01, 3.0907e-01, 5.9658e-02, -7.0056e-02, 1.7391e-01, -9.8702e-01
-2.7456e-01, -3.2043e-01, 8.8259e-01, -8.9081e-01, -9.3863e-01, -3.5910e-01, 2.0247e-01, 1.4096e-01, -1.0604e+00, -1.0651e+00
-7.4106e-01, -1.6736e-01, 7.1189e-01, -8.7404e-01, -5.5601e-01, -1.0423e+00, -7.8106e-01, 3.2142e-01, -1.0275e+00, -8.2639e-01
3.7091e-01, -5.0926e-01, 7.2030e-01, -5.4798e-01, -3.3924e-01, -3.1226e-01, -1.0159e+00, -4.8051e-01, -6.0473e-01, -6.2999e-01
1.8881e-03, -1.1071e-01, -2.7267e-02, -2.4835e-01, -3.9489e-01, -2.7938e-01, 6.4375e-02, -2.7540e-01, -2.9346e-01, 3.7129e-01
-8.8382e-02, 1.7030e-01, -3.9399e-01, 5.4001e-01, -8.9620e-02, -4.3541e-01, -1.4577e-01, 9.4526e-02, -3.9868e-01, -3.9000e-01
-6.3752e-01, -4.5255e-01, -7.3147e-02, 6.4326e-02, -2.9957e-01, -6.7790e-01, -5.8792e-01, 4.2029e-01, -1.0495e+00, -2.9455e-01
-5.8278e-01, -1.0531e+00, -4.2746e-02, 6.1636e-01, -3.2276e-01, 1.3634e-01, -2.6507e-01, -6.9712e-01, -1.0230e+00, -3.4134e-01
-2.2724e-02, -9.6262e-01, 3.3616e-01, 2.2407e-01, -2.1136e-01, 1.7542e-01, -5.8273e-01, 4.6476e-02, -6.2229e-01, -7.9989e-01
-4.1653e-02, -8.2673e-01, 1.8216e-01, 2.6714e-01, -1.6215e-01, 3.9829e-01, -3.4850e-01, -3.5621e-02, -1.0800e-01, -5.1169e-01
9.9597e-03, -9.8961e-01, 1.7772e-01, 7.7862e-02, -1.5754e-01, 3.5188e-01, -1.4445e-01, -5.2514e-01, -2.3924e-01, -9.6402e-02
3.7667e-02, -4.8946e-01, 3.3065e-01, -1.9587e-01, -1.3063e-01, 1.6839e-01, 1.0687e-01, -4.4715e-01, -9.1176e-02, -1.5009e-01
8.3082e-02, -8.4938e-02, -7.0692e-03, -1.6177e-01, 6.2743e-02, -1.6502e-01, 1.1851e-01, -2.5157e-01, 4.6282e-02, -6.3554e-02
1.6239e-01, -1.3843e-01, 1.9955e-02, -3.2978e-01, 1.9690e-02, -3.2664e-01, 1.8514e-01, -4.1743e-01, 1.5198e-01, -8.3049e-02
3.6345e-01, -1.4701e-01, 2.0769e-01, -4.7193e-01, -2.4360e-01, -2.6312e-01, 2.1223e-01, -3.2074e-01, 1.7579e-01, 7.3197e-02
7.3969e-02, -2.3828e-01, 1.0913e-01, -4.1557e-01, -1.9666e-01, -1.7719e-01, 2.6803e-01, -2.7119e-01, 1.6834e-01, 6.7021e-02
-1.9820e-01, 5.4864e-02, 3.4635e-01, -4.6625e-01, 1.4649e-01, -2.4770e-01, 4.6171e-01, -1.0913e-01, 3.8493e-02, -2.7622e-01
-5.3656e-01, 2.0947e-01, 1.6221e-01, -3.9689e-01, 2.7099e-01, 7.1764e-03, 1.9438e-01, 7.1803e-02, 2.4430e-02, -1.6899e-01
-5.1810e-01, 1.5917e-01, 1.5109e-01, -3.3066e-01, 2.3962e-01, 6.3050e-02, 1.0230e-01, 3.1479e-02, -1.6517e-01, 6.8174e-02
-2.7910e-01, -2.2900e-01, -4.4614e-02, 1.1637e-01, 2.1025e-01, 2.0435e-02, 5.6056e-02, -8.8335e-03, -6.6359e-03, 7.6368e-02
-9.8685e-02, -5.4693e-01, 7.6049e-02, 2.3267e-01, 1.9752e-01, 7.3951e-02, 1.5588e-01, -1.4239e-01, -4.5025e-02, -5.2302e-02
-1.2487e-01, -3.4237e-01, 1.6067e-01, 1.9229e-01, -8.2530e-02, 1.2133e-01, 1.2569e-01, -1.3215e-01, -1.5640e-01, -2.6524e-02
-1.1332e-01, -1.2171e-01, 8.3244e-02, 1.2366e-01, -8.1646e-02, -2.1956e-02, 1.1111e-01, 2.7892e-03, -1.1838e-01, -1.2986e-01
-1.1367e-01, -1.0556e-01, -7.6808e-03, 1.2834e-01, -1.3515e-01, -3.0588e-02, -3.2923e-02, -1.4579e-01, -1.3212e-01, -8.9037e-02
-1.3748e-01, 1.8048e-01, -1.2843e-01, 6.5003e-02, 1.9231e-01, 4.3940e-02, -1.0877e-01, -7.8747e-02, -6.7389e-02, 1.3851e-02
1.1333e-02, -2.5071e-02, 1.1816e-01, 2.0224e-01, 2.9083e-02, 7.4356e-03, 4.7497e-02, 9.8692e-02, -2.2051e-01, -3.1295e-01
1.8880e-01, -3.1241e-01, 1.6141e-01, 3.8260e-01, -3.0799e-01, 5.8226e-02, -3.1018e-02, -3.2021e-01, -2.0929e-02, -4.7375e-01
-9.5141e-02, -1.1842e-01, 2.3676e-01, 1.5717e-02, -3.2183e-01, 1.1862e-01, -9.6555e-02, -5.9100e-01, 4.0490e-02, -5.6471e-01
-1.5514e-01, -3.5347e-02, 6.1568e-01, -6.5135e-01, -4.0031e-01, 1.7970e-01, -1.4031e-01, -4.2929e-01, -1.0841e-01, -6.4840e-01
-3.3515e-01, 1.2877e-01, 8.2969e-01, -1.3633e+00, -1.2038e+00, -2.8754e-01, 1.0949e-01, -1.0549e-01, -8.5216e-01, -5.5995e-01
-4.9154e-01, 2.0424e-01, 2.9080e-01, -7.3360e-01, -2.8772e-01, -8.2884e-01, -9.2281e-01, 3.8411e-01, -1.1852e+00, -7.0979e-01
-4.5555e-01, 3.8185e-01, 4.7940e-01, -3.3576e-01, -2.6757e-01, -4.1670e-01, -4.9932e-01, -4.2896e-01, -3.8302e-01, -4.2690e-01
-3.1343e-03, -2.6381e-02, 7.5769e-02, -5.7127e-02, -3.7374e-02, -2.2633e-02, -4.0108e-03, -5.5481e-02, -5.5334e-03, 4.2421e-02
3.7631e-01, -2.9412e-01, -2.9843e-01, 3.5785e-02, -2.7421e-01, -5.2293e-01, -2.7398e-01, 4.7443e-01, -3.2024e-01, -3.8949e-01
-2.0466e-01, 5.2407e-02, -7.6556e-02, -2.0855e-01, -1.5722e-01, 3.4751e-01, -4.7973e-01, 3.9991e-01, -1.0959e+00, -1.0524e+00
-4.0087e-01, -5.6554e-01, -2.5225e-01, 4.5346e-01, 3.3059e-02, 3.4277e-01, -2.9992e-01, -7.6236e-01, -5.7568e-01, -3.6468e-01
-1.8440e-01, -8.7122e-01, 2.4538e-01, 1.9289e-01, -6.2214e-02, 2.6886e-01, -3.1231e-01, 1.6410e-01, -2.1780e-01, -4.7424e-01
3.8147e-02, -1.1575e+00, 6.2402e-02, 3.4464e-01, 1.2221e-01, 1.6357e-01, -3.1324e-01, -7.8993e-02, 8.2105e-02, -6.5952e-01
1.4276e-01, -4.6894e-01, 2.1011e-02, 1.6491e-01, -2.0998e-01, 2.6290e-01, -1.6087e-01, -3.5405e-01, -1.6477e-02, -2.0741e-01
2.9314e-02, -4.5855e-02, 2.8136e-01, -6.6246e-03, -1.8187e-01, 1.3366e-01, -7.6742e-02, -4.9908e-01, -8.2063e-02, 4.6650e-02
9.4838e-02, 1.3542e-02, 1.5958e-01, -1.2563e-03, -2.6102e-01, 1.8756e-01, -7.1037e-02, -2.7934e-01, -1.0007e-01, -1.8822e-01
3.4391e-02, 3.7696e-02, 2.4343e-01, -2.5975e-02, -4.9279e-01, 9.2087e-02, 1.9439e-01, -2.7056e-01, 4.8702e-02, -3.5040e-01
2.0516e-01, -6.0679e-02, 1.7010e-01, -1.9391e-01, -4.2390e-01, -2.1135e-03, 2.8970e-01, -4.3326e-01, 1.0921e-01, -2.1018e-01
1.6918e-01, 3.6998e-03, 1.3371e-01, -2.5605e-01, -3.4139e-01, 3.1996e-02, 5.6692e-01, -2.3002e-01, -7.3890e-02, -2.7743e-01
1.6654e-01, -9.2035e-02, 2.5546e-01, -2.4701e-01, -2.6941e-01, 6.5606e-03, 3.9075e-01, -1.4517e-01, -5.7741e-02, -2.6524e-01
-1.6377e-01, 1.0989e-01, 2.0590e-01, -1.0968e-01, -1.1241e-01, -7.6051e-03, 1.6042e-01, -2.7576e-02, -1.0091e-01, -1.5105e-01
-1.6422e-01, -5.7040e-02, 1.3611e-01, 1.1030e-02, 1.1389e-01, 4.7448e-02, 2.1104e-01, 4.8305e-02, -2.1526e-01, -1.8809e-01
-2.3931e-01, -9.0699e-02, 1.5724e-01, 3.6582e-02, 1.6524e-01, -4.9021e-03, 2.0048e-01, -2.2402e-01, -1.4984e-01, -2.1445e-01
-2.0690e-01, 1.4049e-01, 1.7418e-01, 2.0844e-01, -3.6462e-02, 9.3970e-03, 2.2353e-01, -2.9890e-01, -1.4133e-01, -1.3927e-01
-1.8785e-02, 4.5822e-04, 1.1322e-01, 2.0878e-01, -2.2408e-01, -7.0592e-02, 1.1598e-01, -1.7291e-01, -1.0865e-02, -2.1863e-01
-7.4010e-02, 2.0438e-01, 1.2177e-01, 2.6669e-01, -8.4179e-02, 1.1437e-01, 1.1621e-01, -4.3406e-01, 3.0599e-02, -2.0937e-01
-1.1504e-01, 3.1477e-01, -9.6813e-02, 1.5715e-01, -1.9917e-01, 4.3034e-02, 2.3840e-02, -1.2631e-01, 2.1877e-02, 2.8856e-02
9.3175e-03, 9.6816e-02, 1.0024e-01, 4.1279e-02, -3.1739e-01, 1.3999e-01, 2.4873e-02, -2.3918e-01, 1.4847e-02, 5.7285e-02
3.3634e-02, -6.0286e-02, 2.1048e-01, 1.4022e-01, -6.7516e-02, 4.5670e-02, 8.7549e-02, -2.7270e-01, -7.0557e-02, -3.3877e-01
1.4164e-01, -8.4977e-02, 3.9948e-01, 4.2728e-02, -6.3380e-01, 1.6636e-01, 1.1008e-01, -5.7086e-01, 1.5005e-01, -6.2097e-01
-7.6643e-02, 3.6203e-02, 3.0080e-01, 3.2898e-02, -4.8755e-01, 6.2017e-02, 8.7189e-03, -7.5979e-01, 1.9282e-01, -2.6143e-01
-3.9001e-02, 1.5276e-01, 2.2471e-01, -2.6695e-01, -5.1442e-01, 8.9481e-02, -8.8819e-02, -2.1794e-01, 2.1108e-02, -2.4999e-01
-7.1750e-01, 3.6691e-01, 7.8569e-01, -2.0182e+00, -8.6592e-01, -7.7119e-02, -4.8154e-01, -3.4751e-01, -9.8143e-01, -3.6708e-01
-5.9852e-01, 1.3057e-01, 5.0874e-01, -8.6604e-01, -5.6628e-01, -4.4556e-01, -7.0428e-01, -3.6123e-01, -7.9514e-01, -4.0263e-01
-3.5014e-01, 3.4600e-01, 2.4677e-01, -3.2425e-01, -4.1197e-02, -3.4452e-01, -4.1516e-01, -3.8726e-01, -3.0723e-01, -3.4108e-01
3.0154e-02, -1.5561e-02, -7.3181e-02, -2.1931e-02, 1.2635e-02, 2.6691e-02, 5.0665e-02, 4.0594e-02, 7.0955e-03, -5.9229e-02
3.7996e-01, -3.1687e-01, -2.8784e-01, -2.6749e-01, -3.5627e-01, -5.2133e-01, -2.8639e-01, 9.3114e-02, -3.3668e-01, -3.6235e-01
-1.4944e-01, -4.8089e-01, 1.5727e-01, -3.8628e-01, 8.4914e-02, 3.6384e-01, -4.7725e-01, -2.4222e-01, -1.1294e+00, -8.2795e-01
-2.9299e-01, -8.8073e-02, 8.5791e-02, 2.9073e-01, -1.3876e-01, 1.4028e-01, -7.5598e-01, -9.0289e-01, -6.3658e-01, -6.8893e-01
-8.1495e-04, -6.8158e-02, 2.3724e-01, 2.4192e-01, 7.7366e-03, -6.1100e-02, -3.4989e-01, -8.1573e-01, -1.8617e-01, -1.7511e-01
-4.4581e-02, -6.8224e-01, 6.4992e-02, 3.0504e-01, -7.9035e-02, 1.6670e-01, -2.6969e-01, -4.7918e-01, -1.2353e-01, -1.3871e-01
-1.0099e-01, -2.2822e-01, 1.8057e-01, 1.7199e-01, -1.8112e-01, 6.8788e-03, -2.9686e-01, -6.5308e-01, -2.5122e-02, -2.7985e-01
6.6282e-02, 1.3286e-03, 3.3816e-01, 1.7916e-01, -4.0548e-01, -1.4904e-02, -4.2472e-02, -5.6305e-01, 1.2142e-01, -3.8445e-01
1.1620e-01, 6.2731e-02, 2.2722e-01, 1.0814e-01, -5.7089e-01, 2.0955e-01, -6.9112e-02, -2.9580e-01, 4.6018e-02, -3.4319e-01
-3.4348e-02, 1.5313e-02, 2.1101e-01, 9.8227e-02, -4.5487e-01, 5.9551e-02, 1.2755e-01, -1.9689e-01, -6.9087e-02, -4.2525e-01
2.3073e-01, 1.6095e-01, 1.3857e-01, -2.6267e-02, -4.5273e-01, -2.2286e-02, 2.9593e-01, -3.0427e-01, 5.5373e-02, -5.1660e-01
3.8417e-01, 1.3305e-01, 3.0964e-01, -1.9222e-01, -2.1760e-01, 1.5637e-01, 3.1085e-01, -3.0829e-01, -2.4292e-01, -4.9298e-01
4.0443e-01, 4.1156e-02, 2.0983e-01, -3.3440e-01, -1.8108e-01, -6.5611e-02, 4.7505e-01, -6.9080e-03, -4.4855e-02, -5.0830e-01
2.1025e-01, -7.8054e-02, 5.3777e-02, -6.3197e-02, -3.0802e-01, 3.4227e-02, 3.8890e-01, 9.4706e-02, -4.7395e-02, -2.5072e-01
-1.2034e-01, 3.5439e-02, 1.4778e-03, -7.9038e-04, -6.7172e-02, -5.8539e-02, 4.1193e-01, 5.5070e-02, -1.4862e-01, -2.6513e-01
-8.0594e-02, -8.9953e-03, 8.7107e-02, 1.7998e-02, 3.6004e-02, 2.3854e-02, 2.7740e-01, -1.2952e-01, 7.5713e-02, -3.2152e-01
-6.8372e-02, 2.9042e-01, 9.1062e-02, 8.4285e-02, 1.4819e-01, 6.2618e-02, 1.4106e-01, -3.3752e-01, -1.9727e-01, -4.5328e-02
-3.2871e-02, 1.9121e-01, 2.7173e-02, 1.6245e-01, -7.2808e-03, 1.3385e-01, 8.0059e-02, -4.1714e-01, -5.9061e-02, -2.3759e-01
-1.9956e-01, 2.7900e-01, 5.6335e-02, 1.3928e-01, -1.6249e-01, 1.9707e-02, 1.4234e-01, -6.4476e-01, -4.9530e-02, -3.2528e-01
-1.5009e-01, 3.0630e-01, 3.0119e-01, 1.5081e-01, -2.6594e-01, 7.2473e-02, -4.7859e-02, -5.0226e-01, 4.9699e-02, -8.5148e-02
-1.8484e-01, 3.8876e-02, 1.4698e-01, 1.5422e-01, -2.7448e-01, -3.1822e-02, 1.6376e-01, -6.4822e-01, 1.1103e-01, -2.0974e-01
-1.0795e-01, 8.1635e-02, 2.7296e-01, 1.0311e-01, -1.7144e-01, 2.0515e-02, 7.1074e-02, -5.9994e-01, 1.5479e-01, -4.4010e-01
1.5371e-02, -1.1715e-01, 1.8267e-01, -1.0584e-02, -2.8772e-01, 3.4456e-01, -6.8314e-03, -7.6780e-01, 1.3796e-01, -3.8781e-01
-1.8915e-01, 5.8797e-02, 8.9371e-02, 1.3773e-01, -4.9098e-01, 1.7687e-01, -8.7018e-02, -7.1948e-01, 2.3230e-01, -7.8967e-02
-2.4458e-01, 2.0000e-01, 2.2257e-01, -3.2294e-01, -3.0831e-01, -1.5235e-01, -3.8245e-01, -1.1056e-01, -1.2254e-01, 2.5031e-01
-7.7693e-01, 2.1524e-01, 3.7179e-01, -1.8340e+00, -7.0387e-01, -3.0165e-02, -2.0697e-02, -4.4047e-01, -9.9477e-01, 1.7352e-01
-5.6021e-01, 2.3987e-01, 1.4647e-01, 1.2377e-01, -5.3785e-01, -5.4787e-01, -2.5150e-01, -3.2062e-01, -7.9189e-01, -4.4479e-01
-3.9111e-02, -3.1397e-02, -2.8759e-02, -1.1709e-01, -1.7467e-01, 3.7450e-01, -3.9435e-02, -7.0570e-02, -3.4949e-01, 8.5432e-03
-8.8217e-03, 3.3494e-01, -2.3342e-01, -2.3994e-01, 6.5170e-02, 8.4472e-03, -4.7751e-02, 3.6980e-02, -3.1623e-01, 3.1199e-02
-3.2112e-01, 1.0206e-01, 1.0734e-01, 1.8391e-01, -3.9522e-02, -5.1866e-01, -1.3656e-01, -4.3281e-01, -5.6067e-01, -3.3832e-01
-2.8973e-01, -1.8074e-01, 2.1220e-01, 1.2029e-02, -2.8518e-01, -1.1158e+00, -4.3306e-01, -5.6241e-01, -7.7587e-01, -7.9703e-01
-7.0011e-02, 2.1921e-01, 1.2545e-01, 2.3121e-01, -1.7030e-01, -7.7234e-02, -5.3544e-01, -1.1493e+00, -5.8356e-01, -5.7405e-01
-2.1118e-01, 6.3284e-03, 1.0755e-01, 3.1654e-01, -1.7521e-01, 2.2578e-01, -6.5236e-01, -5.8687e-01, -2.6200e-01, -1.9190e-01
1.8248e-01, 1.9077e-01, -1.9805e-02, -1.9885e-02, -4.9826e-02, 8.1355e-02, -5.5604e-01, -2.0842e-01, -1.7858e-01, -1.6161e-01
2.0561e-02, 1.4203e-01, 1.3449e-01, 1.4424e-01, -5.6142e-01, 9.1773e-02, -5.0750e-01, -4.7001e-01, 1.5242e-01, -2.2969e-01
-6.8852e-03, 1.3001e-01, 6.7163e-02, 1.1060e-01, -5.9873e-01, 2.3844e-02, -5.7907e-02, -6.1428e-01, 1.9962e-01, -2.6598e-01
-8.7514e-02, 1.3071e-01, -9.6954e-03, 1.2453e-01, -2.4149e-01, 1.7971e-01, 5.7033e-02, -9.7025e-02, -5.2124e-02, -3.1874e-01
-2.9467e-02, 1.1284e-01, 1.2974e-01, -9.2847e-02, -1.5871e-01, 1.9355e-03, 1.4126e-01, -1.1018e-01, -4.4022e-02, -8.6644e-02
2.4319e-01, 2.2625e-01, 1.6593e-01, -1.3082e-01, -2.9534e-01, 7.4535e-02, 1.0580e-01, -1.8858e-01, -8.1834e-02, -2.0628e-01
2.8521e-01, -1.2157e-01, 1.0984e-01, -1.3785e-01, -1.7243e-01, 8.6102e-02, 3.1477e-01, -1.0663e-01, -8.2611e-02, -4.2063e-01
2.5142e-01, -1.3590e-01, 3.6712e-02, -1.2267e-01, -2.5595e-01, 5.7794e-02, 4.5327e-01, -2.6244e-02, -1.3087e-01, -2.8228e-01
5.7296e-02, -1.3280e-01, 3.6321e-02, -6.9631e-02, -2.2734e-01, 3.3090e-02, 4.6645e-01, -1.7293e-01, 8.1119e-02, -2.2843e-01
1.2917e-02, 3.1466e-03, 2.8727e-02, -6.2101e-02, -2.3392e-01, 1.3721e-01, 4.6094e-01, -2.7327e-01, -2.5562e-02, -2.4945e-01
5.4452e-02, 1.1337e-01, -7.5576e-02, 1.8833e-02, -5.0463e-02, 7.1882e-02, 2.3833e-01, -5.7192e-02, -8.5399e-04, -1.9333e-01
-6.6776e-02, 7.7967e-02, 1.0146e-01, 1.2169e-01, -1.3271e-01, 9.5184e-02, 2.2302e-01, -1.1615e-01, -2.6025e-02, -2.2409e-01
-3.2163e-01, 3.0305e-02, 1.7816e-01, 8.8153e-02, 6.2665e-02, 3.8382e-02, 1.8919e-01, -3.1247e-01, -2.8582e-02, -3.3914e-01
-2.2283e-01, 2.6912e-01, 1.8835e-01, 1.5081e-01, -1.5488e-01, 5.1362e-02, 2.6211e-01, -4.7053e-01, 1.3697e-02, -2.8695e-01
-2.7065e-01, 1.3006e-01, 4.2127e-01, 1.8812e-01, -3.7058e-02, 1.0819e-02, 4.3388e-02, -4.3364e-01, -1.7665e-02, -2.0430e-01
-2.3529e-01, 2.6079e-01, 4.8745e-02, 8.5839e-02, 3.9865e-02, 9.0011e-02, -2.9275e-02, -4.0142e-01, 8.0474e-02, -3.0414e-01
-9.4498e-02, 3.1622e-01, 1.6052e-01, -1.2310e-01, -6.5958e-02, 3.3806e-01, -1.6445e-01, -5.0836e-01, 7.4721e-02, -3.3879e-01
-2.2001e-02, -3.1720e-01, 1.2459e-01, -9.7605e-02, -1.3061e-01, 2.7401e-01, 8.1523e-02, -8.9498e-01, 2.6217e-02, -2.5985e-01
-2.8934e-01, -6.5591e-02, 4.6810e-01, -2.3643e-01, -1.7575e-01, 9.2405e-02, -3.6536e-01, -8.0363e-01, -7.0966e-02, -6.9371e-02
-3.5808e-01, 2.6035e-01, 3.0501e-01, -9.9816e-01, -2.8933e-01, -1.7769e-01, -3.1128e-01, -7.9481e-01, -4.2022e-01, 5.3235e-01
-6.0660e-01, 2.9647e-01, 5.7568e-01, -1.7086e+00, -5.6777e-01, -2.1439e-01, -3.0487e-01, -1.0568e-01, -6.7540e-01, -1.2592e-01
3.0670e-01, -1.0639e-01, 2.9897e-01, -9.6664e-04, -3.8558e-01, -4.3761e-01, 9.9751e-02, -2.9176e-01, -8.8640e-01, -3.8781e-01
1.2864e-01, -3.8192e-02, 4.2284e-03, 4.8818e-02, -5.4927e-02, 1.5220e-02, 5.5657e-02, 4.3111e-02, -7.0770e-02, 8.1538e-02
3.5722e-03, 3.5874e-01, -2.8469e-01, -2.4069e-01, 3.3869e-02, 4.9516e-02, -9.4087e-02, 4.7176e-03, -3.1078e-01, -1.2592e-01
-8.6126e-02, 3.2611e-01, -1.7308e-01, 1.6621e-01, -2.7911e-04, -1.5645e-01, -3.8421e-02, -1.2314e-01, -1.1708e-01, -3.2794e-02
-4.2470e-01, -1.8557e-01, 2.8632e-01, 6.9487e-02, -3.9171e-01, -1.0922e+00, -2.4509e-01, -6.2613e-01, -8.3019e-01, -8.2588e-01
-4.1013e-01, 2.3852e-01, 1.4337e-01, 3.5764e-01, -4.7555e-01, -1.4597e-01, -9.2293e-01, -7.5216e-01, -8.1174e-02, -6.7680e-02
-5.5449e-01, 1.1172e-01, 2.0656e-01, 1.7391e-01, -9.2959e-01, 1.3604e-01, -8.4954e-01, -3.1562e-01, -1.5710e-01, -1.7786e-01
2.6943e-02, 7.5922e-01, 3.2508e-02, -6.0558e-02, -6.8527e-01, -9.9732e-02, -9.4855e-01, -1.1540e-02, -2.9592e-01, -4.4927e-01
3.2228e-02, 2.8269e-01, 2.0961e-01, 1.4967e-01, -6.2176e-01, -1.9170e-01, -1.2131e+00, -2.5076e-01, -1.6826e-02, -3.6801e-01
-4.2361e-02, 1.3237e-02, 2.1669e-01, 2.9794e-02, -4.4291e-01, -1.4400e-01, -1.2527e-01, 8.0859e-02, -2.5996e-02, -1.8698e-01
1.9939e-01, -1.5076e-02, 1.9432e-01, 1.8020e-03, -2.0893e-01, 5.8998e-03, -9.2253e-02, 1.6406e-03, -1.0276e-01, -6.3950e-03
1.3286e-01, 2.0647e-02, 3.0273e-01, -2.4144e-02, -1.6324e-01, -4.8927e-02, 7.7043e-02, -8.2591e-02, -4.3440e-02, -2.0646e-01
9.6404e-02, -1.3804e-01, 1.5628e-01, 2.1039e-02, -2.9398e-01, -2.4732e-02, 2.0189e-01, -1.2726e-01, 3.8441e-02, -2.2768e-02
1.3360e-01, -3.1350e-01, 1.4908e-01, -6.8623e-04, -1.4331e-01, 8.1844e-02, 5.8565e-02, -1.9728e-01, 3.9571e-02, 3.3858e-02
2.0884e-01, -4.1800e-01, 1.1142e-01, -6.8173e-02, -1.7055e-01, 2.5031e-01, 1.8988e-01, -7.1538e-02, 1.6436e-01, 1.4480e-02
2.8460e-01, -3.7752e-01, 5.6565e-02, -1.9283e-02, -2.1143e-01, 1.6376e-01, 3.0881e-01, -2.5975e-01, 1.7353e-01, -4.5831e-02
1.1947e-01, -8.8923e-02, -3.3709e-02, -7.6205e-02, -2.5711e-01, 1.7715e-01, 1.5456e-01, -9.9085e-02, 1.5906e-01, -7.0603e-02
2.2257e-02, 4.2678e-02, -1.5525e-01, 7.1444e-02, -1.6441e-01, 1.0889e-02, 1.8883e-01, 1.2375e-02, -2.5339e-02, -2.2285e-01
-1.2376e-02, 4.1647e-02, 3.8407e-02, -9.3523e-03, -1.8813e-01, 1.0295e-01, 9.8713e-02, -3.7323e-02, -4.4958e-02, -1.3857e-01
7.8033e-02, 3.1568e-01, 6.0801e-02, 7.8350e-02, -2.6145e-02, 6.1794e-02, 1.0225e-02, -2.3427e-01, -2.6382e-03, -1.9859e-01
-2.0229e-01, 3.3115e-01, 2.3111e-01, 5.0020e-02, 1.0222e-03, 1.5323e-01, -9.7081e-02, -3.3788e-01, -2.4639e-02, -2.2445e-01
-1.2608e-01, 1.9295e-01, 1.5300e-01, 1.0085e-01, 1.4715e-01, 2.2611e-01, -1.2887e-01, -3.5685e-01, -9.4608e-02, -4.1891e-01
-9.0251e-02, 3.1402e-01, 2.1404e-01, 1.9836e-02, 1.1775e-01, 2.2587e-02, -5.1307e-02, -5.0543e-01, -1.2908e-01, -2.0907e-01
1.6482e-02, 1.7151e-01, 8.5759e-02, -8.9951e-02, 1.1606e-01, -7.6953e-03, 8.8567e-02, -4.8763e-01, 5.8786e-02, -8.3933e-02
1.3800e-01, -4.6141e-01, 2.3205e-01, -1.3508e-02, 8.3441e-02, 7.9222e-02, -4.2193e-01, -7.3159e-01, 4.1075e-02, 3.8066e-02
2.4533e-02, -2.4956e-01, 1.2929e-01, -3.5951e-01, 3.7076e-02, 4.2519e-01, -7.7930e-01, -1.0235e+00, -1.2096e-01, 3.4295e-01
-3.6797e-01, 2.1086e-01, 2.9048e-01, -1.1752e+00, -1.4830e-01, -6.5120e-02, -7.7123e-01, -4.7619e-01, -1.1059e-01, 4.7269e-01
-3.7995e-01, 2.8716e-01, 3.3740e-01, -4.2045e-01, -3.2108e-01, -1.7011e-01, -6.9127e-01, -1.1999e-01, -4.7036e-01, -1.8180e-01
4.1988e-01, 4.3763e-01, -2.3710e-01, 2.2531e-01, -3.0617e-01, -3.6356e-01, 2.1856e-01, -4.5992e-01, -5.5595e-01, -4.8663e-01
1.9408e-01, 2.3549e-03, 2.1819e-04, 9.3064e-03, -7.2109e-02, -4.4040e-02, 6.8001e-02, -5.9654e-02, -1.7848e-01, -1.8457e-02
8.1455e-02, 5.9150e-02, 5.7167e-02, -3.6155e-03, -5.6146e-02, -2.3903e-02, 8.5653e-04, -6.1418e-02, -8.1131e-02, -6.7048e-02
6.8933e-02, -5.4749e-02, 6.1226e-02, -1.5293e-02, -4.3466e-02, 8.1125e-02, -6.3372e-02, 7.8553e-02, -6.3968e-03, -2.8943e-02
-5.8958e-01, -5.1241e-01, -3.7405e-02, 5.8243e-01, -5.4023e-01, 5.8608e-02, -8.1610e-02, -5.3445e-01, -7.3889e-01, -5.5406e-01
-5.9320e-01, -5.2948e-01, -7.0000e-02, 6.0362e-01, -3.7229e-01, 1.9324e-01, -4.1423e-01, -7.1283e-01, -2.6141e-01, -2.7651e-02
-6.9800e-01, -3.7669e-01, 9.9112e-02, 4.3719e-01, -7.5151e-01, 3.3787e-01, -8.4588e-01, 8.8091e-02, -7.4661e-02, -4.8137e-01
-2.6453e-01, 4.0790e-01, 3.0758e-02, 1.5512e-01, -6.4969e-01, 1.7777e-01, -1.3229e+00, 6.4221e-02, -3.0124e-01, -3.9578e-01
5.5395e-02, 2.9967e-01, 5.4468e-02, 2.0388e-01, 1.0848e-01, 4.2678e-03, -1.4568e+00, 2.3278e-01, -3.5025e-01, -2.7356e-01
8.1394e-02, -1.0975e-02, 3.3197e-02, 1.5914e-01, 1.2328e-02, -2.0258e-01, -9.4108e-01, 2.5637e-01, -1.3411e-01, -1.2095e-01
1.1748e-01, -6.8686e-02, 7.0444e-02, 2.2636e-03, -3.0100e-02, 8.3883e-02, -4.3949e-01, -2.0727e-01, 3.9549e-02, 3.9049e-02
1.9424e-01, 8.4102e-02, 1.1148e-01, 1.0109e-01, -4.9364e-02, 1.3449e-01, -1.5598e-01, -1.3753e-01, 1.4441e-03, -2.4312e-01
2.7378e-01, -1.5675e-01, 3.7861e-02, 2.3586e-01, -1.6308e-02, 1.2547e-01, -2.5358e-01, -1.6132e-01, -3.8312e-02, -1.4610e-01
3.0160e-01, -1.8914e-01, 3.2388e-02, 1.1480e-01, -3.1715e-02, 1.3255e-01, -3.0912e-01, -2.3987e-01, 7.1599e-02, -2.2777e-01
2.0185e-01, 1.3662e-02, 1.3395e-01, -3.2614e-02, -1.1096e-01, 1.8674e-01, -8.5030e-02, -2.0902e-01, 1.7960e-01, -1.2686e-01
2.9496e-01, -2.0418e-01, -8.8851e-03, 6.4413e-02, -8.5452e-02, -4.2593e-02, -2.0522e-02, -2.2415e-01, 2.3560e-01, -1.6003e-01
1.6230e-01, -2.9700e-01, -2.7592e-02, -3.8899e-02, -5.3464e-02, 1.5568e-01, 2.8584e-02, -1.0511e-01, 1.7569e-01, -6.9708e-02
1.1437e-01, 1.9548e-02, -6.7614e-02, 4.6549e-02, -1.3869e-01, 7.1864e-02, -8.8564e-02, -1.0902e-01, 2.3590e-01, -2.2794e-01
-2.7144e-02, 1.0501e-01, -4.3824e-02, -9.9388e-02, -3.6838e-02, 1.6017e-01, -1.0803e-01, -1.0953e-01, 2.5808e-01, -1.6956e-01
1.9851e-02, 3.5807e-01, -1.1570e-02, 8.5443e-02, 1.6977e-02, 3.0795e-02, -1.3640e-01, -1.5294e-01, 8.3460e-02, -1.0691e-01
-2.2646e-01, 3.0672e-02, 2.6569e-01, 2.6206e-01, 8.1739e-02, -2.8143e-01, 8.8647e-02, -3.2162e-01, 1.3284e-01, -1.9297e-01
-4.6044e-01, 2.7082e-02, 3.4078e-01, -1.8575e-02, 1.0121e-01, -7.7898e-02, 2.7079e-01, -5.8472e-01, 6.9216e-02, -7.7520e-02
-5.2420e-01, -6.0284e-02, 2.9955e-01, -1.1900e-01, 7.4281e-02, 1.2079e-02, 1.9631e-01, -6.5832e-01, 6.6129e-02, 1.5918e-02
-1.6663e-01, -4.3324e-01, 4.2832e-01, -1.5976e-01, 2.6264e-01, -7.3475e-03, -7.0848e-02, -6.1719e-01, 7.9718e-02, 1.4627e-01
8.3898e-02, -7.8618e-01, 3.7510e-01, -2.7399e-01, -2.3921e-01, 1.4512e-01, -5.1401e-01, -6.6911e-01, -3.1662e-02, 3.6238e-01
-2.9063e-01, -1.0042e+00, 1.7015e-01, -7.6806e-01, -3.9468e-01, 4.4178e-01, -8.2884e-01, -1.0148e+00, 2.6584e-01, 4.0741e-01
-4.4398e-01, -3.1114e-01, 3.1098e-01, -2.4986e-02, -4.5447e-01, 8.6843e-02, -7.9109e-01, -6.0383e-01, -2.1453e-01, 2.3027e-01
-4.4269e-01, 8.9986e-02, 5.0123e-01, -3.9605e-01, -2.6576e-01, -1.0854e-01, -5.8100e-01, -4.3207e-01, -6.9517e-01, -3.8607e-01
-3.6917e-01, 5.0051e-01, -1.6128e-01, 2.3804e-01, -3.3289e-01, -4.9615e-01, -3.8015e-01, -3.2692e-01, -5.5524e-01, -3.4876e-01
5.8143e-02, -7.1784e-02, 8.4475e-02, 7.1713e-03, 5.1135e-02, 3.9383e-02, 5.8754e-02, -5.9630e-02, -6.6895e-02, -4.2107e-03
-6.8150e-02, -2.3091e-02, 5.0432e-02, 7.9079e-02, -7.4335e-03, 3.2253e-02, 2.4875e-02, -8.2124e-02, -2.8428e-02, -2.6627e-02
7.7400e-02, -5.5214e-02, 6.9710e-02, -2.7755e-02, 3.5384e-02, -3.5249e-02, -6.2203e-02, 3.2716e-02, 7.0910e-02, 9.1267e-04
-3.6452e-01, 8.4485e-04, -5.2379e-01, 2.5265e-01, -1.5246e-01, -7.8428e-01, -4.2232e-02, -9.4115e-02, -3.3412e-01, -3.7389e-01
-5.0216e-01, -5.6224e-01, -7.9639e-01, 4.7702e-01, -6.1499e-01, 3.8123e-01, -1.2424e-01, 1.8173e-01, -4.5882e-01, -8.2005e-01
-1.2958e-01, -8.1007e-01, -4.7228e-01, 6.4609e-01, -7.5776e-01, 8.9052e-02, -4.5164e-01, 1.0016e-01, -8.3432e-01, 8.0631e-02
-1.3448e-01, -5.2247e-02, -6.7766e-01, 2.2920e-01, 1.1658e-02, -1.2999e-02, -8.8100e-01, 5.6993e-01, -6.3706e-01, -3.9380e-02
-3.7391e-01, -1.0364e-01, -3.5287e-01, 4.2703e-01, 2.6785e-01, -1.7305e-01, -1.3436e+00, 3.4632e-01, -4.7876e-01, -1.2435e-01
-3.0468e-01, -2.3136e-01, -2.2746e-01, 3.7465e-01, 1.0081e-01, -1.2234e-02, -1.1777e+00, 2.2367e-01, -1.7252e-01, 1.9889e-02
-2.2409e-01, -3.1371e-01, -2.8333e-01, 1.4054e-01, -8.3973e-02, -5.5327e-02, -1.4781e+00, 1.8953e-01, 5.9879e-02, 1.3038e-02
-3.5531e-02, -1.9734e-01, -1.5199e-01, 1.1414e-01, 6.9173e-02, 2.6492e-01, -2.1417e+00, -6.8602e-02, 2.7514e-02, -1.0020e-01
-1.2768e-01, -2.6983e-01, -1.5981e-01, 2.4057e-01, -9.1541e-02, 1.2255e-01, -2.6406e+00, -1.5250e-01, -1.1595e-03, -3.8268e-02
-1.6517e-01, -3.1697e-01, -9.6876e-02, 2.4604e-01, 6.9192e-02, 6.9029e-02, -1.1555e+00, -1.1918e-01, 1.4984e-01, -1.7133e-01
1.9468e-01, -2.6013e-01, 1.0491e-02, 1.5716e-01, -1.7071e-01, 2.2609e-01, -8.2902e-01, -7.7859e-02, 2.8388e-01, -2.7166e-01
1.5751e-01, -3.2313e-01, 2.5177e-02, 2.8479e-01, -1.0898e-01, 2.2284e-01, -8.5824e-01, 1.8385e-01, 1.4593e-01, -2.6254e-01
4.4520e-02, -2.3391e-01, 1.8328e-01, 2.3186e-01, -8.4711e-02, 2.8068e-01, -6.6297e-01, 1.2053e-02, 1.7067e-01, -3.3891e-01
9.7581e-02, -3.0226e-01, 4.5433e-02, 9.6831e-02, -1.2781e-01, 2.1941e-01, -4.9050e-01, -2.7479e-02, 1.9961e-01, -5.2753e-02
-1.4051e-01, -6.9476e-01, -1.6334e-01, 8.1141e-02, 5.3949e-02, 3.5658e-02, -1.6095e-01, -1.1712e-01, 3.1426e-01, -1.9092e-01
-8.1405e-02, -3.1917e-02, 1.0136e-01, 1.3915e-01, -1.6644e-01, 1.5993e-01, -3.2450e-01, -5.1976e-02, -5.7321e-02, -1.2675e-02
-4.8770e-01, 1.4792e-01, 2.1598e-01, -2.3467e-01, -5.2738e-02, 1.6860e-01, -2.7244e-01, -3.3019e-01, 2.8636e-01, 7.8735e-03
-7.5484e-01, 1.3327e-01, 6.1325e-02, -2.3884e-01, 7.5767e-02, 8.5810e-02, -4.7743e-01, -3.1275e-01, 4.1656e-01, 8.1632e-02
-8.0070e-01, -4.0258e-02, 4.3996e-02, -1.7732e-01, -1.1846e-02, 7.8502e-02, -5.7592e-01, -2.6892e-01, 5.8883e-02, 3.0245e-01
-6.7249e-01, -5.9900e-02, 2.2262e-01, 2.4483e-02, 3.8552e-02, 4.6017e-02, -1.4480e+00, -3.0759e-01, -6.7954e-02, 1.2931e-01
-6.1123e-01, -2.9978e-01, -2.1666e-02, -1.9814e-01, 3.4709e-02, 5.1623e-01, -1.1437e+00, -5.6583e-01, -3.3928e-01, 4.5575e-01
-9.5440e-01, -6.4855e-01, 1.2187e-02, -5.9448e-01, -4.4708e-02, 2.9272e-01, -9.5722e-01, -1.1159e+00, -6.1932e-01, 4.9281e-01
-6.1176e-01, -3.2963e-01, 6.5620e-01, -3.6100e-01, -6.8108e-01, 2.9548e-01, -8.2586e-01, -5.7774e-01, -8.9159e-01, -3.5833e-01
-3.5131e-01, 3.1925e-01, 5.0930e-01, -5.6778e-01, 2.3827e-01, -6.3759e-01, -4.4674e-01, -5.5075e-01, -6.6457e-01, -3.8587e-01
-7.3665e-02, 2.5107e-01, 2.6685e-01, -1.3663e-01, -2.8280e-01, -3.6940e-01, -1.3713e-01, -9.5108e-02, -5.6338e-01, -2.9334e-01
7.8279e-02, -6.3049e-02, -6.8159e-02, -4.3576e-02, 6.6568e-02, -5.7650e-02, -6.5513e-02, 3.4681e-02, -5.1866e-03, -8.1902e-03
6.3384e-02, 5.6295e-02, -6.1093e-02, -5.6984e-02, 3.0063e-02, -5.6679e-02, -1.0137e-03, 3.8367e-02, -1.5483e-02, -8.4800e-02
3.2496e-02, -1.6211e-02, -4.3377e-02, 2.8754e-02, -2.9425e-02, -1.8557e-02, -4.8000e-02, -5.8265e-02, 1.0529e-03, -1.4882e-02
-1.9601e-01, -8.5401e-02, -1.6822e-01, 2.4119e-01, -3.2257e-01, -4.8886e-02, 3.8730e-03, -3.7478e-01, -3.1101e-01, 3.8175e-01
-3.7747e-01, -4.6789e-01, -4.2368e-01, -3.0617e-01, -1.6639e-01, 2.7486e-01, -1.4125e-01, 3.6717e-01, -4.0610e-01, -7.2859e-01
-5.6251e-01, -9.9769e-01, -7.6122e-01, -2.1294e-01, -1.0214e+00, 4.2386e-01, -3.7925e-01, 4.1434e-01, -1.0352e+00, 8.9617e-02
-1.0369e+00, -9.1060e-01, -1.4765e+00, 1.8482e-01, -8.7092e-01, 9.8318e-02, -6.7297e-01, 2.6707e-01, -1.0085e+00, 3.7618e-01
-6.9302e-01, -5.9120e-01, -1.7109e-01, 5.5881e-01, -2.2279e-01, -1.1699e-01, -8.5349e-01, 3.8894e-02, -3.3725e-01, 1.6778e-01
-6.0035e-01, -9.5441e-01, -4.0049e-01, 6.4096e-01, -4.1830e-01, -2.2883e-01, -1.3618e+00, 1.0799e-01, -3.7183e-01, 2.6668e-01
-6.7839e-01, -3.6389e-01, -7.3955e-01, 6.5864e-01, -6.1068e-01, -2.0537e-01, -1.0630e+00, 2.8468e-01, -4.9195e-01, 1.7417e-01
-8.7589e-01, -5.1665e-01, -1.0141e+00, 6.0718e-01, -3.3845e-01, 8.7803e-02, -1.1510e+00, 3.2182e-01, -3.8969e-01, 9.4135e-02
-9.2880e-01, -1.3144e+00, -7.8250e-01, 5.2070e-01, -1.9816e-01, 6.3140e-02, -2.1621e+00, 1.8562e-01, -1.5227e-01, 2.0708e-01
-6.8285e-01, -1.2294e+00, -6.4136e-01, 3.8126e-01, -3.7383e-01, 1.4310e-01, -1.7988e+00, 3.2886e-01, -1.5102e-01, 1.3928e-01
-6.6451e-01, -5.9456e-01, -5.2685e-01, 3.8711e-01, -5.4323e-01, 1.7050e-01, -2.1569e+00, 2.2122e-01, -2.2872e-01, 9.3062e-02
-6.1839e-01, -5.8888e-01, -2.6151e-01, 5.4400e-01, -3.2111e-01, 1.0131e-01, -1.6952e+00, 7.5605e-02, -1.9638e-01, 9.8488e-02
-9.8126e-01, -6.1333e-01, -9.7498e-03, 2.1707e-01, -3.1466e-01, -1.0295e-02, -1.3029e+00, 2.6896e-01, -3.9061e-02, 2.4125e-01
-1.2281e+00, -8.4381e-01, 8.6824e-02, 3.2775e-02, -1.8226e-01, 3.0665e-01, -1.3669e+00, 1.4207e-01, 1.5986e-01, 9.7984e-02
-1.0119e+00, -1.4359e+00, 1.4772e-02, 2.4653e-01, -4.4097e-01, 2.7417e-01, -1.3836e+00, 6.6273e-02, 6.1695e-02, 2.4568e-01
-9.0213e-01, -1.6505e+00, -2.1561e-02, -2.1736e-02, -4.3212e-01, 3.7526e-01, -2.4734e+00, 1.6381e-01, 9.3661e-02, 2.5301e-01
-9.3325e-01, -1.7319e+00, -3.1352e-01, 1.2114e-01, -2.7280e-01, 2.6054e-01, -2.1921e+00, 7.0034e-02, -1.1754e-01, 2.1946e-01
-1.2818e+00, -1.4524e+00, -5.0021e-01, 4.9113e-01, -5.4063e-01, 3.5139e-03, -1.9191e+00, 1.8312e-01, -6.0511e-02, 3.0885e-01
-8.4348e-01, -1.2712e+00, -4.1823e-01, 1.9838e-01, -4.0001e-01, 7.0753e-02, -1.3106e+00, -1.5482e-03, -9.4569e-02, 4.4381e-01
-9.6879e-01, -8.0890e-01, -3.7799e-01, -2.3085e-01, -5.0978e-01, 2.5665e-01, -1.1049e+00, -6.8693e-02, -2.3515e-01, 4.9263e-01
-7.2996e-01, -5.8015e-01, -5.2707e-01, 4.1632e-02, -8.1627e-02, 3.7600e-01, -4.4181e-01, -2.2531e-02, -1.0227e+00, 1.7625e-01
-7.8541e-01, -3.1002e-01, -5.2960e-01, -9.0861e-01, -3.7447e-02, 4.9897e-01, -5.8638e-01, -4.0264e-01, -4.5774e-01, 9.4417e-02
-6.1977e-01, -4.1850e-01, -2.7972e-01, -4.5333e-01, -3.2667e-01, 4.2557e-01, -5.7146e-01, -3.0123e-01, -5.4584e-01, -1.7413e-01
-1.5307e-02, -1.7115e-01, 3.1374e-01, -1.7793e-01, -4.8604e-01, -1.7345e-01, -7.1307e-02, -4.0856e-01, -3.0103e-01, -2.1445e-01
5.1575e-02, -1.7794e-01, 3.9628e-01, -6.5989e-02, -3.7261e-01, -1.9082e-01, -3.2815e-02, -3.3176e-02, -3.0182e-01, -4.2641e-01
4.2382e-02, -3.1961e-04, 5.5609e-02, 2.3126e-02, -7.6343e-02, -4.3860e-02, 1.1030e-02, 1.9471e-02, 1.8776e-02, 5.4456e-02
-1.3353e-03, -2.9886e-03, -7.1330e-02, -3.2518e-02, 2.8093e-02, 8.6697e-02, -2.1620e-02, 2.7825e-02, 7.7842e-03, -5.9117e-02
7.1190e-02, -4.3245e-02, -7.0791e-02, -1.2170e-02, -3.7473e-02, -4.7996e-03, -1.5529e-02, 1.6076e-02, -3.4735e-02, -6.6783e-02
8.1202e-02, 3.9790e-02, 8.1537e-02, -1.4806e-02, 5.9124e-02, 3.8660e-02, 4.4821e-02, -5.6983e-02, -3.3586e-02, 3.9784e-02
-8.2336e-02, -2.9118e-01, -1.9594e-01, -2.7804e-01, -2.4060e-01, -1.9809e-01, -1.2845e-01, -3.2902e-01, -2.2628e-01, 3.3969e-01
-2.6854e-01, -4.4910e-01, -6.7405e-01, -4.1205e-01, -4.8335e-01, -4.1032e-01, -7.3894e-02, -3.3190e-01, -6.5404e-01, 4.7303e-01
-6.1140e-01, -7.4631e-01, -1.0099e+00, 2.6603e-01, -5.0495e-01, -6.1899e-01, -2.6435e-01, -2.5775e-01, -6.1060e-01, 5.4225e-01
-8.0753e-01, -6.2876e-01, -1.2824e+00, 1.9494e-01, -8.5742e-01, -7.0260e-01, -2.5029e-01, -2.7645e-01, -9.7089e-01, 5.9903e-01
-7.8206e-01, -4.7288e-01, -8.4582e-01, 2.0516e-01, -1.3801e+00, -7.9371e-01, -3.4258e-01, 1.0039e-01, -1.2817e+00, 6.6770e-01
-1.1530e+00, -1.0429e+00, -9.3762e-01, -7.1830e-03, -8.2521e-01, -6.1453e-01, -6.3467e-01, 2.4773e-01, -6.3245e-01, 3.5666e-01
-1.2005e+00, -1.1508e+00, -1.0242e+00, -1.1759e-01, -1.2749e+00, -2.9482e-01, -7.5620e-01, 3.3355e-01, -6.9578e-01, 4.1510e-01
-1.2861e+00, -7.4134e-01, -1.5373e+00, 2.0929e-02, -7.7253e-01, -1.5106e-01, -7.6394e-01, 2.2667e-01, -7.6228e-01, 4.2837e-01
-1.2741e+00, -1.0775e+00, -5.3507e-01, 1.1498e-02, -1.4171e+00, 2.2355e-01, -1.0395e+00, 1.4557e-01, -3.8096e-01, 3.0698e-01
-2.0307e+00, -1.3546e+00, -1.9241e+00, -9.9725e-02, -9.8444e-01, 4.5020e-02, -1.2718e+00, 5.4710e-02, -4.2094e-01, 4.9928e-01
-9.0146e-01, -1.1629e+00, -1.4370e+00, 1.1475e-01, -1.2036e+00, -9.4267e-02, -5.4452e-01, 3.5902e-01, -3.0226e-01, 3.9302e-01
-7.5389e-01, -8.4256e-01, -1.6158e+00, -4.3562e-02, -1.4550e+00, -1.7438e-01, -6.7078e-01, 1.9110e-01, -4.5662e-01, 6.0629e-01
-1.0433e+00, -3.5960e-01, -9.8609e-01, 1.0871e-01, -1.0718e+00, 2.1830e-01, -1.3658e+00, 4.1463e-01, -1.4482e+00, 2.5413e-01
-8.6921e-01, -5.5607e-01, -1.0381e+00, 9.4036e-02, -1.2443e+00, 9.5809e-02, -1.4504e+00, 3.3358e-01, -1.3914e+00, 3.3163e-01
-8.0545e-01, -1.0801e+00, -7.6259e-01, 9.1038e-02, -1.0838e+00, -2.4323e-01, -1.5442e+00, 4.4159e-01, -3.7450e-01, 2.9879e-01
-7.9142e-01, -6.5638e-01, -1.0021e+00, 5.9781e-02, -1.2484e+00, -3.3264e-01, -1.0999e+00, 3.3253e-01, -2.7027e-01, 4.8365e-01
-1.1418e+00, -7.0613e-01, -1.4173e+00, 1.3996e-01, -1.0325e+00, -1.2728e-01, -1.0597e+00, 4.9034e-01, -9.8633e-01, 9.5066e-02
-4.4720e-01, -6.5845e-01, -1.0442e+00, 7.4732e-02, -1.2478e+00, 1.1960e-01, -8.6368e-01, 1.2732e-01, -1.0486e+00, 3.5870e-01
-7.1323e-01, -4.6843e-01, -9.6409e-01, -9.5438e-02, -9.6152e-01, 1.8210e-01, -8.3756e-01, 1.9019e-01, -8.8337e-01, 1.5898e-01
-3.8394e-01, -5.0185e-01, -5.8872e-01, -1.9165e-01, -8.3280e-01, 2.1523e-01, -5.4676e-01, 2.4243e-01, -2.5162e-01, 1.2796e-03
-5.6657e-01, -3.4638e-01, -5.8543e-01, -5.4585e-01, -1.6575e-02, -7.2449e-02, -3.2231e-01, -2.2702e-01, 1.9043e-01, 3.0904e-01
-6.9161e-02, -3.9500e-02, -2.8724e-02, 3.9483e-02, 3.7927e-01, -2.0769e-02, -1.0037e-01, -3.8536e-01, -8.0978e-02, -3.6215e-01
2.3189e-02, 7.6954e-03, 1.0542e-02, -5.7181e-02, 3.0987e-02, -7.2890e-02, -4.3334e-02, 3.4243e-01, -4.7041e-02, -2.0724e-01
7.3712e-02, -8.3274e-02, 1.1642e-02, 5.3645e-02, -9.3552e-03, 7.3787e-02, 8.2563e-02, 4.5234e-02, 5.6469e-02, -1.7805e-02
7.1619e-04, 4.2923e-02, 7.8096e-02, -2.7133e-02, -6.7047e-02, -2.3080e-02, -6.0019e-02, -4.0599e-02, 3.4294e-02, 7.4848e-04
-3.1650e-03, 5.7326e-02, -7.5759e-03, 2.2256e-02, 5.6026e-02, 6.1769e-02, 8.6468e-02, 1.5018e-03, -7.5033e-02, -1.0016e-02
-3.3147e-02, -7.8072e-02, -5.8292e-02, -6.1389e-02, 8.0514e-02, -3.6243e-02, 6.8057e-02, -3.9733e-02, 2.6173e-02, 8.0671e-02
-1.2496e-02, -7.6708e-02, 5.2791e-02, -5.3921e-02, 5.9863e-02, -6.6000e-02, 1.4115e-02, 6.8602e-02, 6.9659e-02, 1.7325e-02
-6.5302e-02, 6.6567e-02, -1.5996e-02, -4.6416e-02, 3.8754e-02, -3.6082e-02, 6.4670e-02, -2.4033e-03, 4.2254e-02, 3.1120e-02
-7.7896e-02, 4.2459e-02, -2.6822e-02, -3.6486e-02, -8.5672e-02, 9.6902e-03, 2.3215e-03, 3.8704e-01, -1.3559e-01, -2.3868e-01
-1.8154e-01, -3.2606e-02, -3.7188e-02, -5.8233e-02, -8.9358e-02, -2.5500e-02, 5.0874e-02, 4.8842e-01, -7.3217e-02, -4.1824e-01
-2.8142e-01, -6.8608e-02, -1.6531e-01, -3.3773e-01, -2.7824e-01, -3.0400e-01, -3.2486e-02, 1.6544e-01, -4.2357e-01, 7.8833e-02
-4.8395e-01, -1.0034e-01, -2.7499e-01, -5.6531e-01, -3.5155e-01, -5.2204e-01, -9.5005e-02, 9.7531e-04, -5.5769e-01, 2.6390e-01
-4.7242e-01, 2.2236e-02, -1.9094e-01, -7.1682e-01, -3.7641e-01, -6.8748e-01, -5.7552e-02, 1.8078e-01, -6.0526e-01, 1.1654e-01
-5.0504e-01, -1.6218e-02, -3.3089e-01, -7.2368e-01, -5.9630e-01, -6.4664e-01, -7.6806e-02, 1.1072e-01, -7.8872e-01, 2.0185e-01
-8.2539e-01, -4.7152e-01, -5.8545e-01, -1.0428e+00, -6.1738e-01, -9.9302e-01, -1.3228e-01, 4.4080e-01, -3.8841e-01, 1.5947e-01
-6.3843e-01, -6.3736e-01, -7.4286e-01, -1.1156e+00, -5.5590e-01, -8.5580e-01, -1.4732e-01, 1.1904e-01, -8.1089e-01, 1.5248e-01
-7.9298e-01, -3.3342e-01, -6.2391e-01, -9.0265e-01, -6.4479e-01, -8.5088e-01, -2.6417e-01, 6.3334e-02, -5.8981e-01, 2.0837e-01
-6.2903e-01, -4.8228e-01, -7.5666e-01, -1.1284e+00, -9.9296e-01, -1.2017e+00, -3.6449e-01, 1.0016e+00, -5.4333e-01, -6.0903e-01
-8.9561e-01, -5.6668e-01, -1.0143e+00, -1.4229e+00, -8.8392e-01, -1.2822e+00, -6.2344e-01, 3.3394e-01, -1.2409e+00, 7.8692e-02
-7.8480e-01, -5.3284e-01, -7.6723e-01, -1.5966e+00, -6.1424e-01, -1.1993e+00, -1.5917e-01, 3.6008e-01, -6.2264e-01, 1.8548e-02
-6.4597e-01, -4.7140e-01, -7.0217e-01, -1.0094e+00, -6.8602e-01, -1.4954e+00, -1.2318e-01, 2.4893e-01, -1.3027e+00, -1.3252e-01
-6.5607e-01, -3.6084e-01, -6.9050e-01, -1.2672e+00, -8.3520e-01, -1.0992e+00, -3.0148e-01, 8.5472e-01, -1.2628e+00, -4.2955e-01
-5.7491e-01, -3.5898e-01, -3.9879e-01, -6.0672e-01, -8.3085e-01, -5.6332e-01, -3.1585e-01, 3.4003e-01, -6.3896e-01, 9.1505e-03
-4.1454e-01, -4.5966e-01, -3.4721e-01, -5.8320e-01, -5.3719e-01, -5.0028e-01, -2.7054e-01, 4.9180e-01, -6.7756e-01, -1.2054e-01
-3.6929e-01, -1.6861e-01, -4.4485e-01, -6.6033e-01, -6.7824e-01, -4.8706e-01, -2.5138e-01, 5.0495e-02, -3.6182e-01, -5.3035e-02
-4.5433e-01, -1.6965e-01, -5.5447e-01, -8.6537e-01, -3.5272e-01, -5.7068e-01, -2.8687e-01, 3.9291e-01, -7.2284e-01, -1.7319e-01
-4.1704e-01, -1.4735e-01, -3.3278e-01, -4.0526e-01, -4.9034e-01, -6.4061e-01, -3.9408e-01, 4.4288e-01, -5.1176e-01, -2.0079e-01
-3.7732e-01, -9.1805e-02, -2.6312e-01, -2.1534e-01, -4.6425e-01, -4.0587e-01, -1.5098e-01, 4.5083e-01, -3.1082e-01, -4.8172e-01
-4.8236e-02, -2.7562e-02, -8.7682e-03, -7.7865e-02, 3.5090e-02, 4.5980e-02, -4.0194e-02, 1.9130e-02, -4.3670e-03, 7.5251e-02
-5.5635e-02, -1.7132e-03, 2.5117e-02, 7.7827e-02, 1.4080e-02, 2.2356e-03, -6.0014e-02, -6.1779e-02, -2.0991e-02, 6.4512e-02
3.1406e-03, 4.8578e-02, -8.1475e-02, 7.0771e-02, 2.5514e-02, 7.2355e-02, -8.2210e-02, -7.6772e-02, 8.2576e-02, -7.7459e-02
-9.5705e-03, -2.1817e-02, -5.1526e-02, -5.7100e-02, 6.7319e-02, 2.2227e-02, 5.8101e-03, 6.7660e-03, -9.4456e-03, 5.5275e-02
