
#ifndef __NEURAL_NETWORK_H__
#define __NEURAL_NETWORK_H__

//CARATTERISTICHE DELL' IMMAGINE (DEI DATI IN GENERALE)
#define IMAGE_WIDTH     28
#define IMAGE_HEIGHT    28
#define FLATTEN_IMAGE   ((IMAGE_WIDTH * IMAGE_HEIGHT))
#define INPUT_SHAPE     FLATTEN_IMAGE
#define OUTPUT_SHAPE    10
#define BIAS            10
#define LABELS          OUTPUT_SHAPE
#define MNIST_MAX_VAL   255.0


PROGMEM const float weights_matrix[OUTPUT_SHAPE][INPUT_SHAPE] = { 0.671500, 0.624500, 0.219200, 0.825100, 0.591100, 0.303000, 0.042000, 0.962800, 0.884100, 0.713700, 
0.603500, 0.329200, 0.327100, 0.966000, 0.857600, 0.921800, 0.154900, 0.661800, 0.975200,
0.136300, 0.291200, 0.464300, 0.821000, 0.719200, 0.743900, 0.001400, 0.191800, 0.214800,
0.330500, 0.186000, 0.092300, 0.637300, 0.810600, 0.946800, 0.462400, 0.401688, 0.249767,
0.139555, 0.364356, 0.954624, 0.855436, 0.753978, 0.730203, 0.791618, 0.164766, 0.580248,
0.372245, 0.358915, 0.887064, 0.347610, 0.130881, 0.814700, 0.447500, 0.951900, 0.533900,
0.191400, 0.953300, 0.360900, 0.041400, 0.959751, 0.561127, 0.768899, 0.103851, 0.886888,
0.654154, 0.260124, 0.016463, 0.499738, -0.059373, 0.063443, -0.471151, -0.336922, 0.095990,
-0.285191, -0.165280, 0.730392, 0.268037, 0.364467, 0.194904, 0.217200, 0.358834, 0.962900,
0.668200, 0.806800, 0.914800, 0.837300, 0.633400, 0.617523, 0.188401, 0.411598, -0.328280,
-0.198893, 0.315519, 0.409575, 0.072309, 0.487978, -0.083438, 0.173124, -0.719394, -0.885563,
-0.524397, -0.269823, -0.310578, -0.051141, 0.266797, 0.100775, 0.245179, 0.440401, 0.858481,
0.366939, 0.315243, 0.164400, 0.332500, 0.991500, 0.606498, 0.243752, 0.401657, -0.175371,
-0.170712, -0.022211, 0.467506, 0.521672, 0.158853, 1.087474, 0.247031, -0.463682, -2.189337,
-1.748816, -1.799109, -1.221378, -1.620065, -1.544571, -0.198462, -0.482461, 0.338429, 0.354372,
0.190573, -0.354405, 0.707023, 0.763800, 0.400100, 0.058200, 0.563203, 0.702146, 0.446847,
-0.100319, -0.346651, -1.324099, -1.288666, -1.790270, -0.949946, -1.749751, -2.744217, -3.494957,
-3.929890, -5.462697, -5.036950, -4.154320, -4.255634, -2.762914, -2.515099, -1.714552, -0.181398, 
-0.705532, -0.073051, -0.167298, 0.431946, 0.849661, 0.486700, 0.863396, 0.264830, 0.510324,
0.492084, -0.294677, -0.970998, -2.054147, -2.896631, -4.927073, -4.953363, -4.751395, -5.594747,
-5.741006, -6.568719, -7.062342, -5.425584, -4.713528, -4.575436, -4.840731, -3.620646, -1.957650,
-0.049705, -0.559985, -1.026928, -0.541340, 0.061446, 0.138046, 0.539600, 0.593762, 0.677253,
-0.018072, -0.151320, 0.031797, -1.910918, -2.898216, -5.075251, -4.563562, -5.001807, -4.787095,
-5.855469, -5.923202, -7.824349, -7.229320, -6.581303, -4.056561, -3.864228, -4.746328, -5.269903,
-3.051649, -2.646536, -0.705307, -0.002225, -0.505993, -0.450129, 0.376242, 0.413816, 0.538821,
0.617112, 0.935420, 0.104439, -0.721641, -2.795252, -4.066586, -4.905035, -4.455083, -4.611801,
-4.824300, -5.160734, -7.704485, -8.148139, -8.551357, -6.021930, -5.059804, -5.289659, -6.839673,
-5.392612, -4.378959, -2.088407, -0.869098, 0.539326, -0.516483, 0.318176, 0.592345, 0.134900,
0.553061, 0.021508, 0.173544, 0.232091, -1.898892, -4.530799, -5.274059, -5.448555, -5.549466,
-5.286292, -6.884663, -7.943128, -8.748181, -11.012160, -12.146174, -9.061685, -7.064121, -7.691460,
-7.166513, -7.065890, -6.241396, -4.472274, -1.288581, 0.954158, -0.798577, -0.342558, 0.511830,
0.362600, 0.777853, 0.757986, 0.013728, -0.377445, -1.934758, -5.685411, -6.662241, -6.851991,
-6.582620, -7.456789, -6.266315, -7.730057, -10.236873, -12.768940, -13.617797, -11.097202, -8.188559,
-7.783157, -10.132449, -9.099989, -7.382077, -4.462877, -2.063856, -0.395350, -1.232828, -0.745032,
0.333763, 0.892400, 0.053310, 0.479280, -0.090566, -1.232957, -3.428203, -5.713009, -6.524526, 
-7.147439, -6.690793, -5.726833, -5.465226, -7.942680, -9.937605, -13.283900, -14.676886, -12.099166,
-9.192341, -10.076676, -10.991883, -10.224054, -7.366451, -5.934761, -3.848272, -1.204341, -1.184617,
-0.564520, 0.844405, 0.980400, 0.213339, 0.811079, -0.135035, -2.048239, -3.090122, -4.655001,
-6.799880, -7.767899, -7.542417, -5.754192, -5.580624, -6.281197, -8.016009, -10.489354, -10.794298,
-9.628817, -7.748744, -8.115280, -9.898582, -9.476026, -8.155659, -5.604664, -1.835697, 0.609274,
-0.133921, -0.091211, 0.777940, 0.930100, 0.145897, 0.272523, -0.526004, -0.896890, -4.106518,
-5.923984, -6.416368, -7.104185, -6.360710, -3.899377, -5.414061, -6.278452, -6.589907, -5.929728,
-7.522292, -6.109419, -6.718514, -7.927133, -8.433226, -8.621364, -7.757411, -4.526683, -2.460338,
-0.052988, 0.699528, 0.788764, 0.445794, 0.797698, 0.621895, 0.013504, -0.518152, -1.355428,
-3.483222, -5.562582, -6.058842, -7.101312, -5.021587, -5.366530, -4.122969, -2.804665, -1.846107, 
-3.986495, -5.975573, -6.415960, -6.018184, -8.438115, -8.936217, -7.507254, -5.803257, -4.619542,
-1.548905, -0.725959, 0.142863, 0.250468, 0.845283, 0.190199, 0.899999, 0.066084, -0.205988,
-0.293542, -3.387634, -6.492655, -6.077537, -6.829984, -6.681205, -4.433988, -3.722077, -1.576444,
-3.521270, -6.069264, -7.635612, -6.690514, -7.178189, -8.628172, -9.696115, -7.750245, -6.219735,
-5.215146, -2.205785, -1.036665, 0.468934, 0.662245, 0.790378, 0.218800, 0.684299, 0.266439,
-0.379892, -0.684231, -3.180044, -6.982672, -8.426544, -7.483552, -7.471409, -5.757191, -3.245798,
-4.500113, -7.092011, -7.558871, -8.573318, -6.826315, -6.450681, -8.627332, -9.482672, -8.035980,
-5.590912, -4.181096, -3.465729, -1.166422, -0.587200, 0.255685, 0.780036, 0.611000, 0.802816,
0.121181, 0.232112, -1.227550, -3.641340, -7.482063, -8.774031, -9.937052, -9.192279, -6.705393,
-6.900498, -8.266432, -9.615050, -10.003705, -9.472643, -7.915305, -7.382976, -8.670923, -9.125700,
-7.057149, -6.007285, -4.015167, -2.776377, -1.108335, 0.815612, 0.291561, 0.756588, 0.596586,
0.447979, 0.133397, -0.383513, -1.614935, -5.152572, -7.660909, -9.346965, -8.799360, -9.421716,
-7.881529, -9.343719, -10.517162, -10.511457, -9.866852, -9.230384, -7.482474, -7.553857, -8.281610,
-8.795643, -8.222751, -5.983975, -4.023235, -2.714427, -0.797136, 0.260652, 0.929978, 0.143130, 
0.293600, 1.000860, 0.542358, 0.365768, -1.319045, -4.056522, -6.182421, -9.086386, -8.228372,
-8.514728, -8.946656, -8.685838, -8.839802, -9.949244, -8.728071, -9.108068, -8.274328, -7.119654,
-7.306568, -8.653912, -6.299618, -4.680455, -3.322549, -2.343340, -0.271076, 0.312064, 0.119373,
0.861923, 0.881400, 0.775679, 0.486631, 0.248189, -0.775275, -2.118939, -4.771140, -7.097174,
-8.580222, -8.136549, -6.246619, -7.636876, -6.811056, -7.563746, -7.805452, -6.829051, -6.916733,
-6.886642, -7.088862, -7.857975, -6.367702, -4.921207, -2.663015, -2.670314, -0.843674, 0.451299,
0.111788, 0.379998, 0.184500, 0.872300, 0.567601, 0.133499, -0.615400, -1.809923, -3.699209,
-5.500931, -7.258916, -6.978500, -6.634027, -6.283348, -6.033932, -5.733850, -6.204086, -5.718041,
-5.819707, -6.457882, -6.036137, -6.757875, -4.761276, -3.677251, -1.884217, -0.834810, -0.690029,
0.286701, 0.699616, 0.283800, 0.171300, 0.446300, 0.611959, 0.553776, -0.677218, -0.734402,
-2.967762, -4.828906, -4.657573, -4.932765, -4.396174, -4.202501, -4.006016, -2.693782, -3.413134,
-3.311575, -4.368473, -4.937674, -5.318283, -3.760985, -4.129241, -2.629303, -0.922271, 0.017449,
0.074732, 0.478548, 0.368225, 0.660100, 0.099500, 0.067100, 0.579058, 0.783295, -0.326147, 
-0.302528, -0.262215, -1.711920, -1.808203, -1.543283, -1.286205, 0.287682, -0.967930, -0.917018,
-1.555862, -1.607284, -2.690648, -2.256504, -3.571579, -3.218078, -3.129325, -1.799162, -0.471062,
0.049979, -0.027410, 0.544982, 0.749070, 0.970400, 0.287000, 0.752100, 0.263830, 0.017862,
0.356471, 0.310748, -0.329661, -0.657028, -1.054209, -0.175908, -0.438390, 0.019576, 0.647355,
0.149504, -0.208929, -0.819131, -0.759210, -1.291753, -1.642110, -1.468104, -2.056597, -1.209519,
-0.254649, -0.216384, 0.252236, 0.835840, 0.996800, 0.770000, 0.486300, 0.381100, 0.375600,
0.408430, 0.764841, 0.209767, -0.238335, -0.280268, 0.075147, -0.307821, -1.112357, -0.584782,
-0.765412, 0.121074, -0.533739, -1.410909, -0.734718, -1.202178, -0.343391, -0.126757, -0.518668,
-0.980724, -0.312228, 0.417224, 0.231122, 0.071500, 0.400700, 0.303800, 0.542700, 0.032700,
0.709000, 0.028681, 0.411636, 0.078607, 0.049226, 0.121893, 0.905837, -0.095860, 0.227104,
0.299224, 0.727743, -0.036884, 0.124296, 0.630152, 0.016576, -0.237965, 0.412508, 0.022364,
0.498682, 0.124513, 0.472132, 0.040307, 0.166100, 0.644800, 0.286400, 0.113600, 0.716300, 
0.687100, 0.417400, 0.259000, 0.719800, 0.126395, 0.923173, 0.768462, 0.845661, 0.630489,
0.585770, 0.476966, 0.399241, 0.616147, 0.853711, 0.159839, 0.855075, -0.000344, 0.654367,
0.617174, 0.660198, 0.808307, -0.057578, 0.348851, 0.438000, 0.726500, 0.120600, 0.239400,
0.371300, 0.407000, 0.353000, 0.722800, 0.094100, 0.405700, 0.617000, 0.449100, 0.532100, 0.540200,
0.218000, 0.013600, 0.806499, 0.804297, 0.491300, 0.211000, 0.431100, 0.992300, 0.017200,
0.924300, 0.996200, 0.678600, 0.180500, 0.665800, 0.603200, 0.117900, 0.731800, 0.676400,
0.479700, 0.852500, 0.915800, 0.851000, 0.259500, 0.904100, 0.209100, 0.988849, 0.308999,
0.825431, 0.436974, 0.476113, -0.001541, 0.289853, 0.516635, 0.858504, 0.101427, 0.616759,
0.019044, 0.161731, 0.243999, 0.034311, 0.720120, 0.241000, 0.350200, 0.537100, 0.542000,
0.953400, 0.290200, 0.273900, 0.265000, 0.769900, 0.761600, 0.816098, 0.256181, 0.652937,
0.554020, 0.098138, 0.065614, -0.357650, 0.286971, 0.802958, 0.210954, 0.975764, 0.486631, 
0.270982, 0.453692, 0.453347, 0.820460, 0.741954, 0.534068, 0.129378, 0.426837, 0.894200,
0.006700, 0.777300, 0.431300, 0.548700, 0.389046, 0.362311, 0.457800, 0.625523, 0.111522,
0.759071, 0.024397, -0.215608, -0.280531, -0.298878, 0.342471, 0.288502, -1.381308, -0.282853,
-0.621844, -0.305931, -0.943760, -0.472586, -0.023305, 0.365641, -0.020302, 0.102620, -0.092704,
0.561476, -0.048106, 0.622200, 0.597700, 0.171500, 0.114140, 0.683501, 0.360794, -0.025856,
-0.225364, -0.163682, 0.180509, 0.189617, 0.570810, 0.134384, 0.254863, -0.620538, -2.088580,
-2.313190, -1.815070, -1.593274, -1.743398, -0.969204, -0.340781, -0.378958, -0.114592, -0.566218,
-0.471572, -0.207089, 0.446107, 0.696212, 0.315800, 0.342200, 0.033254, 0.579985, 0.516992,
0.400550, -0.261368, -1.060666, -2.253184, -2.671654, -1.583903, -2.375056, -2.787067, -3.651481,
-4.872886, -5.267663, -5.048320, -4.906483, -4.499358, -3.838305, -1.946879, -0.747799, 0.366845,
-0.198827, 0.070482, -0.732621, 0.065217, 0.759974, 0.931600, 0.474100, 0.178161, 0.891898,
0.965860, 0.110354, -2.041612, -2.299422, -4.053773, -4.758062, -4.421341, -4.209558, -5.872014,
-6.804345, -6.599253, -7.616933, -6.149773, -4.843333, -4.649037, -5.026224, -4.086177, -2.638201,
-1.306702, -0.115775, -0.016318, 0.089482, 0.762001, 0.796311, 0.603700, 0.697067, 0.152384, 
0.463619, 0.038988, -0.754703, -2.554409, -3.306635, -5.189648, -5.796829, -5.563947, -5.299851,
-4.720738, -6.866928, -7.641369, -8.047320, -6.033594, -5.166008, -4.972848, -5.149939, -4.545919,
-3.417315, -1.617514, -1.083196, -1.327105, -0.386515, 0.372044, 0.254857, 0.960300, 0.781485,
-0.034997, 0.531575, 0.279424, -0.891948, -2.308665, -3.599089, -5.591961, -5.227755, -4.509720,
-6.383673, -5.686756, -7.386891, -9.046572, -8.533535, -7.334705, -4.556991, -6.135591, -6.096515,
-6.424348, -5.324958, -2.988194, -2.356368, -1.533911, -0.633716, 0.471887, 0.142423, 0.432800,
0.464913, 0.341385, 0.353643, -0.277927, -2.331379, -3.674305, -4.668723, -5.720492, -6.558550,
-6.151722, -6.398688, -7.549101, -9.596553, -11.400020, -11.451610, -9.043868, -8.118145, -7.508605,
-9.010007, -7.438794, -5.798125, -3.906346, -2.534045, -1.370063, -0.253480, -0.024857, 0.448356,
0.872000, 0.139772, 0.567996, -0.035076, -0.407131, -2.858213, -5.636874, -6.163256, -6.363616,
-6.947406, -5.632709, -6.682115, -8.084126, -9.904539, -12.352872, -13.298097, -11.018682, -8.577759,
-9.191767, -9.411036, -9.390729, -6.895348, -6.206919, -4.012840, -2.203458, 0.147049, 0.561431,
0.035779, 0.730200, 0.589916, 0.370361, 0.187744, -0.611138, -3.341944, -6.240984, -7.165074,
-7.414006, -7.041049, -6.429650, -5.714292, -7.206452, -9.030336, -11.895328, -12.971571, -10.764674,
-9.347570, -9.378330, -11.876800, -10.699969, -8.941170, -6.089845, -3.455447, -2.372264, -0.979071,
-0.255911, 0.331786, 0.894900, 0.026676, 0.559973, 0.072419, -1.589484, -4.369480, -5.560168,
-7.080455, -8.092118, -7.293941, -5.430221, -6.093312, -6.586061, -8.435143, -9.152638, -9.704643,
-8.425870, -7.954258, -8.859324, -9.856530, -8.713791, -7.872599, -4.815593, -1.144235, -1.112477,
-0.304492, -0.019491, 0.435128, 0.614433, 0.229449, 0.063718, 0.023675, -0.818867, -3.737058, 
-5.182486, -7.254486, -7.924896, -5.730822, -5.147505, -5.992591, -5.600338, -5.008638, -4.352381, 
-6.048591, -5.814877, -5.843238, -8.171844, -9.197464, -7.576493, -6.754245, -5.104936, -2.631142,
-1.917489, -0.835049, -0.255633, 0.601409, 0.345300, 0.369412, 0.646928, 0.418965, -0.742903,
-3.650123, -5.337906, -6.822222, -6.577746, -6.813098, -5.715352, -5.014901, -3.298230, -2.426094, 
-2.018426, -4.470646, -5.473252, -6.787296, -9.314116, -8.811152, -7.835711, -6.563995, -4.949547,
-3.210242, -0.945518, -0.096772, 0.880512, 0.316078, 0.120700, 0.760600, 0.987996, 0.093487,
-0.904319, -3.744934, -5.737163, -6.324265, -7.234247, -7.511242, -6.112535, -3.751080, -1.415273,
-2.270878, -3.026992, -7.236006, -5.680890, -7.252617, -8.751204, -8.618123, -8.558970, -5.909763,
-5.007980, -2.489543, -0.924761, -0.194887, 0.184029, 0.962341, 0.196500, 0.114816, 0.961639, 
0.889170, -0.305937, -3.786184, -7.542236, -7.463610, -8.839828, -7.158940, -5.798692, -3.674775, 
-4.514276, -5.476027, -6.352688, -8.964401, -6.805519, -7.937751, -8.940106, -9.860610, -8.437925,
-6.331074, -4.464468, -2.771704, -1.333990, -0.541163, 0.337601, 0.860764, 0.935300, 0.824319,
0.457321, 0.669324, -1.041674, -4.581864, -7.698269, -9.559158, -9.316158, -9.434129, -7.125635,
-7.224348, -7.698277, -8.039894, -8.496418, -9.251038, -7.871790, -8.119229, -9.475289, -9.857672,
-8.050331, -5.684932, -4.196281, -3.167115, -1.497608, -0.524023, 0.378951, 0.553208, 0.891704,
0.840515, 0.050186, 0.333323, -1.834402, -5.344800, -8.353884, -9.965855, -9.179482, -9.459352,
-9.018915, -9.602480, -9.453938, -9.251585, -9.178206, -9.814149, -8.704631, -6.873102, -7.788978,
-8.714447, -7.411318, -5.389529, -4.949487, -2.790348, -1.335318, 0.340350, 0.957760, 0.060367,
0.303618, 0.986935, 0.606828, 0.697360, -1.147958, -4.694491, -6.698410, -8.572278, -9.737958,
-8.141432, -8.738300, -9.187335, -9.809515, -8.285967, -9.362763, -8.264662, -6.793863, -7.527921,
-7.986745, -7.590577, -6.413264, -5.314107, -3.750910, -1.815376, -0.359975, 0.712441, 0.436804,
0.672997, 0.117600, 0.581829, 0.709299, -0.105863, -1.164185, -3.380127, -4.957475, -6.979455,
-7.933621, -7.577466, -7.106905, -6.956983, -7.401932, -7.808823, -7.331439, -7.130757, -6.733876, 
-6.146151, -6.847013, -6.973821, -6.070716, -4.535068, -2.886010, -1.431535, 0.018508, 0.342348,
0.405514, 0.882279, 0.890020, 0.045606, 0.176243, 0.126339, -0.256590, -1.599702, -3.490513,
-5.561204, -6.953777, -7.224161, -6.172753, -6.777190, -6.138157, -5.961279, -5.633209, -5.017023,
-6.022649, -6.348685, -5.461191, -5.867281, -5.047068, -3.599893, -1.990674, -0.823944, 0.646400,
0.167308, 0.724975, 0.717700, 0.494919, 0.552508, 0.589997, 0.070095, -0.071231, 0.614266,
-2.088062, -4.005071, -5.087790, -4.462101, -4.818990, -4.513383, -4.800457, -4.330400, -3.751986,
-3.552471, -4.087804, -4.378097, -4.451532, -3.077547, -3.084278, -2.372166, -1.321869, 0.102310,
0.379730, 0.575705, 0.904528, 0.366600, 0.583100, 0.241000, 0.084295, 0.255315, -0.041713,
0.339971, -0.379299, -1.251757, -2.015257, -1.942540, -1.223417, -0.940258, 0.127823, -0.723151,
-1.518032, -1.227048, -2.388937, -2.032095, -3.328156, -2.082472, -2.598387, -1.611615, -0.731885, 
0.271826, 0.467560, 0.651119, 0.900036, 0.942600, 0.762500, 0.303700, 0.944400, 0.587088,
-0.039725, 0.451646, -0.293908, -0.383091, -1.229271, -0.377534, -0.889405, -0.336418, -0.059690,
-0.772338, -0.683603, -0.632212, -1.995000, -1.467637, -1.491917, -1.314269, -0.250749, -0.483254, 
0.031740, 0.884131, 0.558112, 0.220686, 0.494518, 0.826000, 0.756500, 0.885300, 0.403800,
-0.004060, 0.018425, -0.096909, 0.231244, -0.194756, -0.114496, 0.092911, -0.630856, -0.570622,
0.075870, 0.270379, -0.655203, -0.504208, -0.935942, -0.615000, -0.299556, -0.341118, 0.411888,
0.822963, 0.369739, 0.573174, 0.945303, 0.869500, 0.202300, 0.232400, 0.619100, 0.311100,
0.058400, 0.375485, 0.195009, 0.094546, 0.146766, 0.349519, 0.413959, 0.863777, 0.306309, 
0.477263, -0.155365, -0.366609, 0.554129, 0.231891, -0.000570, 0.769439, 0.733451, 0.128733, 
0.053298, 0.852131, 0.295850, 0.740004, 0.834400, 0.415400, 0.961800, 0.782100, 0.284900,
0.164100, 0.649800, 0.904000, 0.475200, 0.343311, 0.914746, 0.306789, 0.440764, 0.714850,
0.660234, 0.518009, 0.650385, 0.081204, 0.249510, 0.321255, 0.179003, 0.207010, 0.667878,
0.888090, 0.132967, 0.418431, 0.098481, 0.247547, 0.334600, 0.088700, 0.989800, 0.169100,
0.504100, 0.951600, 0.586400, 0.424200, 0.751000, 0.871400, 0.963500, 0.861400, 0.214900, 0.513600,
0.168300, 0.655800, 0.863160, 0.494069, 0.177608, 0.150000, 0.578000, 0.427700, 0.471300,
0.757100, 0.307300, 0.896000, 0.281700, 0.076000, 0.315800, 0.382900, 0.324100, 0.285700,
0.106800, 0.949100, 0.090000, 0.246100, 0.535900, 0.676399, 0.670209, 0.923112, 0.603720,
0.275008, 0.768917, 0.288872, 0.260286, 0.990820, 0.210524, 0.382576, 0.650040, 0.756705,
0.316911, 0.605531, 0.919920, 0.535247, 0.053150, 0.236900, 0.434500, 0.335200, 0.312900, 
0.385600, 0.353400, 0.272200, 0.671300, 0.460200, 0.221283, 0.396288, 0.705017, 0.416099,
0.374406, 0.798987, 0.654213, 1.013094, 1.524978, 0.412871, 0.061699, 0.219295, 1.208658,
0.407104, 0.620419, 0.660365, 1.027572, 0.133770, 0.243030, 0.722023, 0.768791, 0.606829,
0.646500, 0.656400, 0.453500, 0.594600, 0.041927, 0.806831, 0.865251, 0.331593, 0.373238,
0.974276, 0.739637, 1.360906, 1.133800, 1.087290, 0.501771, 0.384825, -0.739759, -0.587470,
-0.178529, -0.513222, -0.148092, 0.172091, -0.319883, 0.702033, 0.810537, 0.070644, 0.826698,
0.435356, 0.230923, 0.027900, 0.435800, 0.512900, 0.683755, 0.869883, 0.030939, 0.585108,
1.312271, 0.370766, 0.366203, 1.374684, 0.552416, 0.393313, 0.594696, -0.454877, -2.024644,
-2.286221, -1.635020, -1.363589, -2.133409, -1.262062, -0.690727, -1.051257, -0.553135, -1.012388, 
0.414035, 0.673784, 0.391581, 0.236923, 0.543600, 0.727300, 0.369887, 0.987344, 0.900516,
-0.497556, -0.556319, -0.667396, -1.435250, -1.818384, -1.177228, -1.241325, -2.128078, -3.612178,
-4.613920, -4.714886, -4.973377, -4.018205, -3.959747, -3.989727, -1.679123, -1.490479, -0.080263,
-0.680393, -0.611044, 0.878944, 0.207645, 0.535272, 0.576300, 0.691798, 0.082228, 0.163637,
0.627736, -0.300420, -0.340378, -2.040125, -3.816045, -4.422991, -4.478826, -5.295208, -5.055370,
-6.261093, -6.605785, -7.058702, -5.307037, -5.166612, -4.869270, -5.220162, -3.557465, -2.930216,
-1.699835, -1.262247, -0.291589, 0.756267, 0.729647, 0.323976, 0.946899, 0.943497, 1.101432,
0.232781, 0.545770, -0.939693, -1.262239, -3.441046, -3.670398, -5.302627, -5.156914, -4.798638,
-6.149914, -5.913514, -7.676346, -7.797665, -5.973005, -5.038939, -4.300191, -5.488776, -5.843583,
-3.032795, -0.848501, -2.988699, -1.459347, 0.136438, 0.728854, 0.224709, 0.169295, 0.168718,
0.788847, -0.011487, 0.645592, -0.561065, -2.570303, -4.122775, -4.314371, -4.545280, -4.324356, 
-4.679618, -5.933228, -7.586753, -8.791217, -8.901096, -6.904084, -5.418246, -6.293699, -6.031965,
-5.549907, -5.281862, -2.093498, -2.200446, -1.211947, -0.330932, 0.381575, 0.642009, 0.341700,
0.825725, 0.707903, 0.451179, 0.780715, -1.049230, -3.101377, -5.262954, -5.475275, -5.077547,
-5.823987, -7.290099, -7.162902, -9.691360, -11.380883, -11.398819, -9.125285, -7.435999, -7.467097, 
-8.198050, -7.561226, -5.805575, -4.347008, -1.796468, -1.064228, 0.237289, 0.771479, 0.338821,
0.705900, 0.306429, 0.466905, 0.453936, -1.100573, -1.767306, -4.400339, -6.119607, -6.640243,
-6.564711, -6.209273, -6.400048, -7.855008, -10.479107, -13.142616, -14.327376, -11.082896, -8.383816,
-9.380116, -9.896058, -9.277844, -7.622503, -6.228640, -3.698676, -2.011254, -0.078122, 0.402888,
0.536243, 0.280700, 0.408856, 0.473129, 0.528354, -1.672589, -3.051780, -5.050611, -7.544957,
-7.913163, -7.147468, -7.019368, -6.560756, -7.883775, -10.971399, -13.365257, -14.405022, -11.302222,
-9.172617, -9.099552, -10.699023, -10.764891, -8.319134, -6.206902, -3.222925, -1.911168, -0.489703,
0.461234, 0.088992, 0.884500, 0.139481, 0.343056, -0.380742, -2.473649, -5.477468, -8.786924,
-9.943633, -8.570839, -8.927806, -5.995289, -6.543834, -7.706010, -9.096807, -10.688079, -10.773419,
-9.647310, -8.465698, -8.734600, -9.944815, -8.964410, -8.451239, -5.015167, -2.908998, -0.051928,
0.509449, 0.374830, 0.868701, 0.742798, 0.478363, 0.713248, -0.232444, -2.807229, -6.799157,
-8.558789, -8.249423, -8.468943, -6.493735, -5.151562, -4.711156, -6.285091, -4.710091, -5.481267,
-6.668527, -5.850912, -6.779847, -7.969084, -9.067839, -8.557139, -7.135092, -4.846589, -1.969519,
-0.210446, 0.483472, 0.978243, 0.991407, 0.674100, 0.857707, 0.111132, -0.766496, -1.922379,
-4.695554, -5.526796, -5.834064, -6.830545, -6.015282, -5.011569, -4.527342, -3.662855, -2.085014, 
-2.524141, -5.354948, -5.398696, -6.847432, -8.287944, -8.566789, -8.057794, -7.527263, -4.960011,
-2.609963, -1.314611, 0.417381, 1.721280, 0.354717, 0.233500, 0.420710, 0.906271, -0.192811,
-0.958544, -2.541230, -4.913723, -7.656791, -7.038101, -6.105895, -5.268749, -2.969344, -2.109240,
-2.141488, -4.373363, -7.325969, -6.401700, -6.815181, -9.365924, -9.280543, -8.261414, -6.005656,
-5.465530, -3.433094, -0.224868, 0.838712, 1.784668, 1.225471, 0.619400, 0.386456, 0.497204,
0.791061, -1.130388, -3.815148, -5.949965, -8.177726, -8.217743, -7.489938, -5.663929, -3.642525,
-3.347864, -5.501370, -6.259476, -8.895393, -6.718609, -5.520516, -9.234405, -9.477501, -8.250194,
-5.468851, -3.590271, -2.646532, -0.412295, 2.680321, 1.759433, 1.165858, 0.331000, 0.013864,
1.201125, 0.772453, -1.225699, -4.091650, -7.615015, -9.037888, -9.445478, -9.276905, -6.455667, 
-6.366601, -8.216389, -8.186745, -9.168624, -8.802343, -7.556275, -7.686447, -8.266599, -9.523147,
-7.631048, -5.553400, -3.978070, -3.529506, -1.314201, 2.092440, 1.197328, 0.441948, 0.051151,
0.104370, 0.944785, -0.043015, -1.382774, -3.313745, -7.341514, -8.762136, -8.773058, -9.735926,
-8.375543, -9.752545, -8.765723, -8.890348, -9.522530, -9.351425, -7.764918, -6.892470, -8.240450,
-8.596538, -7.686017, -5.722949, -4.238893, -1.614081, 0.136880, 1.854878, 0.334350, 1.180977,
0.986655, 0.119748, 0.735172, -0.069760, -1.590094, -3.711847, -7.129981, -8.152208, -9.086335,
-7.946638, -8.050839, -8.478490, -9.405699, -8.276589, -8.922042, -7.898578, -7.930118, -6.434419,
-7.850500, -8.589847, -6.941056, -4.748983, -2.751982, -2.121655, 0.128687, 1.696197, 1.246280,
0.377588, 0.696000, 0.523817, 0.940656, 0.250130, -0.230610, -1.732277, -3.684075, -6.687036,
-7.799010, -7.167745, -7.143655, -6.448682, -7.122931, -7.377793, -7.859194, -6.471046, -6.910942, 
-6.983829, -6.723792, -6.949453, -5.503638, -4.486945, -2.836067, -0.862592, 0.392687, 0.948306,
0.183422, 0.630517, 0.152097, 0.451266, 0.915049, 0.478682, -0.062811, -2.357784, -4.061092,
-5.314166, -8.165075, -6.522416, -6.655041, -6.689889, -6.463066, -5.355111, -6.111070, -5.437761,
-5.836096, -5.079611, -6.290867, -5.068922, -5.175658, -4.266135, -1.599784, 0.145755, 0.713905,
0.964022, 0.560169, 0.394300, 0.967400, 0.546900, 0.228974, 0.682772, 0.793915, -0.742570,
-2.355139, -3.857887, -4.180156, -4.549951, -4.210945, -4.034811, -3.890926, -3.898451, -3.458973,
-3.752467, -4.586474, -5.093452, -4.298547, -3.762210, -3.404527, -2.313165, -0.883828, 0.939415, 
0.572083, 1.344230, 0.833744, 0.197200, 0.861000, 0.014200, 0.288602, 0.503502, 0.020316,
-0.175880, -0.164336, -1.198889, -2.199498, -1.427835, -1.372268, -0.650628, 0.161949, -1.205933,
-0.981924, -1.908015, -1.667786, -3.617913, -2.050454, -2.075215, -2.070034, -0.017838, 0.581685,
0.816476, 1.661426, 0.906379, 0.900649, 0.708600, 0.071400, 0.742900, 0.535093, 0.064255, 
0.136906, -0.133072, -1.603454, -0.578461, -1.172213, -0.755482, -0.990360, -0.070705, 0.384987,
-0.541358, 0.052125, -0.749178, -1.190464, -1.551874, -1.135888, -1.068816, -0.652965, -0.092236,
-0.044259, 1.029707, 2.143226, 0.691118, 1.057121, 0.388600, 0.317800, 0.845100, 0.097200,
-0.034789, 0.495868, 0.551751, 0.036217, -0.164731, -1.099866, -0.960501, -0.577591, -1.141574,
-0.233698, -0.546744, -0.357725, -0.448287, -0.867911, -1.172192, -1.519626, -0.523172, -0.283337,
0.053851, -0.130460, 0.082206, 0.149548, 0.858757, 0.625928, 0.031800, 0.399100, 0.085700,
0.420400, 0.352098, 0.930828, 0.152457, 0.374477, 0.512763, 0.420002, 0.221112, 0.487889,
0.033074, 0.105579, 0.343524, 0.091319, 0.333534, 0.259402, 0.085007, 0.048832, 0.605806, 
0.012230, 0.500516, 0.538421, 0.622942, 0.832600, 0.966400, 0.773700, 0.664000, 0.360300,
0.915100, 0.695800, 0.759400, 0.000900, 0.751500, 0.111599, 0.931798, 0.904299, 0.123399,
0.083916, 0.329994, 0.362326, 0.584977, 0.432848, 0.130585, 0.653996, 0.231388, 0.312560, 
0.075252, 0.900698, 0.613438, 0.335876, 0.943909, 0.780100, 0.538900, 0.202600, 0.247900, 
0.505300, 0.976300, 0.911900, 0.865600, 0.526700, 0.607700, 0.260300, 0.527600, 0.994400, 0.007100,
0.459400, 0.534000, 0.130500, 0.180600, 0.864600, 0.128200, 0.401200, 0.932900, 0.258800,
0.690400, 0.164400, 0.206600, 0.765800, 0.065800, 0.821200, 0.745400, 0.645300, 0.236500,
0.284300, 0.848000, 0.484400, 0.424900, 0.459500, 0.396300, 0.290500, 0.986200, 0.639300, 
0.186000, 0.513799, 0.633697, 0.193001, 0.608338, 0.166146, 0.321586, 0.788457, 0.667423,
0.086983, 0.190296, 0.235694, 0.980992, 0.880695, 0.400100, 0.187600, 0.281700, 0.101100,
0.008900, 0.027200, 0.746400, 0.880600, 0.946700, 0.594400, 0.365098, 0.371585, 0.052105,
0.747890, 0.279487, 0.613213, 0.320341, 0.239122, 0.260683, 0.917882, 0.263120, 0.053730,
-0.251389, 0.149376, 0.060508, 0.133484, 0.716594, 0.409074, 0.373503, 0.703132, 0.928200,
0.411200, 0.891200, 0.210000, 0.512300, 0.535300, 0.872400, 0.171841, 0.960493, 1.248985,
0.871566, 0.782327, 0.614429, 0.548816, 0.898158, 0.584420, -0.248304, -0.365483, -0.730459,
-1.145004, 0.068670, 0.012516, 0.207218, 0.976584, 0.445399, -0.051195, -0.118771, 0.870902,
0.379972, 0.142499, 0.250500, 0.308200, 0.188904, 0.783069, 0.239143, 0.735045, 1.313521,
0.916596, 0.126180, 0.702089, 0.241291, 1.027120, 0.976173, 0.616889, 0.171531, -1.974804, 
-1.458141, -1.799271, -1.331444, -1.129187, -1.395856, -0.921787, -0.451495, -0.405176, -1.249174,
0.458719, 0.868323, 0.082499, 0.056200, 0.249900, 0.860200, 0.310492, 0.766462, 0.802574,
0.312854, 0.263742, -0.460961, -1.387428, -1.398104, -0.909331, -1.427181, -2.430240, -3.527233,
-4.398655, -5.487209, -4.195067, -4.567478, -4.153625, -2.863666, -1.842508, -0.759971, -0.307390,
-0.988465, -0.063637, 0.925464, 0.388933, 0.900595, 0.449900, 0.482048, 0.653665, 0.751801,
0.733600, 0.186885, -1.405329, -2.270687, -3.138182, -4.243493, -4.800639, -4.686687, -5.181091,
-5.389502, -6.762461, -6.848647, -5.561405, -4.944747, -4.155950, -5.806002, -3.626118, -2.546035,
-1.275794, -0.000511, 0.047140, 0.322218, 0.250340, 0.110019, 0.375079, 0.548190, 0.363720,
0.799763, 0.861673, 0.222419, -1.707045, -3.237357, -4.303918, -4.803812, -4.826622, -5.518562, 
-5.062967, -7.037122, -6.952543, -7.503451, -6.068828, -4.022194, -4.565290, -5.042761, -4.476859,
-4.154064, -1.441053, -1.224695, -0.700006, 0.429708, 0.797671, 0.136117, 0.003683, 0.655975,
0.823376, -0.127330, 0.975462, -0.924728, -2.335041, -3.548205, -4.961867, -4.860301, -4.072452,
-5.002710, -5.535009, -6.935093, -8.881497, -8.741652, -6.360076, -5.589077, -4.934706, -6.399372, 
-6.126575, -4.533442, -2.025327, -2.263397, -0.346608, 0.230765, 0.307157, 0.132386, 0.911656,
0.713754, 1.117861, 0.682796, 1.510939, -1.387173, -2.911755, -4.681159, -4.905836, -5.003088,
-6.372420, -7.407731, -7.974825, -9.549725, -11.241295, -11.029493, -8.851628, -7.253512, -7.998405,
-7.520780, -7.143127, -5.781969, -3.439829, -2.213100, -0.938518, 0.690995, 0.024765, 0.148593,
0.060300, 0.957171, 0.372847, 0.964756, -0.352731, -2.718595, -4.902632, -6.369359, -7.138669,
-7.699414, -6.711042, -7.178044, -8.906831, -10.084327, -13.003884, -14.447533, -11.012394, -8.625796,
-8.867190, -9.811242, -8.646028, -7.657743, -5.181352, -3.183419, -1.486142, 0.298096, 0.950888,
0.385477, 0.847200, -0.005343, 0.200577, 1.101594, -0.431709, -4.276189, -6.432405, -7.992955,
-7.618280, -6.856437, -6.743405, -5.619336, -6.781504, -9.467916, -12.301270, -13.614537, -11.522166,
-8.379918, -9.316427, -10.988369, -9.896669, -8.749430, -5.998796, -3.406633, -2.166929, 0.081081,
0.496843, 0.982997, 0.300900, 0.115534, -0.061042, -0.251151, -2.051674, -4.875810, -6.245595,
-7.175660, -8.706914, -7.102084, -5.004704, -5.077413, -6.644880, -8.615600, -9.162122, -10.114394, 
-8.399630, -8.002812, -8.059830, -10.284690, -9.581008, -9.386401, -5.796950, -2.494407, -0.677029,
0.231569, 0.054682, 0.624291, 0.950099, 0.197747, 0.205917, 0.465630, -1.779187, -3.264774,
-6.125123, -7.132468, -8.217293, -6.371960, -4.563558, -5.777962, -5.990515, -4.755266, -5.497244,
-6.216501, -6.064814, -6.502432, -7.547591, -8.547205, -8.532709, -7.799308, -6.470511, -2.923124,
-1.083706, 0.703464, 0.216116, 0.502291, 0.687762, 0.943233, 0.789789, 0.962453, -1.424849,
-4.351263, -5.688920, -7.378422, -6.910782, -5.720343, -5.830672, -4.264143, -3.226044, -2.042247,
-2.179480, -4.693680, -5.685074, -5.850221, -8.572652, -9.278850, -8.877663, -6.443237, -5.107989,
-3.221900, -1.650970, 0.268013, 0.492823, 0.312712, 0.411336, 0.505912, 0.597785, 0.492858,
-1.242089, -4.602538, -5.922553, -7.683516, -7.796741, -6.630612, -5.901629, -2.920481, -2.213609,
-2.544337, -4.594751, -6.960123, -6.485090, -6.918901, -9.233747, -9.312030, -7.108228, -6.337088,
-4.294281, -1.706227, -0.911554, 0.383896, 1.142774, 0.948375, 0.336200, 0.205151, 1.265640,
0.200838, -0.985973, -3.764070, -6.928431, -8.436825, -8.194534, -7.533223, -5.830372, -3.548606,
-3.782635, -4.922372, -7.027901, -8.750026, -7.466809, -6.801767, -8.434121, -9.112882, -7.976308,
-5.702639, -3.988441, -2.541193, -0.299560, 0.330573, 0.358360, 0.946869, 0.296500, 1.011813,
0.751821, 0.708391, -0.516213, -5.079531, -7.640963, -9.733177, -10.600223, -10.528831, -8.344954,
-7.780560, -8.767706, -8.976167, -9.754413, -10.023739, -6.842724, -6.664590, -8.942963, -8.322895,
-7.721282, -5.251558, -3.609835, -3.112451, -1.621203, -0.439439, 0.393410, 0.502777, 0.837576,
0.494874, 0.124898, 0.787657, -0.503540, -4.563646, -7.272842, -9.168852, -8.769846, -10.033078,
-9.421629, -10.159808, -11.383632, -9.973672, -9.551260, -8.971848, -7.813948, -7.175594, -8.046368, 
-8.582154, -8.027829, -5.095312, -3.988048, -2.135873, -2.529448, 0.387212, 0.622407, 0.126884,
0.843600, 0.118777, 0.214510, 1.193948, -1.156735, -3.806347, -6.687636, -9.639608, -8.941609,
-8.885284, -8.259441, -8.680488, -9.105250, -8.939820, -9.178184, -8.624437, -7.626439, -6.738845,
-7.237031, -8.145473, -7.006658, -4.533338, -3.683317, -1.463183, -0.275285, 0.139908, 0.609885,
0.478317, 0.734200, 0.929780, 0.692257, 1.183298, -0.579920, -1.950902, -3.395416, -6.900812,
-8.192927, -7.092547, -7.482400, -7.592755, -8.096586, -7.983806, -7.777827, -6.747515, -6.906270,
-6.316310, -6.540098, -7.301439, -5.395730, -4.667074, -3.220303, -1.401866, 0.021411, 0.323170,
0.763692, 0.728000, 0.673700, 0.033404, 0.568580, 1.147342, 0.060572, -2.426463, -4.014782,
-5.812294, -6.777821, -7.829377, -6.749451, -7.223981, -6.126804, -5.571630, -6.016916, -5.142495,
-5.903626, -6.497683, -5.802560, -5.104535, -5.744497, -4.276014, -2.153624, -0.803440, 0.266745,
0.433704, 0.383680, 0.015600, 0.899600, 0.160204, 1.114792, 0.975749, 0.070174, -0.930898,
-2.495920, -3.795574, -4.993660, -5.001443, -4.343089, -3.746381, -4.506922, -3.696829, -3.799258,
-3.543545, -4.563229, -4.351617, -5.698162, -3.376911, -3.696231, -2.593298, -1.257130, 0.293526,
0.079713, 0.245213, 0.338594, 0.270600, 0.433000, 0.720900, 0.651144, 1.556926, 1.424033,
0.408764, -0.594254, -1.283428, -2.142599, -1.648013, -1.194931, -0.576437, -0.708226, -0.212491,
-1.751886, -1.081463, -2.667022, -2.866544, -2.195427, -2.689585, -2.083143, -2.157553, -1.004396,
-0.627611, 0.873998, 0.188264, 0.895353, 0.435000, 0.262400, 0.076700, 0.781580, 1.272110,
1.619249, 0.872568, 0.318009, 0.375757, -0.665907, -0.362666, -0.153276, 0.660151, 0.302625,
0.036507, 0.333335, -0.973167, -0.850128, -1.334801, -1.708502, -1.825132, -1.436821, -0.034711,
0.219906, 0.039605, 0.179466, 0.667335, 0.208897, 0.877000, 0.007400, 0.955300, 0.316929,
-0.197684, 0.324512, 0.930324, 1.379803, 1.367948, 2.471269, 1.602221, 1.736233, 1.038838,
2.093080, 1.309582, 0.566845, 1.059461, 1.123720, 0.042077, 0.865812, 1.125798, -0.157613,
0.126527, 0.064446, 0.120902, 0.722387, 0.755693, 0.182200, 0.688000, 0.434500, 0.391100,
0.565000, 0.077168, 0.376277, 0.631218, 1.192763, 0.290342, 0.789717, 0.280830, -0.345765,
0.035944, 0.379666, 1.185023, 1.010342, 1.060002, 0.537270, 0.788446, 0.840960, 0.682823,
0.726518, 0.744017, 0.028178, 0.351503, 0.611300, 0.994600, 0.521300, 0.969100, 0.750300,
0.338700, 0.292300, 0.820100, 0.729900, 0.857291, 0.897236, 0.075993, 0.368857, 0.878660,
0.088943, 0.804936, 0.096100, 0.823189, 0.483266, 0.832684, 0.263618, 0.073258, 0.458421,
0.291426, 0.294134, 0.811876, 0.950387, 0.624699, 0.561700, 0.611400, 0.976500, 0.808200,
0.606000, 0.133100, 0.777300, 0.991600, 0.471800, 0.069600, 0.811700, 0.201700, 0.562200, 0.709000,
0.913300, 0.567100, 0.222542, 0.636163, 0.372500, 0.321200, 0.113100, 0.529100, 0.170900,
0.385900, 0.609100, 0.322500, 0.341000, 0.538600, 0.134400, 0.291500, 0.163300, 0.696100, 
0.538100, 0.139900, 0.139600, 0.779400, 0.908197, 0.551232, 0.594486, -0.354042, -0.137922,
0.127726, 0.198135, 0.687191, 0.221813, 0.564729, -0.223991, 0.246983, -0.171701, 0.243786, 
0.737355, 0.415204, 0.826101, 0.407149, 0.338120, 0.113100, 0.870900, 0.879500, 0.706000,
0.005400, 0.806200, 0.869400, 0.336700, 0.287411, 0.624850, 0.108283, 0.592349, -0.300967,
0.041016, -0.203483, -0.354382, 0.561081, -0.241827, -0.576239, -0.287866, -0.313274, -0.008740, 
0.361530, -0.256572, 0.009601, 0.548423, 0.429461, -0.016755, 0.156915, 0.918634, 0.915255,
0.516400, 0.798200, 0.795600, 0.857700, 0.438800, 0.436446, 0.667744, 0.394684, 0.198287,
-0.764872, -0.884874, -0.698771, -0.046925, -0.428069, -1.271785, -2.997889, -1.847957, -1.949308,
-1.604152, -1.001638, -0.431093, -0.230398, -0.552431, 0.332350, 0.638704, 0.871562, 0.147584,
0.147211, 0.288477, 0.046900, 0.698700, 0.440100, 0.480295, 0.128670, 0.394603, 0.865418,
-0.100741, -0.072328, -0.526711, -0.422720, -0.375523, -0.142591, 0.228156, -1.078552, -2.625432,
-2.282052, -2.023869, -1.819494, -1.402372, -0.716150, -0.348906, 0.635728, 0.763951, 1.306909,
1.071559, 0.203039, 0.449646, 0.806036, 0.350200, 0.815000, 0.504440, 0.074438, 0.372069,
0.481640, -0.497306, -0.686593, -1.514258, -1.337756, -1.559590, -1.755792, -2.044707, -4.537850,
-4.509344, -5.124458, -4.918067, -3.830114, -4.449574, -2.591886, -1.922343, -1.019093, -0.651395,
0.445516, 0.276796, 0.720132, 0.147332, 0.004526, 0.431600, 0.809300, 0.457642, 0.385409,
0.254319, 0.795936, -1.401182, -1.975716, -2.757812, -4.056208, -5.347187, -5.145522, -5.548865, 
-6.417995, -7.068194, -7.810081, -6.686071, -4.892905, -5.616473, -4.986150, -4.313665, -2.842198,
-0.914160, 0.962503, -0.248924, 0.770738, 1.075590, 0.392681, 0.727100, 0.876470, 0.031250,
0.283406, 0.294896, -0.027099, -2.218135, -3.328561, -4.753537, -4.989309, -5.374852, -5.033010,
-6.203462, -7.047469, -8.259869, -7.558403, -6.194357, -4.119978, -4.654560, -5.073106, -4.783329,
-3.308760, -1.315543, -0.848635, -0.112151, 0.157957, 1.555436, 0.198761, 0.509716, 0.872959, 
0.406472, 0.561930, 0.159827, -0.412423, -2.034380, -3.105517, -4.712493, -3.660661, -4.846057,
-4.896702, -5.940068, -7.649611, -9.444723, -8.883225, -7.576880, -5.386568, -5.675987, -6.780128,
-6.038282, -3.961996, -3.813558, -1.254345, 0.005210, 1.836137, 0.759125, 0.381396, 0.431548,
0.132133, 0.412269, 0.163002, -0.194428, -1.247530, -3.995881, -5.247107, -5.683367, -5.460689,
-6.178893, -6.481518, -7.787021, -9.700788, -12.150792, -11.917682, -9.113840, -7.413409, -7.872299,
-7.623137, -7.112544, -6.338344, -3.759384, -1.122068, -0.216476, 0.462753, 0.343087, 0.719745,
0.786475, 0.448187, 0.738558, -0.131566, -0.371786, -3.596662, -5.435063, -6.018917, -6.451372, 
-6.034983, -6.798370, -6.316858, -7.311827, -10.201870, -13.879232, -14.007869, -11.553813, -8.631580, 
-8.704069, -9.788033, -9.285306, -6.846906, -5.096671, -4.027098, -1.723969, -0.514625, -0.160088,
0.402931, 0.914543, 0.034919, -0.017353, -0.681187, -1.022633, -3.254559, -5.908061, -7.146705,
-6.971941, -6.155967, -5.402458, -5.798979, -6.540274, -11.323641, -14.220673, -13.076129, -10.796762,
-8.328300, -9.457521, -11.380141, -10.259381, -9.229312, -6.510948, -3.966864, -2.644083, -1.462181,
0.417064, 0.013266, 0.961500, 0.315543, -0.300752, -1.120284, -2.361763, -4.131299, -5.317313,
-6.219369, -7.287332, -6.881936, -4.559225, -4.505072, -5.178283, -8.435122, -10.712091, -9.889920,
-8.116694, -7.699749, -8.240227, -9.569192, -9.327372, -7.501669, -5.729905, -2.431765, -0.133064,
-0.366800, -0.169077, 0.232568, 0.592700, 0.797391, 0.006429, -1.526576, -2.216367, -3.771933,
-5.533058, -6.739511, -7.176100, -5.972143, -3.654108, -4.820772, -5.369118, -6.237676, -5.631104,
-5.550916, -6.121417, -6.432493, -7.222862, -8.517840, -8.017238, -6.094980, -4.700339, -3.034129,
-1.947956, -0.128142, -0.890085, -0.143964, 0.849973, 0.295344, 0.117536, -0.387624, 0.313201,
-2.378231, -5.597292, -6.634574, -6.860735, -5.832978, -5.220738, -3.934396, -2.864014, -2.454289,
-2.700918, -4.600539, -4.694120, -5.140563, -8.551453, -7.534706, -7.999819, -6.752697, -4.468065,
-3.314139, -1.720172, -0.551579, 0.087570, 0.452062, 0.458291, 0.332152, 0.615034, 0.413879, 
-0.637433, -3.270688, -5.579713, -6.380626, -6.868272, -5.731903, -4.945317, -2.489740, -2.364185,
-3.104501, -4.245995, -6.963636, -5.901688, -5.836007, -8.559212, -9.055276, -8.626108, -6.854876,
-3.277973, -2.847965, -3.317000, -0.917365, 0.330298, 0.686198, 0.590496, 0.181400, 0.810963,
-0.598566, -2.545000, -4.322057, -7.013377, -7.442814, -8.006893, -7.578022, -5.350112, -4.210191,
-4.044178, -5.666298, -7.119365, -7.615014, -6.350219, -6.502597, -9.060550, -8.914078, -7.315426,
-4.687263, -4.229850, -2.860564, -2.273638, -0.565283, -0.320285, 0.311143, 0.722500, 0.084099,
0.656945, -0.793126, -1.540745, -4.726834, -7.964426, -9.231620, -9.651301, -8.927049, -7.821517,
-6.780866, -8.365403, -8.049756, -8.652031, -9.056187, -6.964845, -6.419515, -8.214728, -9.711822,
-8.366366, -5.493536, -4.411813, -3.283073, -2.287958, -0.527686, -0.506786, 0.694617, 0.342253,
0.288500, 0.655448, -0.174169, -1.627533, -4.626704, -7.615282, -9.402954, -9.319678, -9.080133,
-9.290870, -9.861760, -9.789930, -8.926162, -9.792909, -9.021149, -7.565269, -8.062566, -8.774126,
-8.478577, -7.535653, -5.827886, -5.234304, -2.618864, -0.890248, -0.549205, 0.031287, 0.763696,
0.801200, 0.635311, 0.261568, 1.123028, -1.937106, -3.728832, -6.209083, -8.629889, -9.603930, 
-9.781666, -8.861204, -8.943843, -10.389567, -8.869555, -8.018924, -8.923204, -8.289509, -7.369584,
-7.602551, -8.511718, -7.563000, -5.088837, -4.899202, -2.867929, -0.744818, 0.508070, 0.590992,
0.487099, 0.736100, 0.282999, 0.970492, -0.005034, -0.698571, -3.880172, -5.509025, -7.844691,
-9.118670, -8.343460, -8.316352, -8.112577, -7.812575, -8.518535, -7.870567, -6.635715, -6.106973,
-6.373647, -7.344522, -7.409311, -6.793538, -4.145496, -3.664182, -2.232555, -0.216568, 0.567839,
0.580888, 0.816600, 0.523600, 0.807800, 0.940292, 0.504597, -0.147960, -2.346836, -4.589927,
-6.787766, -6.575714, -6.781574, -7.221699, -6.819858, -6.037969, -6.401926, -6.262022, -5.526425,
-6.593565, -6.146394, -6.944291, -6.150305, -4.949025, -3.657139, -1.484679, -0.650275, 0.134856, 
-0.119778, 0.032640, 0.003400, 0.474500, 0.615400, 0.819641, 0.421972, -0.039289, -1.065920,
-2.706298, -4.285356, -5.949369, -4.933532, -4.834661, -4.865624, -4.743783, -3.584966, -4.158586,
-3.674524, -4.717266, -4.716151, -5.055370, -3.825795, -4.048207, -2.635487, -1.372438, -0.275621,
-0.305610, 0.612883, 0.316700, 0.888900, 0.915500, 0.347500, 0.892248, 0.343019, 0.339882,
-0.057217, -0.833510, -1.788397, -2.322869, -1.929444, -1.724384, -0.540413, -0.862772, -0.972899,
-1.196029, -1.879282, -2.365414, -2.886457, -2.921199, -2.486075, -2.583617, -1.475609, -1.230179,
-0.443852, -0.040350, -0.032433, 0.154862, 0.119400, 0.872000, 0.099400, 0.643600, 0.422646,
-0.039392, 0.071451, 0.137951, -0.374273, -0.784060, -0.416773, -0.398844, 0.311812, -0.094781,
-0.290646, -1.067116, -0.960861, -1.158137, -2.121880, -1.152001, -1.307332, -0.870932, -0.429002,
0.732327, 0.594890, 0.271908, 0.449402, 0.390374, 0.239100, 0.014900, 0.176700, 0.993748, 
0.522099, 0.868985, 0.083834, -0.324787, -0.055517, 0.479997, 0.136188, 0.275746, 0.924557,
0.135007, 0.398903, 0.789210, 0.687393, 0.159225, -0.205352, 0.067948, -0.703376, 0.331771,
-0.368752, -0.013440, -0.389785, -0.151720, 0.917324, 0.745773, 0.598500, 0.932500, 0.771400,
0.837600, 0.947290, 0.561213, 0.511304, -0.285647, 0.032565, -0.030074, 0.079277, -0.420079,
-0.379378, 0.269714, -0.340654, -0.586425, -0.530994, -0.850123, -0.642890, -0.547447, -0.312558,
0.187908, 0.001308, 0.213037, 0.110615, 0.449919, 0.035100, 0.009300, 0.310300, 0.589100,
0.755100, 0.908800, 0.521600, 0.161700, 0.381684, 0.065032, 0.522503, 0.639170, 0.158192,
0.753430, 0.527365, 0.349745, 0.829727, 0.009766, 0.553205, -0.155358, 0.093327, 0.313422,
0.127311, -0.016851, -0.178457, 0.523099, 0.565314, 0.671200, 0.444000, 0.844100, 0.135600,
0.114300, 0.853400, 0.445900, 0.703400, 0.243700, 0.990000, 0.860300, 0.405400, 0.006900, 0.964500,
0.785700, 0.490400, 0.808700, 0.295898, 0.078000, 0.337600, 0.294100, 0.483800, 0.214500,
0.359600, 0.305500, 0.209200, 0.138100, 0.307000, 0.020000, 0.688400, 0.919800, 0.691200,
0.132400, 0.399100, 0.826800, 0.246700, 0.887700, 0.908000, 0.585300, 0.131400, 0.533199, 
0.445599, 0.171993, 0.540095, 0.405019, 0.588389, 0.664392, 0.846488, 0.877044, 0.731034,
0.056732, 0.729212, 0.861279, 0.041091, 0.813000, 0.168400, 0.250600, 0.951100, 0.110600,
0.270600, 0.639500, 0.665600, 0.597000, 0.400483, 0.064697, 0.423900, 0.653800, 0.587568,
0.967018, 0.238520, 0.251443, 0.250499, 0.391017, 0.131886, -0.018144, 0.159658, 0.701609,
0.597411, 1.101161, 0.975689, 0.356947, 0.211971, 0.463618, 0.522546, 0.404609, 0.274499,
0.386800, 0.338400, 0.225600, 0.497400, 0.244200, 0.449497, 0.128532, 0.643600, 0.806494,
0.730128, 0.241649, -0.126505, -0.001758, -0.191090, 0.013585, -0.512386, -0.894251, -0.903887,
-0.484662, -0.370120, 0.095658, 0.358108, 0.674273, 1.097633, 1.372253, 0.722715, 0.564941, 
0.322706, 0.406458, 0.839500, 0.370400, 0.345398, 0.173825, 0.219024, 0.705142, -0.476239,
-0.111779, 0.680663, -1.017932, -0.304316, 0.158717, 1.009633, 0.660756, -1.024853, -2.330322,
-1.571288, -1.743732, -1.455381, -1.252265, -0.909246, -1.591610, 0.342315, 0.236995, 0.095202,
1.544842, 1.067196, 0.993543, 0.049388, 0.257700, 0.796200, 0.887533, 0.421129, -0.586473, 
-0.851439, -0.759607, -0.900217, -1.510159, -1.753387, -0.887262, -1.592598, -2.760255, -3.871341,
-4.210197, -6.263170, -4.318935, -4.139230, -3.958580, -3.600595, -0.970863, -1.059863, 0.334419,
0.213856, 0.023526, 1.140749, 0.730779, 0.520120, 0.691400, 0.171296, 0.581669, 0.322450,
0.421670, -0.127147, -2.122555, -2.220826, -3.651096, -4.254671, -5.258475, -4.845651, -5.082042,
-6.104003, -6.453546, -6.868020, -6.044920, -4.583872, -5.098390, -4.201243, -3.526542, -3.149223,
-0.472575, -0.166042, 0.942593, 1.220311, 1.081191, 0.972547, 0.093300, 0.175932, 0.430211,
0.225244, -1.665092, -0.050615, -1.699192, -3.056534, -3.939681, -5.140192, -4.613025, -5.302465,
-5.540706, -7.110325, -7.371453, -7.887096, -5.917191, -4.447731, -4.018270, -5.563777, -5.148022,
-2.836039, -1.144891, -0.541949, 0.764508, 1.415698, 0.986834, 0.444872, 0.742600, 0.961669,
0.106476, -0.155924, -1.555028, -1.383425, -2.134759, -4.263490, -4.754000, -3.862162, -4.295764,
-4.710274, -5.645762, -7.342705, -9.298982, -8.841785, -6.314834, -5.319358, -5.323438, -6.023555,
-5.092237, -4.686373, -2.998820, -0.437893, 2.119732, 2.054106, 1.312920, 0.492075, 0.546000, 
0.165033, 0.443208, 0.248876, -0.552645, -1.885725, -3.059051, -5.653756, -5.274973, -5.813598, 
-6.202565, -6.457341, -7.427086, -9.466721, -12.051458, -12.469066, -9.961459, -7.647069, -8.299540, 
-7.816301, -7.226527, -4.940026, -2.855857, -1.224772, 2.342432, 1.636028, 0.836246, 0.916675,
0.118700, 0.401048, 0.191799, -0.337341, -0.430777, -2.494927, -6.027064, -5.496147, -6.007826,
-5.714647, -6.068766, -6.240100, -7.578504, -9.908004, -12.769434, -14.422688, -11.596379, -9.442707,
-9.428384, -11.141678, -9.913589, -7.354438, -4.279635, -1.951709, 2.729469, 3.549827, 1.489642,
0.377104, 0.885099, 0.864899, 0.341804, -1.401929, -0.861692, -3.718412, -5.721197, -6.829410, 
-7.208290, -6.467930, -6.071360, -5.575072, -7.053709, -9.132674, -12.236684, -14.415256, -11.308322,
-9.203182, -9.526780, -11.316861, -12.412457, -10.640419, -8.182080, -2.999065, -0.004994, 2.307230,
1.045852, 0.387414, 0.725800, 0.458300, 0.798944, -0.577082, -2.081008, -3.685476, -5.523523,
-6.918175, -7.788448, -7.537706, -4.663089, -4.894238, -6.296343, -8.333177, -9.982340, -9.880707,
-9.050104, -8.271379, -8.724916, -10.577684, -9.330995, -9.949454, -9.789232, -6.614151, -4.179074,
-1.112982, 0.529914, 0.476112, 0.279100, 0.458555, 0.863305, 0.201864, -1.061817, -3.582633,
-6.033055, -6.533977, -8.256334, -5.942539, -4.655697, -5.013161, -5.907156, -4.673165, -6.009714,
-6.415635, -6.640960, -6.815769, -7.781857, -8.134226, -7.881569, -6.339452, -4.175101, -4.719062,
-3.174719, -0.793557, 0.073282, 0.617021, 0.237988, 0.372997, 0.282623, -0.151032, -0.707187,
-3.941190, -5.424374, -6.745512, -6.773786, -5.751757, -5.116307, -4.070242, -3.473606, -2.177655, 
-2.250418, -4.801049, -5.854300, -6.016096, -8.754165, -9.475626, -8.071721, -7.174930, -4.255015, 
-2.593458, -1.206647, -0.746838, 0.813329, 0.828974, 0.656071, 0.753054, 0.241166, 0.165196,
-2.177736, -4.117131, -6.443415, -7.547566, -7.158219, -6.301573, -5.371247, -3.266031, -1.741676,
-2.884345, -4.890903, -7.633661, -6.425959, -7.063756, -8.363041, -8.884893, -7.893806, -6.239203,
-4.914139, -3.330761, -0.696567, -0.183827, 0.496202, 0.765193, 0.801422, 0.460035, 0.163626,
-0.152087, -2.272841, -4.218410, -7.609020, -8.647605, -8.421545, -8.485921, -5.284910, -3.971116,
-3.823875, -5.591677, -7.329957, -8.263838, -7.362598, -6.259205, -9.613171, -9.278262, -7.646999,
-6.099952, -3.718716, -2.910611, -1.548788, 0.469766, -0.494042, -0.189948, 0.113600, 0.210112,
0.335894, 0.547109, -1.015250, -3.578771, -6.680444, -9.976970, -9.927352, -10.047349, -7.452261, 
-7.321444, -8.549504, -9.307432, -9.771231, -9.380578, -7.198407, -6.954662, -8.249668, -9.204687,
-8.022791, -5.266408, -4.401351, -3.092323, -1.937450, 0.069311, 0.729424, 0.345378, 0.242396,
0.536356, 0.442545, 0.114326, -0.437744, -4.812803, -7.439998, -9.184038, -9.423191, -10.245748,
-9.294586, -9.796538, -10.453200, -9.208016, -9.313764, -9.029709, -7.949959, -6.989688, -8.415038,
-8.155872, -7.907525, -5.722511, -3.977061, -2.565443, -1.063528, 0.032412, 0.200873, 0.944925,
0.652900, 0.127660, 0.700886, 1.113707, -0.654237, -3.389267, -6.352067, -8.565380, -8.400291,
-8.088871, -8.608203, -8.880602, -8.944592, -9.112638, -8.986575, -8.507857, -8.092877, -7.163375,
-7.457789, -8.607224, -7.080590, -4.463223, -3.663819, -0.927107, 0.436987, 0.636601, 0.502307,
0.411593, 0.035100, 0.964041, 0.351652, 0.311678, -1.497013, -2.224365, -4.350436, -7.533256,
-8.264938, -7.807386, -7.050422, -7.100475, -7.563466, -7.767769, -7.758379, -6.969264, -6.352060,
-6.369543, -7.077844, -6.605606, -5.906266, -4.893745, -2.697806, -1.572741, 0.019295, 0.232048,
0.334570, 0.952114, 0.560100, 0.113153, 0.275789, 0.600309, 0.629728, -2.087303, -3.589500,
-5.601164, -6.644255, -7.240041, -6.562532, -6.994503, -6.050459, -5.450135, -5.739913, -4.835933,
-6.370610, -5.799911, -6.033439, -6.165521, -4.757867, -3.709483, -1.235098, -1.013235, 0.438387,
0.981834, 0.175173, 0.361500, 0.652600, 0.554200, 0.932229, 0.340933, 0.725303, -1.112655, 
-3.171256, -4.183270, -5.155418, -4.650449, -4.507225, -4.241617, -3.834096, -3.805817, -3.242179,
-3.859521, -3.930559, -5.063806, -4.816298, -3.554606, -4.076264, -2.606560, -0.828201, 0.856472,
0.227466, 0.612740, 0.623640, 0.009800, 0.162200, 0.797400, 0.371668, 1.107528, 0.921284,
0.296453, -1.024890, -1.781699, -1.528594, -2.137850, -0.895562, -0.383222, -0.340222, -0.815565,
-0.892536, -1.562990, -2.355435, -2.526595, -3.308045, -3.187681, -1.831903, -1.963796, 0.000615,
0.307723, 0.857629, 0.179849, 0.837569, 0.938600, 0.552300, 0.461500, 0.583373, 1.199105,
0.408029, 1.020751, 0.071053, -0.323363, -0.327116, -0.029354, -0.815423, 0.379043, 0.200130, 
0.130863, -0.062437, -0.017198, -1.338894, -1.254667, -0.220351, -1.452421, -0.433575, -0.794728,
1.393299, 0.347992, 0.487480, 0.293166, 0.518558, 0.099700, 0.659100, 0.357200, 0.673600, 
0.706311, 1.375136, 0.640331, 1.057487, 1.292502, 0.741211, 1.233035, 1.023455, 1.208133,
1.752706, 1.243686, 0.491280, 1.333186, 1.289464, 0.575163, 1.063951, 0.413218, 0.299874,
0.899583, 0.999248, 1.438215, 1.008829, 0.327300, 0.058800, 0.974600, 0.711800, 0.213300,
0.074300, 0.006098, 0.567340, 0.378385, 0.576246, -0.256078, 0.104150, 0.127919, 0.649313,
1.142697, 0.472877, 1.304192, 0.995355, 0.418996, 0.944647, 0.555971, 0.346181, -0.179283,
0.097426, 1.032258, 0.342837, 0.940630, 0.551797, 0.610300, 0.423300, 0.194600, 0.572800,
0.482100, 0.804400, 0.919800, 0.330599, 0.878770, 0.925968, 0.536285, 0.895737, 0.776243,
0.574314, 0.837874, 0.491634, 0.573567, 0.560002, 0.869313, 0.532953, 0.345761, 0.710162,
0.520601, 0.236460, 0.630878, 0.315700, 0.270295, 0.138000, 0.560100, 0.208700, 0.689800,
0.170500, 0.632000, 0.519700, 0.378500, 0.749400, 0.324100, 0.298400, 0.080000, 0.838100, 0.224400,
0.616400, 0.370500, 0.650828, 0.839612, 0.178399, 0.101800, 0.016100, 0.379800, 0.610600,
0.551100, 0.366600, 0.988400, 0.722300, 0.611400, 0.262100, 0.039500, 0.881700, 0.400100, 
0.599600, 0.725600, 0.725200, 0.770100, 0.992904, 0.880987, 0.329628, 0.760995, 1.225637, 
0.190882, 0.170849, 0.461209, 0.792092, 0.439009, 0.187204, 0.397519, 0.115942, 0.693746,
0.630091, 0.506457, 1.029473, 0.711902, 0.561704, 0.933669, 0.551600, 0.081500, 0.490100,
0.449000, 0.121000, 0.007000, 0.849100, 0.364903, 0.368001, 0.577725, 0.388077, 0.982266, 
1.175804, 1.206475, 1.406806, 1.971594, 1.778529, 0.952033, 1.108865, 0.554245, 0.908649,
1.332267, 1.156451, 2.027425, 1.159764, 0.863042, 1.180590, 0.954228, 0.568405, 0.648085, 
0.448000, 0.852200, 0.486500, 0.938100, 0.287505, 0.302981, 0.652292, 0.747805, 0.862370,
1.409057, 1.131402, 1.108455, 1.453135, 0.828869, 0.235981, -0.197416, -1.191967, 0.111523,
-0.992294, -0.493356, 0.036891, 0.431684, -0.064292, 0.841497, 1.074135, 1.271461, 1.453479,
0.184185, 0.430826, 0.289200, 0.012800, 0.890900, 0.729742, 0.075404, 0.626716, 0.363491,
0.667031, 0.051830, 0.002299, -0.000527, 0.116645, 0.290720, 0.118301, -0.747850, -2.353491,
-2.259420, -1.560458, -1.172611, -1.957398, -0.955003, -0.730451, -0.294588, 0.844038, 0.813670,
-0.698462, 0.226075, 0.839686, 0.292766, 0.979100, 0.345800, 0.208923, 0.662533, 0.994693,
0.019917, -0.415412, -1.240358, -0.667144, -1.974796, -0.983502, -2.709306, -2.533250, -4.298706,
-4.490572, -5.648357, -5.373377, -4.344767, -3.962230, -2.924226, -1.283886, -1.207679, -0.502441,
0.352973, 0.428915, 0.021916, 0.385438, 0.266720, 0.596100, 0.919800, 0.546505, 0.282646, 
0.762753, -0.822183, -2.238950, -2.084786, -3.679115, -4.007041, -5.423554, -4.884935, -5.042348,
-6.758595, -6.892946, -6.771150, -6.289918, -4.793353, -5.752168, -5.013160, -4.080178, -2.123096,
-0.929773, -0.789145, 0.287417, 0.749199, 0.733039, 0.391488, 0.542400, 0.785398, 0.625949, 
-0.396356, 0.525547, -0.410338, -2.756865, -2.728451, -4.749921, -5.282103, -5.036352, -5.212084,
-5.963303, -6.935375, -7.989819, -7.087555, -6.626873, -4.423568, -4.779294, -5.901079, -5.822687,
-4.004785, -3.225231, -1.304288, 0.094647, -0.052771, 0.950928, 0.113797, 0.586600, 0.325099,
0.186463, -0.284517, 0.054308, -0.361042, -2.526963, -4.610445, -5.243141, -3.931996, -5.317148,
-5.225005, -5.858239, -7.187010, -9.616117, -9.833764, -7.345569, -5.604775, -6.414971, -7.003421,
-6.703329, -5.149147, -3.815765, -2.848450, -1.669420, 0.059958, -0.059595, 0.424567, 0.000700,
0.979628, 0.325331, -0.105770, 0.368168, -1.451216, -3.422530, -4.922922, -6.309239, -5.846974,
-6.095170, -6.918099, -7.347948, -10.268225, -11.573502, -11.519403, -9.900619, -8.346202, -8.338366, 
-8.647076, -7.531176, -5.560709, -3.659448, -2.152190, -0.905464, -0.909054, 0.057033, 0.645000,
0.918800, 0.698076, 0.102520, 0.187472, -0.065654, -2.563636, -5.329208, -5.897521, -6.202223,
-6.746566, -6.531455, -6.831598, -8.312800, -10.310195, -13.206010, -14.709015, -10.973260, -9.305115,
-9.445181, -10.455124, -9.092231, -7.723170, -6.187003, -2.926425, -1.653665, -0.923582, -0.138953,
0.022021, 0.659600, 0.866418, 0.762261, -0.379636, -0.806653, -3.397357, -6.630284, -6.706820,
-7.201116, -6.581975, -6.123604, -6.122957, -6.845933, -9.556643, -12.517537, -14.925260, -11.400323,
-9.618997, -9.567322, -10.789177, -10.624988, -8.487598, -6.468645, -2.896403, -1.620716, -1.817783, 
-0.653236, 0.450787, 0.680400, 0.461856, 0.195314, 0.226231, -1.154003, -4.118317, -5.945600,
-6.471147, -7.582143, -6.599397, -5.594505, -4.368190, -6.823953, -8.332282, -10.104696, -10.463555,
-8.633971, -7.949471, -8.870998, -10.314081, -9.564871, -7.966415, -4.655496, -0.536004, 0.363175,
0.162527, -0.846829, 0.179109, 0.205000, 0.481331, 0.630257, 0.187435, -1.444604, -3.312337,
-5.299436, -7.166484, -8.216909, -6.412895, -4.127285, -5.635118, -6.163023, -4.729739, -6.104352,
-6.032934, -6.265167, -6.729722, -7.874218, -7.991345, -8.535663, -6.226172, -5.371978, -1.330358,
-0.897944, -1.009563, -0.834927, -0.203186, 0.553232, 0.486194, 0.232568, 0.366784, -1.582132,
-3.182996, -5.193318, -7.009337, -6.737402, -5.676063, -4.736538, -3.879187, -3.526196, -2.126755,
-2.719518, -4.633303, -4.889445, -6.775915, -8.337292, -9.307773, -7.648471, -6.703167, -4.263318,
-2.552928, -0.814272, 0.027864, -0.654021, 0.858915, 0.475212, 0.164100, 0.927293, 0.051566,
-2.248107, -4.067114, -6.108784, -5.807943, -6.597951, -5.792167, -5.231297, -3.227123, -1.489752,
-2.840867, -4.085421, -7.495848, -6.758819, -6.231565, -8.598497, -9.169580, -8.551259, -6.183485, 
-4.603012, -2.664641, -1.053684, 1.026797, -0.206199, 0.673838, 0.368600, 0.014200, 0.623526,
0.169965, -2.204019, -4.386208, -5.957351, -8.476707, -8.102111, -7.379652, -5.381534, -2.997471,
-3.896746, -5.470032, -6.933550, -8.191857, -6.228928, -7.341039, -9.020803, -8.815051, -7.854021,
-5.598081, -4.212684, -3.904118, -0.764892, 0.795754, -0.594822, -0.133615, 0.142000, 0.416800,
0.825606, -0.061944, -1.868736, -4.869220, -7.367533, -9.663185, -9.118010, -9.055210, -6.206339,
-5.743149, -8.187223, -8.600574, -8.706708, -9.864272, -7.572452, -6.719262, -8.551371, -9.455416, 
-8.025458, -5.096169, -4.158281, -3.491698, -0.772480, 1.042248, -0.173306, 0.685692, 0.598400,
0.890100, 0.483881, 0.390876, -1.882431, -4.429791, -8.165377, -9.166814, -8.782486, -9.471760,
-9.345037, -9.647198, -9.027535, -9.225224, -9.282938, -9.079403, -7.418689, -7.533528, -7.871775,
-8.556684, -7.748752, -6.040589, -4.593153, -2.679666, -0.869949, 1.084784, 0.858426, 0.883186,
0.502800, 0.143246, 0.375643, -0.335673, -1.896465, -3.347986, -6.746781, -8.561512, -9.073856,
-8.220551, -7.657713, -8.090258, -8.383149, -8.627588, -8.641790, -8.504794, -7.950773, -6.806817,
-7.699238, -7.878014, -7.003182, -5.077474, -2.661775, -1.744180, -0.886328, 0.328821, 0.555784,
0.772290, 0.681100, 0.780882, 0.769435, 0.653251, -1.014311, -2.810834, -5.316311, -6.951188,
-9.161715, -7.449671, -6.727675, -7.467633, -6.836152, -7.890142, -6.722048, -6.478004, -6.335914,
-6.333509, -6.583306, -7.552570, -5.126449, -4.389121, -3.927418, -1.177507, 0.317295, 0.866992,
0.504757, 0.803900, 0.938300, 0.026899, 0.191794, 0.136569, -0.681946, -2.123771, -4.417457,
-5.601543, -6.915864, -6.878567, -6.680558, -6.458867, -5.712135, -5.038368, -5.604982, -5.142022,
-5.954566, -5.940516, -5.780858, -6.216887, -4.853539, -4.148920, -1.588469, -1.112149, 0.286977,
0.740821, 0.145513, 0.421600, 0.377300, 0.322700, 0.860644, 0.851537, -0.242118, -0.415194,
-2.687818, -3.819841, -5.276672, -4.541993, -3.868192, -4.581560, -3.647619, -2.954962, -3.804972,
-2.941078, -3.911635, -4.965742, -4.539373, -4.229280, -3.296504, -2.664515, -1.209223, -0.781696,
-0.398292, 0.728466, 0.701150, 0.862000, 0.293500, 0.458500, 0.918799, 0.299913, 0.694025,
0.097821, -0.722851, -1.308387, -2.455955, -2.495357, -1.999995, -1.241567, -0.393238, -0.971056,
-1.159855, -1.555090, -2.636615, -3.815524, -2.869222, -2.461553, -2.013684, -1.839035, 0.076415,
-0.132923, 0.412494, 0.768834, 0.844573, 0.789900, 0.199000, 0.168400, 0.287100, 0.127563,
0.619043, 0.086800, 0.300365, -0.437278, -0.644708, -0.570201, -0.022618, -1.014921, -0.485859,
-1.458887, -1.527008, -1.133411, -1.473713, -1.084063, -0.724576, -1.040501, -0.489869, 0.011410,
0.434387, 0.379013, 0.505238, 0.173012, 0.662600, 0.126400, 0.602100, 0.507200, 0.916300,
0.801099, 0.310604, 0.202669, 0.926420, 0.933550, -0.003898, 0.896092, 0.892313, 0.934540, 
1.161114, 0.332995, 0.790759, 0.136582, 0.303078, 0.051852, 0.640171, 0.326931, 0.027440,
0.143610, 0.487793, 0.824124, 0.655330, 0.841400, 0.316100, 0.799200, 0.649800, 0.613900,
0.925600, 0.251887, 0.756272, 0.841461, 0.051157, 0.062992, 0.667252, 0.600844, 0.624753,
0.714583, 0.247532, 0.250118, 0.649957, 0.831930, 0.673608, 0.260780, 0.854047, 0.114795,
0.446106, 0.679157, 0.201754, 0.162968, 0.488900, 0.735800, 0.018700, 0.780300, 0.212500, 
0.970000, 0.579500, 0.497500, 0.219200, 0.504758, 0.747347, 0.972642, 0.981508, 0.437548,
0.042849, 0.662883, 0.054593, 0.682791, 0.021758, 0.937163, 0.574048, 0.318087, 0.784201,
0.258339, 0.589282, 0.646595, 0.010359, 0.036098, 0.961900, 0.212600, 0.834400, 0.450900,
0.583600, 0.853100, 0.231200, 0.431300, 0.458400, 0.810700, 0.928800, 0.677600, 0.951100, 0.678200,
0.653200, 0.933500, 0.115900, 0.331300, 0.231600, 0.805900, 0.649800, 0.254700, 0.746100,
0.225200, 0.208800, 0.166000, 0.118900, 0.433400, 0.448000, 0.129400, 0.104700, 0.410000,
0.342000, 0.939100, 0.496100, 0.925600, 0.792200, 0.727300, 0.357000, 0.885013, 0.167834,
0.919528, 0.563320, 0.106970, 0.510368, 0.834395, 0.057892, 0.350084, 0.817473, 0.289118,
0.156298, 0.468093, 0.179396, 0.537599, 0.328599, 0.388300, 0.338900, 0.447500, 0.821700,
0.786900, 0.576900, 0.561600, 0.196900, 0.547149, 0.498303, 0.693000, 0.479679, 0.927096,
0.049469, 0.457960, 0.791491, 0.158278, -0.091359, -0.037606, 0.063492, 0.219428, 0.807643,
0.035598, 0.612787, 0.682339, 0.969809, 0.767911, 0.785533, 0.785596, 0.942199, 0.114800,
0.809100, 0.281100, 0.562300, 0.266000, 0.068100, 0.119005, 0.819779, 0.897932, 0.689277,
0.167295, 0.041653, 0.417004, -0.110863, 0.160023, 0.300101, -0.177780, -0.783453, -0.628801, 
-0.412647, -0.147808, -0.497093, 0.091763, 0.337815, 0.676036, 0.879786, 0.153202, 0.223978,
0.322300, 0.939400, 0.166200, 0.437100, 0.748500, 0.082600, 0.999396, -0.013650, 0.440783,
0.441221, 0.249761, -0.200129, -0.792687, -0.218445, -0.291874, -1.098220, -1.917079, -2.626656,
-2.623558, -1.990265, -1.043459, -1.546990, -0.332996, -0.280615, -0.225267, 0.023658, 0.346334,
0.675757, 0.240356, 0.549295, 0.924800, 0.198000, 0.123900, 0.726136, 0.604640, 0.197320,
0.312792, -0.285574, -1.006087, -1.181602, -1.031567, -1.941176, -2.035066, -2.127011, -4.132308,
-4.597322, -5.837845, -4.939662, -5.055035, -4.458178, -3.655221, -2.680038, -1.529981, -0.312158,
0.308720, 0.297544, 0.360297, 0.615361, 0.680487, 0.243000, 0.804300, 0.797375, 0.886288,
1.108109, 0.717725, -0.515879, -2.192177, -1.895748, -4.229285, -4.408351, -4.104019, -4.776411,
-6.141324, -6.295271, -7.010869, -5.762630, -4.483187, -4.906490, -4.722214, -4.347135, -1.665497,
-1.119590, -0.801696, 0.187186, -0.112508, 0.626951, 0.537315, 0.014450, 0.311241, 0.579883, 
1.157054, 0.859942, -0.652614, -2.341837, -2.794042, -4.773511, -4.782470, -4.608779, -5.218952,
-5.009358, -6.887783, -7.886397, -7.074030, -5.301960, -4.042343, -3.753826, -4.901483, -4.516682,
-2.903465, -1.535545, -0.956539, 0.094351, 0.581508, 0.774697, 0.451176, 0.479321, 0.716122,
0.993609, 1.154068, 0.362470, -0.877984, -1.745320, -2.614607, -3.540113, -4.044970, -4.460402,
-4.268836, -5.055695, -7.694191, -8.452010, -8.370409, -6.899566, -5.228947, -5.137012, -6.689538,
-5.368273, -5.000850, -2.380829, -1.593439, -0.360604, 0.012553, 0.399405, 0.525163, 0.010459,
1.151990, 0.748073, 0.700806, 0.464335, -1.038936, -3.080132, -5.698016, -5.189065, -5.140508,
-5.987489, -6.741765, -6.388572, -9.471590, -10.793139, -11.059220, -9.206605, -6.313766, -7.476398,
-7.063711, -7.302057, -5.334407, -3.020536, -2.048142, -0.357801, 0.428026, 0.830202, 0.960706,
0.832589, 0.241856, 1.001853, 1.361414, 0.320595, -2.077251, -4.617607, -6.210591, -6.548855,
-5.865311, -6.439929, -6.646238, -8.532885, -9.000576, -12.618099, -13.802116, -10.075584, -8.214505,
-8.757461, -9.476953, -8.768287, -7.444797, -5.378887, -3.157565, -1.467528, -0.520449, -0.127826, 
0.866836, 0.440445, 1.173505, 1.660740, 0.874551, -0.604854, -3.770503, -5.956226, -6.556186,
-7.754583, -6.434702, -5.359436, -5.225338, -6.968849, -10.135349, -12.742047, -12.815996, -10.805439,
-8.450464, -8.389520, -10.890410, -9.025985, -8.250351, -5.477660, -3.037593, -2.205127, -0.632008,
0.388674, 0.578142, 0.291795, 1.058034, 1.064118, -0.149162, -1.616790, -4.044059, -6.101567,
-6.243120, -7.035852, -7.058730, -5.535333, -5.157281, -7.297291, -10.073635, -10.221509, -9.054398,
-8.421479, -6.933342, -7.790020, -10.325991, -10.074216, -7.721671, -5.140180, -2.587794, -1.353421,
0.097126, 0.753794, 0.193393, 0.628700, 0.700512, 1.512462, -0.154159, -1.030885, -3.763161,
-5.282979, -6.874871, -7.342545, -6.782038, -4.287263, -5.166691, -6.699103, -7.788322, -5.341273,
-6.496110, -5.606806, -6.627038, -8.282037, -8.846943, -7.624324, -6.881830, -4.639972, -2.549740,
-1.392356, -0.129464, 0.016491, 0.355886, 0.862300, 0.732632, 0.557782, -0.391063, -0.795674,
-2.975749, -6.143575, -7.258689, -6.866433, -6.302120, -5.505684, -4.639250, -5.010079, -2.986221,
-2.382845, -5.107767, -5.179080, -5.637930, -7.707942, -7.498714, -7.596979, -7.537637, -4.629291, 
-1.835337, -1.665841, -0.351188, 0.371853, 0.652919, 0.242645, 0.071894, 0.764164, 0.659295,
-0.769629, -3.847134, -6.272321, -7.176887, -7.736517, -7.063301, -4.850415, -3.861218, -3.554226,
-2.859169, -5.081523, -6.605726, -7.259918, -5.217820, -8.339679, -8.819971, -8.267254, -6.058589,
-3.804933, -2.272371, -2.821043, -0.372347, 0.350666, 0.825344, 0.020357, 0.914863, 0.092448,
0.109166, -0.844996, -5.041064, -6.707560, -7.064862, -8.533859, -7.611863, -5.825679, -5.348402,
-4.489110, -5.146816, -8.444733, -7.618147, -6.532119, -6.257213, -8.980532, -8.649864, -7.242630,
-5.149981, -4.172297, -3.553197, -1.971400, -0.795706, -0.304932, 0.284881, 0.234700, 0.590255,
0.760000, -0.091176, -1.411266, -4.541742, -7.948219, -10.013396, -9.968992, -8.886277, -8.800980,
-7.266408, -8.221877, -8.467477, -9.097621, -9.222108, -7.692172, -7.146448, -8.564454, -9.905170,
-7.737319, -6.040458, -4.411719, -2.254207, -0.936243, 0.104487, 0.076957, 0.471432, 0.993142,
0.065400, 1.000931, 0.095698, -2.145136, -5.012213, -8.182837, -9.380054, -10.214420, -9.314806,
-9.470302, -9.895108, -10.518988, -9.026347, -9.929454, -9.295738, -8.158137, -7.620539, -8.254214,
-8.430064, -7.532539, -5.772327, -5.211707, -3.588008, -1.158140, 0.303497, 0.759855, 0.821792,
0.122000, 1.065866, 1.079613, -0.234303, -1.268186, -3.976744, -6.960748, -9.044106, -9.120171,
-9.388147, -9.287789, -9.692809, -8.895126, -9.412703, -8.917742, -8.654581, -8.259644, -7.228036,
-8.327514, -7.948307, -7.099415, -5.922336, -4.359900, -2.420416, -0.747428, 0.692561, 0.566804, 
0.774573, 0.064700, 0.075013, 0.216236, -0.000313, -1.071196, -3.040347, -5.641614, -8.032995,
-8.437467, -8.772769, -7.736814, -8.626329, -7.490164, -7.891651, -7.382209, -7.485729, -7.349347,
-7.136857, -8.460973, -8.267265, -7.292876, -5.372003, -2.961294, -1.631337, 0.430785, -0.224509,
0.122796, 0.165000, 0.544300, 0.331592, 0.506186, 0.067908, -1.150160, -2.540416, -5.285183,
-6.670290, -7.303658, -7.060133, -6.920079, -7.571256, -6.055554, -6.351517, -6.643620, -5.503407,
-5.692893, -6.396443, -7.222554, -6.711866, -5.249331, -4.279503, -2.976650, -1.101979, -0.098749,
0.703283, 0.476871, 0.196700, 0.707900, 0.260000, 0.605509, -0.356535, -0.835506, -0.741500,
-2.905907, -3.882405, -4.748228, -5.341023, -4.773567, -5.179002, -3.662622, -3.966218, -3.314518,
-4.411969, -4.883554, -5.488502, -5.101667, -3.886283, -4.475948, -2.977357, -2.309821, -0.511900,
0.576442, 0.555699, 0.307149, 0.813100, 0.439300, 0.444400, -0.273944, -0.390298, 0.055053,
0.102565, -0.808465, -1.102646, -2.941550, -2.742257, -1.040016, -1.173775, -1.710048, -1.641966,
-1.778392, -1.402971, -3.148585, -3.291759, -2.761378, -3.414906, -3.106027, -2.603921, -1.377611,
-1.067794, -0.132042, -0.154705, 0.028293, 0.263300, 0.622200, 0.973600, 0.039256, 0.900602,
0.341370, 1.543031, 0.626974, -0.566635, -0.321138, -0.950660, -0.753127, -0.023931, 0.061325, 
0.204070, -0.913910, -0.517391, -1.668493, -1.518988, -2.377230, -2.354425, -1.911638, -0.936119,
-0.985192, -0.411607, 0.223543, 0.566957, 0.752900, 0.345000, 0.055100, 0.416500, 0.234046,
0.643035, 1.105165, 0.886884, 0.323482, 0.627496, 1.741528, 1.386919, 0.611233, 1.585059,
1.436195, 0.770630, 0.840463, 0.562755, 0.971290, -0.107038, 0.919808, -0.037151, 0.012350,
0.458034, -0.068905, 0.027968, 0.637277, 0.773422, 0.915800, 0.970000, 0.698500, 0.304000,
0.315000, 0.385262, 0.399905, 0.081779, 0.805176, 0.743920, 1.141564, 1.250223, 1.368679,
1.387020, 0.554858, 1.233329, 1.790114, 1.012937, 0.863265, 1.397373, 1.103015, 2.003522,
0.834788, 0.339487, 0.527542, 0.489887, 0.310474, 0.850900, 0.812000, 0.987100, 0.287100,
0.363100, 0.957100, 0.620900, 0.667372, 0.916086, 0.030896, 0.462253, 0.201168, 0.396455,
0.835098, 0.975536, 0.478224, 1.194642, 0.756917, 1.225997, 0.605736, 0.920325, 0.958871,
0.907823, 1.167112, 0.726341, 0.496538, 1.048767, 0.952300, 0.646800, 0.129200, 0.263200,
0.132900, 0.576500, 0.885500, 0.420100, 0.939600, 0.477900, 0.041000, 0.241900, 0.385300, 0.685900,
0.629500, 0.121700, 0.667217, 0.397679, 0.007300, 0.630100, 0.721300, 0.353800, 0.427100,
0.070100, 0.471800, 0.695900, 0.145900, 0.248700, 0.848600, 0.268400, 0.822200, 0.800900,
0.550500, 0.951400, 0.064100, 0.683400, 0.527900, 0.949700, 0.738699, 0.102696, 0.062742,
0.414795, 0.344150, 0.447866, 0.733425, 0.608646, 0.203978, 0.037743, 0.006074, 0.845808, 
0.667032, 0.728255, 0.836288, 0.096082, 0.434399, 0.308400, 0.427200, 0.580300, 0.192300,
0.275800, 0.484000, 0.014500, 0.076800, 0.669700, 0.601200, 0.776100, 0.988297, 0.764232,
0.360315, 0.697851, 0.801277, 0.359831, 0.721976, 0.096152, 0.387428, 0.384494, 0.677247,
0.741052, 0.767613, 0.650651, 0.186776, 0.848054, 0.178734, 0.025939, 0.586818, 0.627591,
0.975200, 0.014800, 0.843100, 0.167500, 0.924640, 0.961999, 0.817139, 0.000169, 0.629898,
0.025860, 0.337549, 0.352231, 0.544847, 0.333344, -0.002140, -0.095326, -1.164969, -0.816337,
-0.648936, -0.732377, 0.862471, -0.544111, 0.160365, 0.583167, 1.398666, 1.426864, 0.402632,
0.001214, 0.758958, 0.904500, 0.273300, 0.525600, 0.550674, 0.749936, 0.664683, 0.320565,
0.251715, -0.523763, -0.257239, 0.367337, 0.521782, 0.470900, 0.870889, -0.954470, -1.692629,
-1.823474, -1.477919, -1.446681, -1.260992, -1.201713, -0.658439, 0.028632, 0.212303, -0.114292,
0.856260, 0.790858, 0.416714, 0.674948, 0.686200, 0.876100, 0.204666, 0.575662, 0.251197,
-0.315984, -1.010797, -0.305817, -1.813653, -1.244063, -1.519542, -1.226455, -2.230125, -3.771454,
-4.103037, -5.444129, -4.774532, -3.632135, -4.710070, -3.190630, -1.323192, -0.993401, -0.370287,
0.045916, -0.156066, 1.211818, 0.588866, 0.160640, 0.469200, 0.308162, 0.833352, 0.731347,
-0.259503, -0.211986, -1.965313, -2.157568, -3.752170, -4.438725, -4.813699, -5.180389, -4.769128,
-5.907636, -6.899499, -6.629026, -5.948482, -4.419789, -5.173297, -4.303694, -3.915994, -2.829607, 
-0.927904, 0.001774, 0.280042, 1.019980, 0.450865, 0.655378, 0.964987, 0.325964, 0.896260,
0.012885, -0.006966, -0.361105, -2.257832, -3.158171, -3.805094, -5.628296, -5.112454, -5.232245,
-5.998362, -6.630582, -8.158466, -6.991114, -6.177050, -4.547278, -4.143128, -5.438008, -4.964189,
-2.728934, -2.060550, -0.185481, 0.114361, 0.451977, 0.700080, 0.843846, 0.399833, 0.846342,
0.280969, 0.153829, -0.083767, -0.353441, -2.275866, -3.729266, -5.144624, -3.678264, -4.283907,
-5.055950, -5.522746, -6.905072, -9.188764, -8.823503, -6.533280, -5.238168, -5.560287, -5.818820,
-6.015451, -4.287035, -2.417165, -1.449929, 1.200347, 1.533891, 1.009107, 1.048654, 0.916925,
0.002388, 0.249990, 0.824228, -0.175575, -1.252204, -2.665220, -5.582698, -4.825446, -5.417828,
-6.194838, -6.622367, -7.693674, -9.434103, -12.100980, -12.250278, -9.118791, -7.349022, -8.182813,
-8.067578, -7.471345, -5.868595, -3.802746, -0.949361, 0.149854, 2.280942, 1.228177, 0.087920,
0.003900, 0.367943, 0.640912, -0.073632, -0.096772, -2.870055, -5.215270, -5.628938, -6.503169,
-6.227643, -5.816703, -6.422342, -7.426992, -10.115709, -12.809104, -15.022405, -11.897123, -8.867581,
-8.369069, -9.531854, -8.902488, -6.882795, -4.747065, -2.485158, -1.692770, 0.140083, 1.101903, 
0.292508, 0.734698, 0.582979, 0.141545, 0.034351, -0.713475, -3.329992, -6.794212, -6.031079,
-6.696002, -6.255911, -5.935726, -5.429406, -7.093481, -9.462032, -11.691463, -13.939452, -11.308680,
-9.478407, -9.795790, -11.320960, -10.615014, -9.197604, -6.194510, -3.329436, -1.005914, -0.861298,
1.717887, 0.098380, 0.673798, 0.142350, 0.717112, 0.754061, -1.594717, -3.022461, -5.666187,
-7.116491, -8.324749, -7.031211, -5.181176, -5.167061, -6.366077, -8.120088, -9.514254, -10.010227, 
-8.792330, -7.657211, -8.074841, -9.548536, -9.103737, -7.466248, -5.002433, -1.271526, 0.835055,
0.380417, 0.221519, 0.804802, 0.131499, 0.533504, 0.628273, 0.136071, -1.410642, -4.124239,
-6.114275, -6.664772, -7.447329, -6.098381, -4.932870, -5.197887, -5.999554, -4.503806, -5.951042,
-5.600950, -6.014800, -6.833142, -7.734138, -8.613129, -7.299854, -7.416923, -5.166509, -1.841080,
-0.611628, -0.733347, 0.388467, 0.108125, 0.952592, 0.573558, 0.757159, 0.023921, -1.749738,
-3.388064, -5.623766, -7.392305, -7.242604, -6.286767, -5.237003, -3.969239, -3.358087, -1.795717,
-1.941041, -4.656542, -5.379004, -6.038198, -8.861483, -8.501423, -8.968146, -6.156277, -6.088014,
-3.996718, -0.997305, 0.521999, 0.708046, 0.348059, 0.409767, 0.305099, 0.536351, 0.485039,
-0.787547, -4.065974, -6.040373, -7.020441, -7.995040, -6.248602, -5.645154, -3.323157, -1.692049,
-2.496896, -4.243649, -7.084237, -6.647467, -6.845089, -8.152928, -9.284438, -8.434916, -6.686969,
-4.344477, -3.455281, -1.857819, 0.710468, 0.606433, 0.931616, 0.110599, 0.732398, 0.282847, 
0.211464, -1.868705, -3.467218, -7.710169, -8.248139, -7.658859, -7.892195, -5.168849, -3.756588,
-3.550368, -5.428501, -6.577710, -8.550098, -6.522796, -6.612467, -9.617280, -10.082316, -8.731754,
-6.302170, -6.005486, -2.168669, -1.349307, 0.213562, -0.053338, 0.480409, 0.694000, 0.017460,
0.411308, 0.548384, -1.325075, -4.631711, -8.376330, -8.932170, -9.924804, -9.477358, -7.178136,
-6.865430, -7.536766, -8.899043, -9.072557, -9.739000, -7.156311, -7.303574, -9.191890, -9.245749,
-8.039282, -5.246529, -3.551826, -3.219501, -1.010001, -0.715666, 0.652602, 0.211498, 0.689332,
0.004379, 0.694197, -0.277285, -2.265337, -5.079126, -7.806152, -9.410416, -8.934074, -9.470146,
-8.675184, -9.334704, -10.068753, -8.835059, -9.879060, -8.857478, -8.283991, -7.661318, -8.281677,
-8.768268, -7.689427, -5.944292, -4.613707, -2.935806, -1.381173, -0.137965, 0.595542, 0.247235,
0.438280, 0.193581, 0.099810, -0.180478, -2.477828, -3.473360, -6.314744, -8.937975, -9.277415, 
-7.869211, -8.340042, -8.710656, -9.296474, -9.267034, -9.084627, -8.892567, -7.795369, -6.961776,
-7.515100, -8.333483, -7.467970, -5.373399, -3.040504, -1.162068, -0.784461, -0.299885, 0.427482,
0.295140, 0.026200, 0.174872, 0.180760, -0.648666, -1.354373, -2.614403, -5.088606, -6.641771,
-8.150606, -8.275833, -7.145204, -7.679054, -7.291781, -7.624429, -8.119761, -6.576804, -7.170505,
-6.765456, -7.198923, -6.968601, -5.550816, -4.110072, -2.749307, -1.525634, -0.526136, -0.196292, 
0.645806, 0.966966, 0.537994, 0.199293, 0.257414, 0.004403, -0.384245, -2.188183, -3.660849,
-5.377268, -7.589001, -6.626821, -6.988327, -6.925925, -6.522674, -5.252594, -6.026991, -5.022652,
-6.247215, -5.795609, -6.328697, -6.060051, -5.175147, -4.134952, -2.005525, -0.447268, -0.001053,
0.602636, 0.210431, 0.851200, 0.652595, 0.926800, 0.792259, 0.228557, -0.319245, -0.482236,
-2.745950, -4.144674, -5.058254, -5.136045, -4.491378, -4.198792, -4.035282, -3.845044, -3.391374,
-3.635179, -4.423578, -4.865149, -5.030969, -3.929375, -4.058225, -2.085352, -0.939821, -0.144599,
-0.041353, 0.214384, 0.603350, 0.834500, 0.785800, 0.471600, 0.684190, 0.440989, 0.024302,
-0.608087, -0.944250, -1.747624, -2.066814, -1.795336, -1.403454, -0.397063, -0.396874, -0.096539,
-1.190764, -1.230010, -2.182020, -2.817995, -2.705606, -2.624582, -2.629511, -1.715251, -0.051255,
0.569279, 0.602294, 0.730165, 0.423283, 0.998600, 0.761200, 0.778000, 0.468204, 0.241213,
-0.263516, -0.440628, -0.951829, -0.773738, -0.056786, -0.667093, -0.572494, 0.466377, 0.473863, 
-0.338291, 0.002770, -0.536025, -0.186501, -2.176941, -0.456923, -0.167302, -1.006508, -0.138857, 
0.354547, 0.569713, 0.361803, -0.041129, 0.626939, 0.260300, 0.641600, 0.814200, 0.893743,
0.396657, 0.255367, -0.346021, 0.947397, 0.669724, 0.267975, 0.739891, 0.790936, 0.838014,
1.144186, 0.699987, 0.582240, 1.389227, 0.805877, 1.020387, 0.546007, 0.151661, 0.585357,
0.027001, 0.095306, -0.027389, -0.046121, 0.211270, 0.690544, 0.423600, 0.046900, 0.349000,
0.319100, 0.687314, 0.764046, 0.102928, -0.076586, 0.162361, 0.000684, -0.217275, 0.144274,
0.760905, 0.688151, 0.114961, -0.301138, -0.506288, 0.300293, -0.431349, 0.151039, -0.458570,
0.299147, 0.519135, -0.039571, 0.058143, 0.967500, 0.524000, 0.370700, 0.643200, 0.379900,
0.704400, 0.702000, 0.426800, 0.688595, 0.019785, 0.113212, 0.482850, 0.863604, 0.838637,
0.473948, 0.705128, 0.794221, 0.580355, 0.708359, 0.127262, 0.179319, 0.693620, 0.193315,
0.731115, 0.707587, 0.516198, 0.576241, 0.078529, 0.283600, 0.715200, 0.770100, 0.251100,
0.874500, 0.776000, 0.894300, 0.254400, 0.480400, 0.231500, 0.316400, 0.169000, 0.252700, 0.067000,
0.291300, 0.757500, 0.906977, 0.799770, 0.473298, 0.427500, 0.455400, 0.187000, 0.557900,
0.275500, 0.520500, 0.391100, 0.009000, 0.885800, 0.922200, 0.221200, 0.599600, 0.205800,
0.571600, 0.369800, 0.092200, 0.446100, 0.145800, 0.621700, 0.335454, 0.625609, 0.852641,
0.286477, 0.418548, 0.641784, 0.182929, 0.651394, 0.494505, 0.717513, -0.320343, 0.743221, 
0.325720, 0.615702, 0.793070, 0.519333, 0.892200, 0.949996, 0.545700, 0.536400, 0.835800,
0.103100, 0.392800, 0.435500, 0.308900, 0.964176, 0.440388, 0.036297, 0.045439, 0.585197,
0.656230, 0.011728, 0.819909, 0.429869, 0.772159, 0.819425, 0.213401, 0.242207, 0.138926,
0.370291, 0.801336, 0.406188, 0.353072, 0.152380, 0.048168, 0.152858, 0.308586, 0.576100,
0.738100, 0.489500, 0.747700, 0.574000, 0.592600, 0.139552, 0.644349, 0.535997, 0.737779,
0.714491, 0.554011, 0.333315, 0.750906, 0.683233, -0.201928, -0.096367, -0.544938, -0.663262,
-0.161444, -0.009883, 0.932111, 0.217843, 0.197743, 0.622224, 0.672446, 0.643072, 0.558396,
0.360200, 0.434100, 0.867300, 0.936300, 0.172300, 0.992000, 0.319118, 0.380964, 0.573601,
0.073465, 0.575236, -0.102109, -0.015161, -0.246461, -0.782056, -0.881094, -1.954692, -2.675422,
-3.088055, -2.403487, -2.607061, -2.172481, -1.564434, -1.291126, -0.347018, 0.485787, 0.303227, 
0.307548, 0.641978, 0.042936, 0.883258, 0.003600, 0.112600, 0.385646, 0.926798, 0.258927,
0.225698, 0.219557, -0.230632, -1.108115, -2.080953, -1.907589, -1.140794, -2.629472, -3.357919,
-5.205142, -4.876038, -5.699910, -4.287135, -4.812206, -3.245973, -2.224128, -1.379875, -0.759447,
0.324272, 0.508537, 0.598739, 0.229664, 0.080699, 0.385400, 0.901626, 0.575041, 0.331179,
-0.291974, -0.499716, -1.164638, -2.753782, -3.310657, -3.710227, -5.369302, -4.596977, -4.694762, 
-5.457036, -6.076522, -6.854047, -5.467410, -4.311687, -4.334451, -4.887394, -3.574195, -2.432512,
-1.144963, -0.767336, -0.221281, 0.635147, 0.047550, 0.110868, 0.060700, 0.749351, 0.798624,
-0.046256, -0.053130, -1.667377, -2.430372, -3.642128, -4.658966, -5.315158, -4.993708, -5.176665,
-5.255836, -6.420356, -7.467558, -6.885878, -5.344301, -3.993840, -4.167751, -5.230285, -4.507774,
-3.238508, -1.957148, -1.067303, -0.372055, 0.516665, 0.412736, 0.606866, 0.434437, 0.131609,
0.647491, -0.608368, -0.726693, -1.691108, -2.052805, -4.436597, -4.169426, -4.024987, -4.838485,
-4.882808, -6.024999, -7.098340, -8.543364, -8.439238, -6.931382, -5.225774, -5.549112, -6.298027, 
-6.318896, -4.063602, -3.153939, -1.895116, -0.503511, -0.327722, 0.395943, 0.982982, 0.107594, 
-0.073954, 0.470882, -0.573200, -0.132707, -0.951874, -3.376653, -4.892251, -5.310192, -5.304023,
-5.712745, -6.492257, -7.483199, -9.450807, -11.413755, -11.212402, -9.280509, -7.175872, -7.887863,
-7.882066, -7.180116, -6.361683, -3.337013, -2.095234, -0.326238, 0.116236, 0.429488, 0.884583,
0.695542, 0.106044, 0.673391, 0.071752, -0.528813, -2.893912, -4.802019, -6.634737, -6.714248,
-5.958694, -6.534372, -6.538055, -7.769334, -10.255932, -12.940883, -14.370173, -11.070235, -8.613976, 
-8.608184, -9.536657, -8.931919, -7.332787, -5.298327, -2.848271, -1.858459, -0.236779, 0.189247,
0.522162, 0.475276, 0.020350, 0.027868, -0.898130, -1.610034, -3.495975, -5.687278, -6.389933,
-6.270778, -6.613118, -5.365308, -5.079012, -6.821910, -9.627701, -13.351002, -13.158051, -11.151443,
-8.245415, -9.210663, -11.568479, -9.425655, -8.715158, -5.851285, -3.650903, -1.675048, -0.948908,
0.535033, 0.334101, 0.938217, 0.024065, 0.106584, -1.904585, -1.394324, -3.904242, -5.254019,
-6.837053, -7.660832, -6.423619, -5.144477, -4.718271, -6.944555, -8.376689, -9.837844, -9.577490,
-8.506934, -7.181241, -7.612302, -9.437434, -9.358612, -7.020072, -5.158747, -1.553788, -1.010002,
-0.377920, 0.405416, 0.482606, 0.448699, 0.859160, 0.121747, -1.369362, -0.697194, -3.378297, 
-5.849282, -6.357600, -7.143343, -6.280172, -4.392369, -5.293073, -6.430000, -5.341823, -5.180949,
-5.807133, -5.636614, -6.304465, -7.389258, -7.917991, -7.778859, -6.867724, -4.364766, -3.279105,
-1.982352, -0.767087, 0.056799, 0.087605, 0.518679, 0.708968, 0.025360, -0.915124, -0.100593,
-3.014601, -5.538421, -7.291741, -7.072929, -6.232369, -5.100092, -4.253549, -3.605722, -2.387735, 
-2.246008, -4.656530, -5.091873, -5.616537, -8.431057, -8.115946, -7.949391, -6.801319, -4.701370,
-4.243892, -1.712814, -0.274178, 0.322590, 0.855318, 0.267632, 0.831999, 0.668133, -0.107540,
-1.190126, -3.211396, -6.015675, -6.545602, -7.157659, -6.352840, -4.983866, -3.076412, -2.625921,
-2.602721, -4.929724, -6.443732, -6.306692, -5.844066, -8.539909, -9.056120, -8.288851, -6.118291,
-4.302527, -3.431060, -2.917608, -0.303137, 0.083352, 0.183067, 0.625727, 0.800193, 0.583853,
-0.162544, -1.417795, -3.903259, -7.425977, -7.603396, -8.013588, -7.970133, -5.524802, -3.680251,
-4.414401, -5.842197, -7.464489, -8.315352, -6.270690, -6.562878, -9.151087, -9.270329, -8.415151,
-5.923405, -3.845968, -4.029305, -2.117270, -0.534392, 0.523895, 0.059016, 0.075700, 0.928434, 
0.552462, 0.204165, -2.279116, -4.668306, -8.318008, -8.950472, -9.773899, -9.050138, -7.550786,
-7.358732, -7.787126, -8.352463, -9.183610, -9.076420, -7.395606, -6.956711, -8.344936, -9.795032,
-8.164252, -5.552253, -5.128992, -2.614213, -1.467600, -0.175067, 0.581155, 0.707769, 0.632923,
0.261096, 0.231929, -0.352972, -2.535821, -5.260273, -7.320288, -9.668084, -9.928277, -9.601067,
-8.370418, -8.906496, -10.861234, -9.496466, -9.773499, -8.750812, -7.739634, -7.590965, -8.569818,
-8.826729, -7.257998, -5.953082, -5.122748, -3.693485, -1.811396, 0.685500, 0.033144, 0.975303,
0.879600, 0.350938, 0.308303, -0.434368, -1.721459, -3.795722, -6.713223, -7.963776, -9.457788,
-9.593935, -8.494234, -9.736483, -9.196667, -9.357078, -8.994325, -9.405974, -8.243038, -7.310505,
-8.016582, -7.951349, -7.176256, -5.365390, -3.537999, -2.723562, -1.035293, 0.092614, 0.054196,
0.522858, 0.814500, 0.281651, 0.114390, -0.170313, -1.426262, -2.954284, -5.599261, -7.739632,
-8.099284, -8.754317, -8.232792, -8.500752, -8.329576, -7.764313, -7.761917, -7.017679, -6.492887,
-6.415721, -7.205292, -7.303224, -7.002251, -5.382119, -2.957859, -1.401117, 0.443858, 0.762487,
0.306052, 0.730271, 0.732700, 0.284597, 0.864125, -0.194974, -0.065713, -2.350608, -4.273674,
-6.150994, -7.892172, -7.064737, -6.873650, -8.107783, -6.365286, -6.866447, -6.686010, -5.799575,
-6.383205, -7.049338, -7.114354, -6.259031, -4.655880, -3.039142, -2.383868, -1.357264, 0.360653,
0.588742, 0.693673, 0.084200, 0.241000, 0.899600, 0.801141, 0.390347, 0.050675, -1.389403,
-2.682101, -4.244921, -4.662491, -5.290079, -4.191755, -4.281046, -4.001605, -3.849597, -3.428759,
-4.565014, -4.732292, -4.899534, -5.298601, -4.891752, -4.032123, -3.796365, -1.322215, 0.310013, 
0.415550, 0.206345, 0.602334, 0.728200, 0.500800, 0.473800, 0.718733, 0.340776, -0.210651,
-0.484322, -1.959661, -2.175467, -2.012876, -3.075850, -1.126649, -0.793367, -0.791312, -1.046872,
-1.128755, -1.410836, -2.893931, -3.211141, -2.848140, -2.532858, -2.824735, -1.476184, 0.513011,
0.804610, -0.327348, 0.029346, 0.389835, 0.356600, 0.195900, 0.162300, 0.068725, 0.131760,
0.700730, 1.147756, 0.199828, -0.765294, -0.123808, -0.720335, -0.611810, -0.332195, -0.066156,
-0.595068, -1.495572, -0.662362, -1.251992, -1.773200, -1.409200, -1.691892, -0.530192, -0.368966,
0.054443, 1.045239, -0.710905, 0.445385, 0.323292, 0.751500, 0.376400, 0.965700, 0.116700,
0.196161, 0.270570, 1.789978, 0.864225, 0.468432, 1.530197, 0.897540, 0.766285, 1.134416,
1.153413, 0.924921, 1.359098, 0.542744, 0.954023, 0.573354, 0.577648, 0.448609, 1.707629, 
0.791703, 0.183931, 0.088080, -0.499864, 0.281866, 0.818481, 0.727000, 0.654200, 0.367800,
0.478500, 0.039991, 1.442344, 1.164077, 1.381945, 1.678903, 1.504470, 1.749040, 1.715350,
1.557016, 1.637240, 1.424111, 1.943701, 1.222553, 0.755231, 1.337721, 1.855288, 1.199664,
1.622918, 0.732510, 0.711472, 0.781923, 1.005169, 0.495500, 0.009200, 0.039400, 0.826700,
0.579300, 0.401600, 0.116100, 0.946864, 0.872291, 0.174983, 1.121531, 0.640939, 0.711199,
0.332221, 0.918710, 0.953173, -0.070779, 0.663722, 1.058761, 0.759574, 0.228488, 0.017309,
0.508529, 0.703651, 0.528748, -0.306610, 0.405459, 0.748900, 0.236500, 0.601800, 0.374100 };


PROGMEM const float bias[OUTPUT_SHAPE] = {-1.239610, -0.651699, -0.761524, -1.083487, -0.621832, 0.954927, -1.003710, -0.250564, -2.213526, -1.192949};



#endif
